50, 20, 5, 5, "WeightData": -0.009687121026217937, -0.07583851367235184, 0.007184842601418495, 0.05623619630932808, 0.051445282995700836, 0.036790069192647934, 0.021432053297758102, -0.039065759629011154, 0.0033924595918506384, 0.004296906292438507, -0.017161928117275238, 0.01825966127216816, 0.01072327233850956, 0.05264760181307793, -3.773286152863875e-05, -0.008541208691895008, -0.08084717392921448, -0.085230253636837, -0.06305219233036041, -0.06879457831382751, 0.04327256977558136, -0.0376950278878212, 0.02293972112238407, -0.04599713161587715, -0.015169337391853333, 0.017610710114240646, 0.006932938005775213, -0.034567032009363174, 0.02157505601644516, 0.015720129013061523, 0.007082345429807901, -0.046408988535404205, -0.025559483096003532, 0.015013985335826874, -0.05527684837579727, -0.07324566692113876, 0.025867603719234467, 0.0012101468164473772, 0.03223064914345741, -0.037349071353673935, -0.05831358954310417, -0.017228633165359497, 0.036797553300857544, 0.0013220523251220584, 0.0241309255361557, -0.056839123368263245, 0.033625926822423935, 0.03597444295883179, 0.02491307444870472, 0.026048999279737473, -0.02107543684542179, -0.06554681062698364, 0.044331736862659454, 0.0017958515090867877, 0.019313408061861992, -0.018061133101582527, -0.03531939163804054, 0.028155650943517685, 0.004196023102849722, 0.03346622735261917, 0.0006374625372700393, -0.0005889350431971252, 0.030135082080960274, 0.049585793167352676, 0.058868762105703354, 0.013479499146342278, -0.08861412853002548, -0.053229834884405136, -0.041857197880744934, 0.007765642367303371, -0.035489439964294434, -0.007433876395225525, 0.010981627739965916, 0.019442960619926453, 0.013154509477317333, -0.05763516575098038, -0.0466783232986927, 0.024430114775896072, 0.02878614142537117, 0.02485942840576172, -0.010186529718339443, 0.015227067284286022, 0.029803138226270676, -0.051874883472919464, -0.02531878463923931, -0.015010146424174309, -0.01801389828324318, 0.008517124690115452, -0.006625375710427761, -0.00044637691462412477, -0.06085390970110893, 0.014426850713789463, -0.014275966212153435, -0.05005675554275513, 0.0019789449870586395, -0.03843360021710396, -0.07649005949497223, -0.031885188072919846, -0.034995220601558685, 0.017788667231798172, -0.04351307079195976, -0.024353498592972755, -0.026378102600574493, -0.024454548954963684, -0.007146983407437801, 0.007329685613512993, -0.06774849444627762, -0.07049069553613663, -0.007807083427906036, -0.035368435084819794, 0.042371585965156555, -0.05296330526471138, -0.01540580578148365, 0.014578837901353836, 0.08978661894798279, 0.02254040353000164, -0.054453399032354355, -0.019120467826724052, 0.04620636999607086, 0.08310561627149582, -0.006369238719344139, -0.038243845105171204, 0.04070528224110603, -0.028973843902349472, -0.04400472342967987, 0.06029435247182846, 0.01749255135655403, 0.015383876860141754, 0.07343941926956177, -0.04781484976410866, -0.022301096469163895, -0.03374985605478287, -0.0044000702910125256, 0.03279279172420502, -0.004755419213324785, -0.026763126254081726, -0.02791346050798893, 0.013399495743215084, 0.024614999070763588, -0.026259493082761765, -0.017069580033421516, -0.05908641964197159, 0.012135496363043785, 0.02372124046087265, -0.01121913455426693, 0.03025120310485363, 0.04552682861685753, -0.009206832386553288, -0.0394146703183651, 0.03782255947589874, -0.01111181452870369, -0.00575876934453845, 0.0002242393820779398, 0.015208144672214985, -0.05383129045367241, -0.07848966121673584, -0.01872258260846138, 0.05118012800812721, -0.015150295570492744, -0.04302448779344559, -0.01990046165883541, 0.0564543716609478, 0.037389885634183884, 0.026812810450792313, -0.015770409256219864, 0.024066653102636337, -0.033545829355716705, -0.045757487416267395, 0.02251480147242546, -0.0221727192401886, 0.001992566278204322, 0.015351531095802784, -0.07706377655267715, -0.05148462578654289, -0.036420948803424835, -0.05577782168984413, 0.009532898664474487, 0.03315560519695282, 0.03370286896824837, -0.014423275366425514, -0.04045356437563896, 0.013662677258253098, -0.01737203821539879, 0.01880686543881893, -0.02014845237135887, 0.02245124615728855, -0.003085534553974867, 0.016805564984679222, -0.007831721566617489, 0.054243627935647964, -0.06037958711385727, 0.02761908248066902, 0.029741842299699783, 0.010253851301968098, 0.050014231353998184, 0.02399546094238758, -0.03822304308414459, 0.020020974799990654, 0.03100375272333622, -0.00270270393230021, -0.04023927450180054, 0.02230174094438553, 0.036421772092580795, 0.04428161308169365, 0.008790326304733753, -0.06795565038919449, -0.021368950605392456, -0.006905270740389824, -0.022726120427250862, -0.013271036557853222, -0.0020187043119221926, -0.06346095353364944, 0.021033698692917824, 0.0393783301115036, 0.04731461778283119, -0.05301555618643761, -0.00873617921024561, 0.015078582800924778, 0.004208672791719437, 0.0024243344087153673, 0.017298413440585136, 0.0224623866379261, -0.07213383913040161, -0.07669197767972946, -0.08435765653848648, -0.012831327505409718, 0.007954910397529602, 0.05104745179414749, -0.028948647901415825, -0.014859325252473354, -0.058230653405189514, -0.010972087271511555, 0.005051379557698965, 0.027643531560897827, -0.018606001511216164, -0.08181099593639374, -5.6287117331521586e-05, 0.045771028846502304, -0.014072462916374207, 0.05413492023944855, 0.035428985953330994, 0.035393573343753815, 0.06800124794244766, 0.08746004104614258, 0.09665340185165405, 0.010658590123057365, 0.0310694370418787, -0.0034289672039449215, 0.05310993269085884, -0.04240214452147484, 0.0404873825609684, 0.011782603338360786, -0.005419538356363773, 0.0017264921916648746, -0.017465900629758835, 0.026723483577370644, 0.030704351142048836, 0.030946029350161552, 0.008050463162362576, 0.031579162925481796, 0.030282001942396164, -0.02697010524570942, 0.0266526211053133, -0.02774709463119507, -0.02871626988053322, -0.07204534113407135, -0.047782063484191895, -0.02429634891450405, 0.03900238126516342, 0.06012468785047531, 0.037696804851293564, -0.00419807992875576, 0.005098523572087288, -0.003764471737667918, 0.055601589381694794, 0.046510569751262665, 0.08007173240184784, 0.009901882149279118, -0.057804007083177567, -0.005869729444384575, -0.032710082828998566, -0.013155492953956127, 0.043033696711063385, -0.07631199061870575, -0.0766267254948616, -0.027871141210198402, -0.02564956806600094, 0.03299981355667114, 0.006545715034008026, 0.0702478438615799, -0.05840480700135231, -0.025795307010412216, 0.017118709161877632, 0.01477879285812378, 0.06046640872955322, -0.01626942679286003, -0.060206279158592224, -0.05331936106085777, -0.10231596976518631, -0.020184112712740898, -0.025887349620461464, -0.04859378561377525, -0.026092614978551865, 0.03265506774187088, -0.02224510908126831, -0.01151479035615921, -0.04055243358016014, 0.0025568006094545126, -0.044629745185375214, 0.007656320463865995, -0.013137847185134888, 0.0322667621076107, 0.03102216124534607, -0.0521722175180912, -0.019996415823698044, 0.04976236820220947, 0.01516246423125267, -0.004933082032948732, -0.047115880995988846, -0.0346796028316021, 0.03318028897047043, 0.06938163191080093, 0.07808864116668701, -0.00857853889465332, -0.01702256128191948, -0.022799964994192123, -0.02136322855949402, 0.06524486094713211, 0.030718496069312096, 0.020014561712741852, -0.04617922753095627, -0.03165625035762787, 0.01322136539965868, -0.03002982586622238, -0.02669425867497921, -0.011183731257915497, -0.02603778801858425, -0.05754607915878296, -0.02025742456316948, 0.019312657415866852, -0.0049941884353756905, 0.0531219057738781, -0.03110293298959732, -0.058991286903619766, 0.013647094368934631, -0.0059912423603236675, -0.03212206810712814, 9.015202522277832e-05, 0.024699028581380844, -0.0019973365124315023, -0.04192650318145752, -0.05356686934828758, -0.049136143177747726, -0.011026539839804173, -0.03316358104348183, -0.011344864964485168, 0.00013313180534169078, -0.0047386507503688335, 0.033456943929195404, -0.03752322494983673, -0.05782294645905495, -0.06275379657745361, 0.04739035293459892, -0.028346804901957512, 0.01528207678347826, 0.0017377038020640612, 0.03726847097277641, -0.03280103579163551, -0.030487386509776115, 0.041636064648628235, 0.05575379356741905,
 -0.025000179186463356, 0.013555697165429592, -0.017728392034769058, 0.04524416849017143, -0.029322484508156776, -0.07016017287969589, -0.05620548501610756, -0.016113780438899994, -0.03612092509865761, 0.020566780120134354, 0.011901423335075378, 0.04469968006014824, -0.019269023090600967, 0.0569860078394413, -0.06270948797464371, 0.01405189000070095, 0.02574978768825531, 0.004882201552391052, 0.0026501240208745003, 0.005087524186819792, -0.05687893554568291, -0.04864274337887764, 0.0012961485190317035, 0.01742839813232422, -0.038188088685274124, -0.04434582218527794, -0.02590491622686386, -0.0733722373843193, 0.003022580873221159, -0.04935365542769432, 0.05381675064563751, 0.04667401313781738, 0.02220546267926693, -0.06748360395431519, -0.07846759259700775, -0.02770504169166088, -0.00760300736874342, 0.04022027924656868, 0.015718484297394753, -0.04075486958026886, 0.035925399512052536, -0.0012171395355835557, -0.04362873360514641, 0.06591392308473587, -0.06125926598906517, -0.021606823429465294, 0.025075649842619896, -0.025730645284056664, -0.040123820304870605, -0.0047803218476474285, -0.0689745545387268, -0.01815004087984562, -0.030225720256567, -0.048157110810279846, -0.014033575542271137, 0.04602653160691261, -0.0004691287758760154, -0.038645535707473755, -0.06892380863428116, 0.026837743818759918, -0.003180227242410183, -0.0218214001506567, -0.06240249052643776, -0.01592063158750534, -0.06305484473705292, 0.01479543000459671, 0.03525696322321892, 0.03213050961494446, 0.009598135948181152, -0.0400073379278183, -0.001969339093193412, 0.049793045967817307, 0.04873620346188545, 0.0445285439491272, 0.00710686482489109, -0.03471343591809273, 0.013641647063195705, 0.03105435147881508, -0.004371237009763718, 0.04005669802427292, -0.07015031576156616, 0.03612999990582466, 0.050436705350875854, 0.007457359693944454, -0.0034980413038283587, -0.013312180526554585, -0.027706127613782883, -0.009512118063867092, -0.03094462864100933, -0.06134185194969177, -0.05413384735584259, 0.029109640046954155, 0.020299216732382774, -0.060643699020147324, 0.006413131952285767, -0.021788902580738068, 0.04557638615369797, -0.016313377767801285, -0.003385587129741907, 0.052227478474378586, -0.010772488079965115, 0.02597338706254959, -0.024485375732183456, -0.04376734420657158, -0.02844749018549919, -0.03137045353651047, 0.0616106316447258, 0.025271737948060036, 0.0007317566778510809, -0.027016403153538704, 0.029965853318572044, 0.06253355741500854, -0.0218401700258255, -0.04102136567234993, 0.009281706996262074, 0.0005442149704322219, 0.04449382424354553, 0.0021141062024980783, 0.002311513526365161, 0.023211177438497543, 0.031811051070690155, -0.007991347461938858, 0.015008803457021713, -0.015337498858571053, 0.04346510022878647, -0.05505947768688202, -0.028126588091254234, -0.06694725155830383, -0.003278149990364909, 0.01761176437139511, -0.060063108801841736, 0.03850417956709862, -0.02240508608520031, 0.037227656692266464, -0.09175893664360046, -0.07187101244926453, -0.052463892847299576, 0.036158207803964615, 0.021328208968043327, -0.02267278917133808, -0.011362116783857346, -0.031072426587343216, 0.005932339932769537, -0.05736091732978821, -0.03415926173329353, -0.009363202378153801, 0.0016477681929245591, -0.013039425946772099, 0.02187647856771946, -0.058069512248039246, 0.02427547797560692, -0.031683046370744705, -0.0019861089531332254, 0.007446061819791794, 0.03847726434469223, 0.06594162434339523, 0.05202110856771469, -0.04432058706879616, -0.003219817765057087, 0.0043204170651733875, 0.01728104054927826, 0.025963831692934036, -0.0802202820777893, 0.036323707550764084, 0.08772443979978561, 0.05095168948173523, -0.02854272350668907, -0.030299808830022812, 0.019017186015844345, 0.015794726088643074, -0.017056774348020554, -0.09605789929628372, -0.07805238664150238, 0.0157261174172163, 0.03859574720263481, -0.029119955375790596, -0.013850747607648373, -0.03143124282360077, 0.036437101662158966, 0.030007168650627136, 0.06312704086303711, -0.02272537536919117, 0.0013309569330886006, -0.005134200677275658, -0.057162098586559296, 0.008946212939918041, -0.00649669673293829, 0.011304669082164764, 0.036144424229860306, 0.026357414200901985, 0.026044083759188652, 0.04046439379453659, -0.05408079922199249, -0.03714315593242645, -0.019089002162218094, 0.03416898846626282, 0.03962046280503273, -0.04462611302733421, 0.002680252306163311, -0.06241052970290184, 0.04810473695397377, -0.056879837065935135, 0.0007409470272250473, 0.022061901167035103, -0.03921116143465042, -0.0394107811152935, -0.07747084647417068, 0.017568744719028473, 0.028293278068304062, 0.017645059153437614, -0.00663267495110631, -0.02769571729004383, -0.029790783300995827, -0.006923251785337925, -0.07599995285272598, -0.09640074521303177, -0.027325579896569252, -0.05629511922597885, 0.01966863125562668, -0.0005145178874954581, -0.03176480159163475, -0.06193632632493973, -0.0372093990445137, -0.00508370716124773, -0.004304454196244478, -0.028773048892617226, -0.05908507853746414, -0.03057299181818962, 0.054415371268987656, -0.00042584328912198544, -0.09074307978153229, -0.06341339647769928, 0.027288321405649185, -0.03975445404648781, -0.06015729159116745, -0.008089156821370125, 0.013597741723060608, 0.01533159427344799, 0.0011349908309057355, -0.05835632234811783, 0.008890638127923012, -0.07357364147901535, -0.09320878982543945, -0.06619985401630402, -0.04403063654899597, -0.016476184129714966, 0.043070223182439804, -0.03350217267870903, -0.014247623272240162, 0.002638526726514101, -0.06340817362070084, -0.05277998745441437, -0.014997388236224651, -0.015609735623002052, -0.028531474992632866, 0.020972277969121933, 0.05636080726981163, 0.0004155753122176975, -0.03467968478798866, 0.019892878830432892, 0.032215751707553864, 0.013800729997456074, -0.03090665489435196, 0.0016080833738669753, -0.01604280434548855, -0.0338013619184494, 0.03995718061923981, 0.006240415386855602, -0.036626365035772324, 0.01307924184948206, -0.060427580028772354, -0.007425480522215366, -0.04737146943807602, -0.05633361637592316, 0.02891702391207218, -0.0001971520687220618, -0.057167187333106995, -0.08694025874137878, -0.04373076185584068, 0.06455398350954056, 0.10710948705673218, 0.007002818398177624, -0.0325578898191452, 0.09435928612947464, 0.06089068949222565, 0.020483678206801414, 0.03470543026924133, -0.05243484675884247, 0.050869666039943695, -0.008686695247888565, 0.013089572079479694, -0.11760751903057098, -0.030099740251898766, -0.024618184193968773, 0.01526556070894003, -0.02822556160390377, -0.09700377285480499, -0.011281426064670086, -0.014608070254325867, -0.0328456312417984, 0.0041856784373521805, -0.04214148595929146, -0.0053359633311629295, -0.0348893404006958, -0.06916521489620209, -0.06303735077381134, -0.02257378026843071, 0.037140846252441406, -0.0401720330119133, -0.004026241134852171, 0.029089652001857758, 0.03656027838587761, 0.02865668758749962, -0.040523067116737366, -0.05063387751579285, -0.02274658903479576, -0.011829576455056667, 0.009155192412436008, 0.03480304777622223, 0.0048086317256093025, 0.052276529371738434, 0.04878544434905052, -0.015814272686839104, -0.04717455431818962, -0.04625963792204857, 0.056457746773958206, 0.028083326295018196, 0.007560677360743284, -0.024769557639956474, -0.014057883992791176, 0.05195902660489082, 0.02135002240538597, -0.02039562538266182, 0.006526829209178686, -0.012095746584236622, 0.031132182106375694, -0.004712015390396118, -0.00635376526042819, -0.03696252405643463, -0.0634135752916336, -0.0412510521709919, -0.010277765803039074, 0.003545400220900774, -0.10679206252098083, -0.011067714542150497, 0.03203285112977028, -0.019457951188087463, -0.04611324518918991, 0.03807298094034195, -0.05959075316786766, 0.03390860930085182, 0.0030432145576924086, 0.03417104855179787, -0.022579791024327278, 0.059285908937454224, 0.0699758380651474, 0.039374034851789474, 0.005208360496908426, 0.039044059813022614, 0.10311141610145569, 0.07929239422082901, -0.05167168006300926, -0.04040462151169777, 0.02538195811212063, 0.061843425035476685, -0.012296618893742561, -0.09554444253444672, 0.0081840381026268, -0.044016461819410324, -0.08455484360456467, -0.09077999740839005, -0.10460621863603592, -0.04876107722520828, -0.041338857263326645, -0.048190463334321976, -0.03645751252770424, -0.089482381939888, -0.007521593943238258, -0.04752597212791443, 0.0012714348267763853, -0.05781925097107887, 0.06192462891340256, 0.04174008592963219, 0.021909529343247414, -0.00377604435198009, 0.04779477417469025, 0.0663236528635025, -0.04281018301844597, 0.021829908713698387, -0.024378309026360512, -0.0038219785783439875, 0.02997000329196453, -0.037804629653692245, -0.022727936506271362, 0.047011375427246094, -0.02030148170888424, -0.03759876266121864, -0.05910429731011391, -0.03029468096792698, -0.018830325454473495, -0.05823731794953346, -0.012542787939310074, -0.038551751524209976, -0.04132382199168205, 0.021419305354356766, -0.00886542908847332, -0.10704827308654785, -0.035940397530794144, -0.024726275354623795, 0.07179784774780273, -0.06401877105236053, -0.029928967356681824, 0.020975742489099503, -0.007735425606369972, 0.026215272024273872, -0.07601426541805267, -0.044473208487033844, 0.002906941110268235, -0.01983402669429779, -0.006734958849847317, -0.055626630783081055, -0.0010303300805389881, -0.06634007394313812, -0.0780346542596817, 0.010746991261839867, 0.06482788920402527, 0.017370333895087242, -0.03455053269863129, 0.03698485344648361, -0.004552108235657215, 0.06675854325294495, 0.06760074943304062, -0.04815906286239624, 0.03233218938112259, -0.06344825774431229, 0.06414084136486053, 0.018359005451202393, 0.00416284054517746, -0.00449267216026783, 0.04111884534358978,
 0.02543153427541256, 0.05093417689204216, -0.060570456087589264, 0.045500800013542175, -0.0322767049074173, 0.04547860845923424, 0.0082948487251997, -0.06503549963235855, 0.058768145740032196, -0.03510110452771187, 0.013558948412537575, -0.045729976147413254, -0.042933061718940735, 0.008831107057631016, -0.05657235160470009, 0.043880101293325424, 0.09522444009780884, 0.046406328678131104, -0.07791651785373688, 0.045387160032987595, 0.05627928301692009, 0.09040192514657974, 0.011461149901151657, -0.0435890294611454, 0.010185778141021729, -0.00252952566370368, 0.037423957139253616, -0.06436142325401306, -0.0034369693603366613, 0.030530791729688644, 0.010111160576343536, -0.0320587083697319, -0.04898380488157272, 0.001670237397775054, 0.005444756709039211, 0.018095627427101135, -0.060532353818416595, 0.010206730104982853, 0.029258763417601585, 0.0018668435513973236, 0.02861371450126171, 0.04915028065443039, -0.022249169647693634, 0.008991017006337643, 0.02477101795375347, -0.006016745697706938, -0.0017794676823541522, -0.041477978229522705, -0.024161821231245995, 0.06646006554365158, 0.040638942271471024, 0.032444726675748825, -0.03129400312900543, 0.049445487558841705, 0.056858278810977936, 0.009812330827116966, -0.06445170193910599, -0.03042488545179367, -0.018547505140304565, -0.05763939768075943, -0.002761733951047063, -0.06636873632669449, -0.06094073876738548, -0.04141877964138985, -0.002895551733672619, 0.02628336288034916, -0.03846915066242218, 0.04848829656839371, 0.0015372338239103556, -0.0400562584400177, 0.02437799982726574, -0.043610017746686935, -0.060759689658880234, -0.07908786833286285, -0.05655914545059204, 0.033826082944869995, -0.02571134828031063, 0.0033488422632217407, -0.02088022418320179, -0.05600852891802788, 0.0428987517952919, -0.029217829927802086, -0.039577919989824295, -0.01606363244354725, -0.054007984697818756, 0.030001146718859673, 0.038681648671627045, -0.05200281739234924, 0.02111085318028927, 0.03158584237098694, 0.035492412745952606, 0.0035866517573595047, -0.06157661974430084, 0.04169115424156189, 0.0334518663585186, 0.009117012843489647, -0.06724940240383148, -0.06777188926935196, -0.03402295708656311, 0.01670493744313717, 0.01851874589920044, -0.09537892788648605, -0.01932132989168167, -0.0419197678565979, -0.007983225397765636, -0.09643348306417465, -0.023085271939635277, -0.01884264312684536, -0.00584925664588809, -0.07847612351179123, -0.015381351113319397, 0.05732918530702591, 0.05487871915102005, -0.03150703012943268, -0.038515474647283554, -0.0636284127831459, -0.014415149576961994, 0.04706646129488945, -0.03743728622794151, -0.01244292687624693, -0.08164975047111511, -0.07857656478881836, -0.008711690083146095, -0.05004948750138283, -0.003087896853685379, -0.03157051280140877, -0.01826879195868969, -0.054029569029808044, -0.07554016262292862, -0.06483512371778488, -0.006315175443887711, -0.005948016420006752, -0.03444450721144676, -0.05269910395145416, 0.010256504639983177, -0.033941663801670074, -0.060623232275247574, -0.04706231504678726, -0.07049968838691711, -0.036051586270332336, 0.008714557625353336, 0.0021873179357498884, -0.017519976943731308, 0.026474758982658386, 0.06597670167684555, 0.06795540452003479, -0.021247724071145058, -0.055060770362615585, -0.04632898047566414, 0.0086437426507473, 0.058092497289180756, 0.005848117172718048, -0.03800231218338013, 0.023039594292640686, -0.016540242359042168, -0.0009112966945394874, -0.04435598477721214, -0.06303462386131287, -0.05906098335981369, 0.014802820980548859, -0.07417098432779312, 0.02412554621696472, -0.031724393367767334, -0.040221285074949265, 0.07615809887647629, 0.06633181869983673, 0.0052270302549004555, 0.022521356120705605, 0.07337415218353271, 0.0900726392865181, -0.039170537143945694, -0.06016179546713829, -0.036313727498054504, 0.016511935740709305, -0.029754869639873505, -0.03772355988621712, -0.12392371892929077, -0.01996343769133091, -0.023744871839880943, -0.007751187775284052, -0.08044436573982239, -0.08959609270095825, 0.008960382081568241, 0.016646122559905052, -0.07768171280622482, -0.030585825443267822, -0.03877871483564377, 0.006311292294412851, -0.011279553174972534, 0.03539092466235161, 0.017549842596054077, 0.037629641592502594, 0.034016042947769165, -0.04874319210648537, -0.05002749338746071, -0.013367276638746262, -0.0691700428724289, -0.03988894075155258, 0.03347262367606163, -0.06711507588624954, -0.020423071458935738, -0.02091893181204796, -0.035675108432769775, -0.03780399635434151, 0.04386984929442406, 0.021094132214784622, -0.004066236782819033, -0.014489059336483479, -0.027998225763440132, -0.016246099025011063, -0.019727829843759537, -0.034834280610084534, 0.002930352697148919, -0.02631882205605507, 0.011345436796545982, -0.05492931231856346, -0.057132985442876816, -0.054578281939029694, -0.03545733541250229, 0.03755037114024162, -0.0024310231674462557, -0.039379511028528214, 0.03597195819020271, 0.021311776712536812, 0.04458972066640854, -0.047462098300457, 0.04704716429114342, -0.007498796097934246, 0.028610801324248314, -0.06059657037258148, -0.0614827424287796, -0.03771451488137245, -0.03306134417653084, 0.021331049501895905, -0.030226653441786766, 0.03324999660253525, -0.015243935398757458, -0.01864584907889366, -0.03364500403404236, 0.04204963147640228, -0.013761335052549839, 0.029271339997649193, -0.07044226676225662, -0.0014144706074148417, 0.04003390669822693, 0.03970755264163017, -0.07090920954942703, -0.07087589800357819, -0.04223955422639847, 0.03326720371842384, 0.006510506384074688, -0.023256035521626472, -0.0667288601398468, -0.055139556527137756, -0.004785910248756409, 0.009961174800992012, -0.040043264627456665, -0.0313190333545208, 0.02866593934595585, 0.022554218769073486, 0.026771722361445427, -0.050679903477430344, 0.006724028382450342, -0.05198794603347778, -0.0054265158250927925, 0.02822784334421158, -0.05267024412751198, 0.01665472611784935, -0.027582360431551933, -0.005676357075572014, -0.014517894946038723, -0.0018583887722343206, -0.0447126068174839, 0.02535340003669262, 0.002503374358639121, 0.013384104706346989, -0.05809612199664116, -0.03544772416353226, 0.039300136268138885, -0.017153603956103325, -0.06924781948328018, -0.036685168743133545, 0.01827367953956127, 0.027780011296272278, 0.011292075738310814, -0.004827974829822779, -0.02052817866206169, 0.02292918786406517, 0.0060553583316504955, 0.014917265623807907, 0.01300189271569252, -0.02336590364575386, -0.02527078241109848, 0.021370869129896164, 0.03952096402645111, -0.0467938631772995, -0.04959482327103615, -0.06801816076040268, -0.021020477637648582, -0.03832248970866203, -0.04399031773209572, -0.07877539098262787, -0.013328786939382553, -0.03238348662853241, 0.014337770640850067, -0.019162097945809364, -0.05851566419005394, -0.041019946336746216, -0.07060983031988144, 0.06606094539165497, 0.04768289998173714, 0.04282193258404732, 0.03424950689077377, -0.03773224726319313, 0.00701358076184988, 0.025348180904984474, -0.034032322466373444, -0.014025802724063396, 0.019793251529335976, 0.03091510944068432, 0.024500366300344467, 0.04073633253574371, -0.044336818158626556, 0.03781691938638687, 0.02498616836965084, -0.05876268446445465, -0.020431797951459885, 0.0446893684566021, 0.027646798640489578, 0.020415501669049263, 0.0032676109112799168, 0.006215997505933046, -0.03640630468726158, 0.022679444402456284, -0.0749257281422615, -0.06165182590484619, 0.03617542237043381, 0.004860382527112961, -0.0458407886326313, 0.03114527091383934, 0.02463608607649803, -0.010808631777763367, 0.04314757511019707, 0.06949891895055771, -0.0424928180873394, -0.04015345498919487, -0.045757949352264404, 0.06221352145075798, 0.02223537489771843, -0.05934043228626251, -0.0008413115865550935, -0.04365452006459236, -0.020377328619360924, -0.03623837232589722, -0.00307105528190732, -0.03157167136669159, -0.008055327460169792, -0.0655401274561882, -0.008415019139647484, -0.00127031235024333, -0.000361204263754189, -0.04860260710120201, -0.006741788238286972, -0.05440308153629303, -0.04379040747880936, -0.006670238450169563, 0.04237530380487442, 0.017848802730441093, -0.030236482620239258, 0.00886628683656454, -0.03811353072524071, 0.022354204207658768, -0.07081625610589981, 0.011715913191437721, -0.05788632109761238, -0.06188090890645981, 0.0014971420168876648, 0.014443784952163696, 0.03970363736152649, -0.04597918316721916, -0.04644690826535225, -0.013416963629424572, -0.06486504524946213, -0.012475922703742981, -0.020002447068691254, 0.011279535479843616, -0.03359106928110123, 0.02831009030342102, 0.010537581518292427, -0.02365642413496971, 0.026924438774585724, 0.004571135621517897, 0.023319914937019348, -0.03585998713970184, -0.004635266028344631, 0.03239711746573448, -0.005323920864611864, 0.03739827871322632, -0.025952307507395744, 0.034220628440380096, -0.06520064920186996, -0.05314719304442406, 0.001051108818501234, 0.04343573749065399, -0.037277549505233765, 0.010441347025334835, 0.021622879430651665, -0.04820707440376282, -0.01494001317769289, -0.01445050910115242, -0.057261426001787186, 0.02552047371864319, 0.023040924221277237, -0.05392739176750183, 0.0035757473669946194, -0.035238537937402725, -0.005299363750964403, 0.007828637026250362, 0.019534893333911896, 0.05210486054420471, 0.04877539351582527, -0.014721970073878765, -0.02914457395672798, 0.013508398085832596, 0.05952976271510124, 0.06554730981588364, 0.017437180504202843, -0.012136095203459263, 0.09525686502456665, -0.014148170128464699, -0.044773709028959274, -0.000640260346699506, -0.06179208680987358, 0.0273079052567482, 0.042054712772369385, 0.03256475180387497, 0.01770741492509842, 0.0011153698433190584, -0.04376136511564255, 0.010328263975679874,
 -0.058835405856370926, 0.024822141975164413, 0.024508073925971985, -0.07114872336387634, -0.06278536468744278, -0.0023289951495826244, 0.00011455264029791579, -0.02754060924053192, -0.009908760897815228, -0.047132253646850586, -0.04289864003658295, -0.03666364401578903, -0.026445098221302032, 0.04796356335282326, 0.017314355820417404, -0.031106386333703995, 0.03476181626319885, 0.017093822360038757, 0.02830883301794529, -0.020221775397658348, 0.011134842410683632, 0.03499867767095566, -0.06541477143764496, -0.052739452570676804, -0.009301221929490566, -0.03670276701450348, 0.05110401660203934, 0.011240028776228428, -0.03331435099244118, 0.005047460086643696, 0.009129720740020275, 0.08647853136062622, 0.03570617735385895, -0.01186889037489891, 0.007783418986946344, -0.008564495481550694, -0.01926206424832344, 0.03907172754406929, -0.012645252980291843, -0.027855919674038887, -0.06920705735683441, -0.008307483047246933, 0.055054668337106705, -0.06021486595273018, 0.03753999248147011, -0.06131017580628395, -0.05251171812415123, -0.029520446434617043, 0.04687008634209633, 0.01093444973230362, 0.0030906242318451405, 0.005506363697350025, -0.07409296929836273, 0.03688627481460571, -0.04486149549484253, 0.04385165870189667, 0.01871572807431221, 0.009277516044676304, 0.028274351730942726, -0.014633526094257832, 0.02758065052330494, -0.020419180393218994, -0.050398021936416626, -0.0729244127869606, -0.01006788294762373, 0.06711224466562271, 0.037203650921583176, 0.06587991863489151, -0.0390239953994751, 0.02412591315805912, 0.08729134500026703, 0.040252406150102615, -0.007514590863138437, -0.003766029141843319, -0.05312228202819824, 0.023555099964141846, 0.010808439925312996, -0.05875050649046898, -0.029242143034934998, -0.0152602419257164, 0.04093370959162712, -0.0005065509467385709, -0.04262065142393112, 0.018083589151501656, 0.035627592355012894, 0.03559061512351036, 0.04297276958823204, 0.009239190258085728, 0.01828526146709919, -0.04450184106826782, -0.043467532843351364, 0.005830726120620966, 0.03730623796582222, -0.031133562326431274, 0.017951998859643936, 0.0173707976937294, 0.06540326029062271, -0.015809526666998863, -0.03961465135216713, 0.03275225684046745, -0.0007322622113861144, -0.004385239910334349, -0.06398602575063705, 0.050209760665893555, 0.02342761680483818, -0.026201574131846428, 0.006581973284482956, -0.03772468864917755, -0.0027339213993400335, 0.0024314364418387413, 0.033165086060762405, 0.03255424648523331, 0.010501711629331112, 0.027976367622613907, -0.02980954572558403, 0.015298237092792988, -0.025706753134727478, 0.003849877044558525, 0.048906490206718445, 0.0011430798331275582, 0.0015480206348001957, 0.041150424629449844, 0.029443223029375076, -0.052976131439208984, 0.022890077903866768, 0.012944526970386505, 0.04322760924696922, -0.03352334350347519, 0.0037075337022542953, 0.026176955550909042, -0.021838221698999405, 0.009287924505770206, -0.026679735630750656, 0.032095618546009064, 0.02082039788365364, 0.034564558416604996, -0.038203008472919464, -0.0036480010021477938, -0.029592085629701614, 0.005126233212649822, -0.026530325412750244, -0.03910764679312706, 0.024430159479379654, -0.005128528457134962, -0.01095577236264944, -0.047353100031614304, 0.01967679150402546, -0.06733980029821396, 0.03475252166390419, -0.04003285989165306, 0.0199716929346323, -0.0007834014249965549, 0.07577131688594818, 0.035035427659749985, -0.01182310190051794, -0.0006887161289341748, -0.001343908836133778, 0.036715466529130936, -0.027195699512958527, 0.010697229765355587, -0.005846466403454542, -0.05470939353108406, -0.007876232266426086, -0.04989425465464592, -0.043489061295986176, 0.009911625646054745, 0.005359956528991461, -0.05918268486857414, 0.020695332437753677, -0.03105860762298107, -0.04987076669931412, -0.07010482251644135, -0.05477335304021835, -0.04620622843503952, -0.05161116644740105, -0.030462320894002914, -0.018984105437994003, -0.02408217452466488, 0.02226823754608631, -0.04798636585474014, -0.015671512112021446, 0.009848725982010365, -0.02747274935245514, 0.018962541595101357, 0.0016822548350319266, -0.011164546944200993, 0.006005094852298498, 0.06976502388715744, 0.05041980370879173, -0.08177763223648071, 0.011660963296890259, 0.02973773144185543, 0.026937056332826614, 0.026700636371970177, -0.04108025133609772, -0.054834868758916855, -0.06694359332323074, 0.015269464813172817, -0.023132681846618652, 0.0068055870942771435, -0.025012001395225525, 0.00821886770427227, 0.009860184974968433, 0.03990340232849121, -0.011627317406237125, -0.018419168889522552, 0.01971600018441677, 0.007653776556253433, -0.04322810843586922, -0.0346769317984581, -0.000950988382101059, -0.023745669052004814, 0.011144894175231457, -0.032599907368421555, 0.034946732223033905, -0.048844847828149796, -0.048096004873514175, 0.01794358715415001, 0.03291252627968788, 0.0425170361995697, 0.01953541673719883, -0.05755149945616722, 0.01125935185700655, -0.056046366691589355, -0.04367075860500336, -0.029044365510344505, -0.051560115069150925, 0.031280867755413055, -0.0052668508142232895, 0.021821826696395874, 0.00510007981210947, -0.030991757288575172, 0.015971720218658447, -0.02131863310933113, 0.006622857879847288, -0.05102837458252907, -0.014521579258143902, 0.03819837421178818, -0.008865512907505035, -0.054234977811574936, 0.005283958278596401, 0.015231534838676453, -0.028017612174153328, -0.02438947558403015, -0.025266163051128387, -0.06509779393672943, -0.055030304938554764, 0.033146269619464874, 0.050416819751262665, 0.04192925617098808, -0.0564420185983181, -0.04138735309243202, 0.0035417748149484396, -0.030089495703577995, -0.008972280658781528, -0.07943924516439438, -0.019254518672823906, -0.019023703411221504, 0.024287065491080284, -0.03693460673093796, -0.052860476076602936, -0.055234819650650024, -0.07198220491409302, 0.035828180611133575, -0.010856712237000465, -0.02944510243833065, 0.017209207639098167, 0.05975493788719177, -0.027480974793434143, -0.0006742604891769588, 0.024442125111818314, -0.010432128794491291, 0.0369044654071331, -0.03086378425359726, 0.01080284547060728, 0.004650972317904234, 0.037617553025484085, -0.01512823160737753, -0.05824961140751839, -0.056251995265483856, -0.06948089599609375, 0.03840674087405205, 0.027556339278817177, -0.06252802163362503, -0.08036787062883377, 0.01663420908153057, 0.0224916934967041, 0.058227695524692535, -0.009995571337640285, 0.02765771560370922, 0.0018798705423250794, 0.018688064068555832, -0.003692365251481533, 0.013687617145478725, 0.03475036472082138, -0.05746523663401604, 0.008358164690434933, -0.01078158151358366, 0.035055141896009445, -0.028605330735445023, 0.023028360679745674, 0.06704398989677429, 0.002574063604697585, 0.02804655395448208, -0.019491424784064293, -0.06744224578142166, -0.01964808814227581, -0.04056297987699509, 0.05266332998871803, 0.015299797058105469, -0.052788443863391876, -0.043771982192993164, 0.03645249083638191, 0.03313093259930611, -0.042130306363105774, -0.03542373329401016, -0.04289136826992035, -0.028870129957795143, -0.007039932068437338, 0.007132924161851406, -0.01905912160873413, 0.022116176784038544, -0.00698503153398633, 0.004131610970944166, -0.009264596737921238, -0.0302380733191967, -0.0395159088075161, -0.05405031517148018, -0.04953310638666153, 0.0040184804238379, 0.05598514899611473, -0.002472481457516551, -0.03751226142048836, 0.025782935321331024, 0.010205644182860851, -0.015062833204865456, 0.009272487834095955, -0.051489029079675674, 0.025794757530093193, -0.06897067278623581, -0.04837238788604736, -0.02375955507159233, -0.02537391521036625, 0.03749646618962288, -0.03178854286670685, 0.04376472905278206, 0.012007291428744793, -0.05889583006501198, -0.010474723763763905, -0.0004948519053868949, -0.060974109917879105, 0.01949387416243553, 0.0020606706384569407, 0.02891235426068306, -0.07842869311571121, -0.05443355068564415, -0.04489707574248314, 0.028459863737225533, -0.028436774387955666, 0.005022919271141291, -0.07038182765245438, 0.028659380972385406, 0.04431794583797455, -0.029726509004831314, -0.025083696469664574, -0.04926234856247902, -0.0028873998671770096, 0.015633102506399155, -0.018988482654094696, -0.0019234399078413844, -0.00893743522465229, -0.05048230290412903, -0.04536672309041023, 0.035190269351005554, -0.012013896368443966, -0.03912120312452316, -0.028361471369862556, 0.03550973907113075, -0.04428808391094208, 0.026979023590683937, -0.06079421937465668, -0.041293613612651825, 0.054187119007110596, -0.05189715325832367, -0.06963631510734558, -0.04560427740216255, 0.010873894207179546, 0.01842886582016945, 0.03353452682495117, -0.03632672503590584, -0.04963966831564903, -0.04137181490659714, 0.046748384833335876, 0.004325061105191708, 0.0410577692091465, 0.02694219909608364, 0.03308023884892464, -0.04049721732735634, 0.03167883679270744, -0.04822690412402153, 0.057755716145038605, 0.07005688548088074, -0.031293321400880814, -0.057241760194301605, -0.05985575169324875, -0.005913363303989172, 0.09664303809404373, -0.0009154816507361829, 0.012722382321953773, 0.005759831517934799, -0.01711081527173519, 0.0023714122362434864, -0.046732109040021896, -0.06067228689789772, -0.07744117826223373, -0.01246293168514967, 0.051878321915864944, 0.028431689366698265, -0.013339878991246223, -0.05793610215187073, -0.01676354929804802, -0.048273105174303055, -0.05442049354314804, 0.05040944367647171, -0.044494178146123886, -0.022838333621621132, 0.016774950549006462, 0.004067668225616217, -0.022788124158978462, -0.06962650269269943, -0.0015632279682904482, -0.036786023527383804, -0.028208427131175995, -0.043025653809309006, -0.04392683878540993, -0.08048811554908752, -0.009288015775382519, 0.004662435036152601,
 0.051391441375017166, -0.015614482574164867, -0.014676732011139393, 0.036533936858177185, 0.011255386285483837, -0.017762795090675354, -0.009240804240107536, 0.023990526795387268, 0.039142705500125885, -0.05020054429769516, -0.003992242272943258, 0.02981211245059967, -0.04562094435095787, 0.022775964811444283, 0.04050764814019203, 0.011812557466328144, -0.021795691922307014, -0.04972867667675018, 0.028182953596115112, 0.02475004456937313, -0.03650834038853645, -0.049690503627061844, -0.06562346965074539, -0.0072779580950737, -0.0048746755346655846, -0.06382271647453308, -0.0521053746342659, -0.05712541192770004, 0.024456122890114784, -0.01586555689573288, 0.040618568658828735, -0.04369610175490379, 0.019027898088097572, -0.07550866156816483, 0.0485411211848259, 0.02123500220477581, 0.02153199538588524, 0.033629901707172394, 0.013707096688449383, 0.02862473949790001, -0.043845560401678085, -0.06761572510004044, 0.04611148312687874, -0.028880974277853966, -0.014417873695492744, -0.07448551803827286, -0.013348744250833988, 0.007983135059475899, 0.057779449969530106, 0.03177037090063095, -0.04555780440568924, -0.011568439193069935, 0.03343833237886429, 0.05303503945469856, -0.026037458330392838, 0.03974342346191406, 0.018718745559453964, -0.00419776514172554, -0.008404429070651531, 0.04572470113635063, 0.017904501408338547, 0.021701276302337646, -0.0538581982254982, -0.052257273346185684, 0.052438318729400635, 0.016643749549984932, -0.05208054557442665, -0.030433595180511475, 0.011918141506612301, -0.03266289457678795, 0.034900110214948654, -0.0056576416827738285, -0.07413195073604584, 0.034212298691272736, 0.04829838499426842, 0.04503527283668518, -0.045634396374225616, 0.03534881770610809, 0.002295397687703371, 0.04804619401693344, 0.0028026301879435778, 0.034226030111312866, -0.04730893298983574, 0.0234124306589365, -0.021110810339450836, -0.007341786287724972, 0.003230747766792774, 0.03231685608625412, -0.02230045571923256, -0.03243842348456383, -0.07776656746864319, 0.0265145655721426, 0.05276460945606232, -0.04708581045269966, -0.04209825024008751, 0.03568042814731598, -0.048970844596624374, -0.008006611838936806, 0.03819186985492706, 0.021203014999628067, 0.011566702276468277, 0.0077003054320812225, 0.04434511065483093, 0.022671638056635857, 0.02493145316839218, -0.025886520743370056, -0.07589660584926605, -0.0020502228289842606, 0.02164723537862301, -0.0009413435473106802, 0.02545960806310177, -0.03525348752737045, -0.08493229746818542, 0.0028002813924103975, 0.04837208241224289, 0.00246887537650764, -0.058188386261463165, -0.043994560837745667, -0.026515096426010132, 0.039699699729681015, -0.010476581752300262, -0.01519104465842247, -0.008451201021671295, -0.029519664123654366, -0.05033731460571289, -0.018553128466010094, 0.01366292592138052, 0.013735492713749409, -0.034415967762470245, -0.019912654533982277, -0.0533720999956131, 0.02855043299496174, 0.020412249490618706, 0.0567314550280571, 0.055080123245716095, 0.033922381699085236, -0.01107920054346323, -0.06981635093688965, 0.053997479379177094, 0.01092385221272707, 0.04091600328683853, -0.039879389107227325, -0.08619198203086853, 0.0427778922021389, 0.04419049993157387, -0.0273619145154953, -0.02471592091023922, -0.0520583875477314, -0.021065130829811096, 0.0663565918803215, 0.045940231531858444, -0.050649940967559814, -0.03193766996264458, -0.02210095524787903, 0.04824182018637657, 0.06415683031082153, 0.02398604527115822, -0.03962576016783714, -0.044650349766016006, -0.007728970609605312, 0.041502684354782104, -0.02688431181013584, -0.07063894718885422, 0.027803106233477592, 0.03135313838720322, -0.057275835424661636, -0.03607028350234032, -0.08080635219812393, 9.58016753429547e-05, -0.021830182522535324, -0.058228738605976105, -0.055683404207229614, -0.05412447825074196, -0.0035410120617598295, 0.020726481452584267, -0.04763409495353699, -0.012110235169529915, -0.06063828617334366, 0.05723355710506439, -0.00178411731030792, -0.029268894344568253, -0.05769101530313492, 0.028362557291984558, -0.03254912048578262, 0.044313639402389526, 0.0417829267680645, -0.06746978312730789, -0.033173155039548874, -0.020061669871211052, -0.04867447912693024, -0.05972456932067871, -0.07546974718570709, -0.040375981479883194, -0.015166917815804482, -0.011374455876648426, -0.005056188441812992, -0.005599911790341139, -0.0018533653346821666, 0.02400618977844715, 0.028989329934120178, 0.034079018980264664, -0.045968323945999146, -0.05595630407333374, -0.05859125778079033, 0.01317550614476204, -0.014058108441531658, 0.024211518466472626, -0.012423249892890453, -0.058452606201171875, -0.0610259473323822, 0.008480849675834179, -0.045961543917655945, 0.03466128557920456, 0.07140912860631943, 0.00019946413522120565, -0.07015138864517212, 0.01756010763347149, -0.025052927434444427, 0.03209405392408371, -0.05830917879939079, 0.025666074827313423, 0.017990613356232643, 0.0022270476911216974, 0.07077692449092865, -0.0459582582116127, -0.0023577907122671604, 0.0006951842224225402, -0.021145787090063095, 0.03852681815624237, -0.0474676676094532, 0.02071749046444893, 0.011779038235545158, -0.04209967330098152, 0.040734075009822845, -0.03845255821943283, -0.06081131473183632, 0.01808745600283146, 0.023882456123828888, -0.06291718780994415, -0.02428167313337326, -0.07308869808912277, 0.0398833341896534, 0.040404122322797775, 0.032914504408836365, -0.052698470652103424, -0.05356277525424957, -0.00590380048379302, -0.012872186489403248, -0.04366512596607208, 0.020405396819114685, -0.007376966532319784, -0.006058291997760534, 0.0070624398067593575, -0.010706360451877117, 0.017806928604841232, 0.04627786576747894, 0.013723970390856266, -0.01857343129813671, -0.013455713167786598, -0.0006613577716052532, -0.017073478549718857, 0.028687264770269394, -0.06640208512544632, -0.014661509543657303, 0.06356773525476456, -0.046232908964157104, -0.012187657877802849, -0.08002328872680664, 0.05996356159448624, 0.04783374071121216, -0.04890754818916321, 0.02102673053741455, -0.060014333575963974, 0.036214862018823624, 0.0014293895801529288, 0.04307754710316658, -0.004580116365104914, -0.005350618623197079, -0.031023608520627022, 0.04177533835172653, -0.024918612092733383, -0.056502021849155426, -0.02883909083902836, -0.0002939249970950186, 0.043026264756917953, 0.031474512070417404, -0.05522707477211952, -0.02231762744486332, 0.030867457389831543, -0.02871900610625744, -0.0048326123505830765, 0.0030743172392249107, 0.003632498439401388, 0.026841754093766212, -0.03757118433713913, -0.05335341393947601, -0.05767855793237686, -0.014652044512331486, 0.04068894684314728, 0.007376449182629585, 0.013577577657997608, -0.036666981875896454, -0.019163114950060844, 0.0282236710190773, 0.014328250661492348, 0.048155203461647034, -0.008013208396732807, -0.03143204376101494, 0.04649756848812103, -0.05849006026983261, 0.06286174058914185, 0.00289425952360034, 0.04466032236814499, 0.0003379194240551442, -0.01798253320157528, 0.016089335083961487, 0.04635968059301376, 0.019883207976818085, -0.028178470209240913, 0.024312593042850494, -0.018148185685276985, 0.031156660988926888, -0.04312223941087723, -0.03042648546397686, 0.06075436994433403, 0.009133617393672466, -0.02801150642335415, -0.013783394359052181, 0.026075614616274834, -0.023912912234663963, 0.034447114914655685, 0.01600068062543869, 0.030729439109563828, -0.0748329907655716, -0.06829085201025009, 0.041810911148786545, 0.056839391589164734, 0.01575898379087448, -0.039864569902420044, -0.01674792356789112, 0.02848907746374607, -0.07380231469869614, -0.02195776253938675, 0.025655513629317284, 0.03404228016734123, -0.01987258717417717, -0.023180168122053146, -0.04083947464823723, 0.033751506358385086, -0.051329389214515686, -0.056002337485551834, -0.013031265698373318, -0.011226718313992023, 0.011511558666825294, -0.039897769689559937, 0.012455355376005173, -0.020309045910835266, -0.023312337696552277, 0.04341468960046768, 0.0011873262701556087, 0.006133185233920813, -0.0027674816083163023, 0.015683483332395554, 0.019251858815550804, -0.027658263221383095, 0.014308483339846134, 0.058290157467126846, -0.0015114996349439025, 0.009405042044818401, -0.0018038996495306492, 0.03518781438469887, -0.049402277916669846, -0.05127806216478348, 0.036446113139390945, 0.002650510985404253, -0.00822935439646244, -0.03336208313703537, 0.04565346613526344, 0.0320499911904335, 0.041134804487228394, -0.019592642784118652, 0.03889722377061844, 0.01412210427224636, 0.0018976846477016807, -0.02713552489876747, -0.013753043487668037, -0.04810811206698418, 0.09336186200380325, -0.016090087592601776, 0.0031328697223216295, -0.020347127690911293, -0.011169045232236385, 0.04626069217920303, -0.036692243069410324, -0.0010744323953986168, -0.030046511441469193, 0.01635301671922207, -0.039994001388549805, 0.013513866811990738, 0.002422112273052335, -0.02845822274684906, 0.018242960795760155, 0.06109585613012314, -0.01363320555537939, 0.017403947189450264, 0.03172815218567848, 0.007834809832274914, -0.0032647191546857357, 0.022286344319581985, -0.04048237204551697, -0.01573125272989273, -0.040435194969177246, -0.01690579764544964, -0.011361556127667427, -0.007541734725236893, -0.012481758370995522, -0.0436100997030735, -0.01392212975770235, 0.00972247775644064, -0.031092463061213493, -0.03521169722080231, 0.031905338168144226, -0.046970631927251816, -0.0469590425491333, -0.015475527383387089, 0.008729786612093449, 0.04272492602467537, 0.0354444645345211, -0.0007128805737011135, 0.011008157394826412, -0.03723428025841713, 0.04093004763126373, -0.004684186540544033, 0.006478127557784319, 0.030691606923937798, 0.0369139239192009, 0.0357372909784317, -0.02769085206091404, -0.06530439108610153,
 0.036595672369003296, -0.011728893965482712, 0.01030260231345892, 0.05075226351618767, 0.004709921777248383, 0.033246397972106934, 0.008694369345903397, -0.04631318524479866, 0.03357578068971634, -0.0015930376248434186, -0.036826398223638535, -0.03264237567782402, 0.05088487267494202, 0.007193686906248331, -0.039228592067956924, -0.010338508524000645, -0.04238703101873398, 0.03503886237740517, -0.036488283425569534, 0.03298906981945038, 0.005451214499771595, 0.014493078924715519, -0.047841768711805344, -0.0019700645934790373, 0.06105733662843704, 0.04557495936751366, -0.0244065523147583, -0.032793134450912476, 0.07280422002077103, 0.11537738144397736, 0.03817525506019592, 0.008780171163380146, 0.0037825945764780045, 0.07666531950235367, 0.031690727919340134, -0.020686646923422813, 0.02441687509417534, 0.038392119109630585, -0.05624452233314514, -0.07564962655305862, 0.03890010342001915, -0.012034309096634388, 0.00785578042268753, -0.06561695784330368, 0.01234904769808054, -0.032436225563287735, -0.0024867323227226734, -0.04001159220933914, 0.06849206984043121, -0.03223724663257599, -0.04667115584015846, 0.03238115459680557, 0.00500611262395978, 0.0006280300440266728, -0.0482337512075901, 0.007056763861328363, 0.019727839156985283, 0.03802275285124779, 0.0006633453303948045, -0.007621723227202892, 0.048683151602745056, -0.026273852214217186, -0.048784270882606506, -0.005245359614491463, 0.0316767580807209, -0.003815633477643132, 0.05196651443839073, -0.040182165801525116, 0.04093252867460251, 0.002659505931660533, 0.05002107843756676, -0.009546566754579544, -0.03644545376300812, 0.020421573892235756, -0.016322515904903412, -0.03570573404431343, 0.003707337658852339, -0.02929229848086834, -0.04490789398550987, -0.04393646493554115, 0.029343629255890846, 0.005069531966000795, -0.047892529517412186, -0.002737840637564659, -0.024727310985326767, 0.01115673128515482, -0.0031469690147787333, 0.022702980786561966, -0.044711023569107056, 0.02335229329764843, -0.0005541730206459761, -0.028766188770532608, 0.04547925293445587, -0.07001593708992004, -0.03128978610038757, -0.02045738510787487, -0.04113507270812988, -0.025146130472421646, 0.006750328000634909, -0.03822123631834984, -0.014523612335324287, -0.012511548586189747, -0.04516129568219185, 0.005744596477597952, 0.030768394470214844, 0.01641922816634178, -0.06375569105148315, 0.024000758305191994, 0.04201250150799751, 0.03017374314367771, -0.015447326004505157, -0.01628074422478676, 0.05383008345961571, 0.04322737455368042, -0.04105985909700394, -0.020692259073257446, 0.043360427021980286, 0.04759654775261879, 0.04522358998656273, 0.04454862326383591, 0.06761880964040756, 0.034493621438741684, 0.06854832172393799, 0.049875177443027496, -0.004893424455076456, -0.03823911398649216, 0.03244248405098915, 0.0018354133935645223, -0.0526597797870636, 0.0008581727743148804, 0.0724007859826088, -0.025199044495821, -0.01333905104547739, -0.009150332771241665, -0.019257010892033577, 0.04160463064908981, -0.03278512507677078, 0.025472668930888176, 0.07314211875200272, 0.05326376110315323, 0.01728779822587967, 0.023684551939368248, -0.000494328560307622, 0.02939470484852791, -0.049384575337171555, 0.046474821865558624, 0.06061236560344696, -0.04024510458111763, 0.05460898205637932, 0.024021340534090996, -0.027565844357013702, 0.01753593049943447, -0.025859229266643524, -0.011727266944944859, -0.034509047865867615, -0.008635143749415874, 0.00621013855561614, 0.03333858400583267, -0.03361153602600098, -0.022121945396065712, -0.011710488237440586, -0.0020529460161924362, 0.006639747880399227, 0.03849988803267479, 0.0182627085596323, -0.019333187490701675, 0.016490569338202477, 0.04736167937517166, 0.02463308349251747, -0.0331985205411911, -0.04171760007739067, 0.017736535519361496, -0.035294532775878906, -0.07548660784959793, -0.08752353489398956, 0.01528023649007082, -0.041419580578804016, -0.049240466207265854, 0.0056783962063491344, -0.016859818249940872, 0.0123838409781456, -0.03739673271775246, 0.029983410611748695, -0.016659865155816078, -0.027535343542695045, -0.0002282067871419713, 0.017430439591407776, -0.014941830188035965, -0.05888218805193901, -0.01136871986091137, -0.01665235310792923, 0.05587206408381462, -0.014094270765781403, -0.0530405230820179, 0.013305481523275375, -0.030681146308779716, 0.05443459004163742, -0.014003826305270195, 0.033223751932382584, -0.04038151726126671, 0.05627300217747688, 0.05884462222456932, -0.026577629148960114, -0.02509055845439434, 0.018606046214699745, 0.0014109729090705514, 0.013784723356366158, -0.006957654841244221, -0.05072768032550812, -0.0016374080441892147, 0.04448734596371651, 0.014445625245571136, -0.03198991343379021, -0.00987994484603405, -0.037797726690769196, -0.05433740094304085, 0.0431894026696682, 0.0668204128742218, 0.03777748718857765, 0.05420157313346863, 0.04337582737207413, 0.06274892389774323, -0.016387099400162697, -0.05917815864086151, 0.013358363881707191, -0.001093159313313663, 0.00728007685393095, 0.032036129385232925, 0.021578803658485413, 0.03214072436094284, -0.013554271310567856, -0.019525937736034393, 0.03167932480573654, 0.03534102812409401, 0.029652995988726616, -0.04184909537434578, 0.03486690670251846, -0.016717365011572838, 0.0038671388756483793, -0.038824327290058136, 0.02336631715297699, 0.06567477434873581, 0.04020347818732262, 0.008447390981018543, -0.01715107448399067, 0.029857948422431946, 0.05431770533323288, 0.011434292420744896, 0.0073921591974794865, 0.021857498213648796, -0.035546381026506424, -0.0456324927508831, -0.046750470995903015, 0.03727636858820915, 0.03237088397145271, 0.011018073186278343, -0.04144706204533577, -0.0190404262393713, 0.022247863933444023, 0.034343574196100235, -0.044795431196689606, 0.011024774052202702, -0.04164503514766693, 0.050999294966459274, 0.04445808380842209, -0.039365898817777634, -0.04741457849740982, 0.008037772960960865, 0.0368591845035553, -0.035050783306360245, -0.002649771748110652, 0.02296057902276516, -0.013816431164741516, 0.011873571202158928, -0.021059829741716385, -0.02264978736639023, -0.05622376129031181, -0.039162930101156235, 0.058013610541820526, 0.0360528863966465, -0.041673388332128525, -0.020064765587449074, 0.056697145104408264, -0.03394347056746483, -0.005480666644871235, -0.057792242616415024, 0.03571522980928421, 0.0422632060945034, -0.04175860807299614, 0.04733911529183388, 0.00958116166293621, 0.03559023514389992, -0.04323676601052284, 0.020753975957632065, 0.050936926156282425, -0.053134381771087646, -0.055264633148908615, 0.035131677985191345, -0.010520017705857754, -0.027484502643346786, 0.02442982792854309, -0.01699429750442505, -0.05457061156630516, -0.07722550630569458, 0.021296966820955276, -0.01407837774604559, 0.0493401363492012, -0.001060927170328796, 0.016168715432286263, 0.022206837311387062, 0.04939994588494301, 0.03495311737060547, 0.02811598964035511, -0.013646675273776054, -0.03833010420203209, 0.03632309287786484, 0.026517309248447418, 0.06219089403748512, 0.03003186173737049, 0.03616400808095932, -0.03582737222313881, 0.044148582965135574, -0.03709351271390915, 0.012205871753394604, 0.0025431320536881685, -0.031036462634801865, 0.0031424725893884897, -0.06366974860429764, -0.04371796175837517, 0.03537970781326294, 0.014299824833869934, -0.04419942945241928, -0.033207837492227554, 0.022344723343849182, 0.06975136697292328, -0.00038642779691144824, -0.021588044241070747, 0.04708023741841316, 0.010439565405249596, -0.05124828591942787, 0.029799437150359154, -0.040072906762361526, 0.02428889274597168, 0.03553326427936554, -0.05257221311330795, 0.02822808548808098, -0.05124867334961891, -0.007730684243142605, -0.018826641142368317, 0.014575125649571419, -0.0013828877126798034, -0.025578219443559647, 0.008251805789768696, 0.0736456960439682, 0.0725349485874176, -0.07694188505411148, -0.03363210707902908, 0.05789491906762123, 0.019703134894371033, -0.04305058717727661, -0.05684151127934456, 0.009624884463846684, 0.02419484779238701, -0.03955569490790367, 0.0288255475461483, 0.05030520260334015, 0.06187079846858978, -0.003233726369217038, 0.011853067204356194, -0.030280491337180138, 0.008201568387448788, -0.0714111253619194, 0.03451620414853096, 0.00505225220695138, 0.004436873365193605, -0.007687762379646301, -0.06333460658788681, 0.022525014355778694, -0.0013742282753810287, -0.08941814303398132, -0.01274269912391901, -0.06797114759683609, -0.01394279208034277, -0.0920499935746193, -0.06251068413257599, -0.10208170861005783, 0.01140949223190546, -0.0483582504093647, -0.03973230719566345, -0.07838436216115952, -0.06774596869945526, 0.03626874089241028, 0.004948928486555815, 0.06566421687602997, 0.012912196107208729, -0.04353253170847893, -0.04724935442209244, -0.024882124736905098, -0.04888727143406868, -0.041441477835178375, -0.0346054807305336, 0.008148258551955223, -0.01574026793241501, 0.009201934561133385, -0.07379695028066635, -0.0008207661448977888, -0.05006687715649605, -0.01978394016623497, 0.03315010666847229, -0.06636304408311844, -0.00116497534327209, 0.010456006042659283, 0.0058317952789366245, -0.05586883798241615, -0.006871456280350685, 0.01325936522334814, 0.015811961144208908, -0.02451651729643345, -0.02606802247464657, -0.10162536799907684, -0.005362743511795998, 0.01508705597370863, 0.023170877248048782, -0.05863146483898163, -0.022450581192970276, 0.0036972013767808676, 0.026977015659213066, 0.0224919356405735, 0.02446560189127922, -0.03074241802096367, 0.04236495494842529, 0.0203696321696043, 0.044665224850177765, 0.03804197534918785, -0.08876938372850418, 0.049646440893411636, -0.005422790534794331, -0.042481109499931335, 0.015591753646731377, -0.09046043455600739, 0.05203541740775108, 0.047895003110170364,
 -0.009501480497419834, 0.017953287810087204, -0.021411128342151642, -0.008638533763587475, -0.00638327281922102, -0.07698308676481247, 0.03519272431731224, 0.07410129904747009, -0.005126587580889463, -0.018816856667399406, -0.015808679163455963, -0.07071007788181305, 0.034222282469272614, 0.06481102854013443, -0.09297440201044083, -0.038803502917289734, -0.05718393251299858, -0.04966607689857483, 0.014715299010276794, -0.085433229804039, 0.025667624548077583, -0.02291501685976982, -0.006623494438827038, 0.08975959569215775, -0.006092607509344816, -0.0442570261657238, -0.016688810661435127, -0.05007101222872734, 0.0012407649774104357, 0.0396718755364418, -0.04870674014091492, -0.019863588735461235, 0.048175860196352005, 0.07384270429611206, -0.018378382548689842, 0.005867508705705404, -0.012843930162489414, -0.04300262778997421, 0.027708062902092934, -0.03327982872724533, 0.04320462793111801, 0.0673593059182167, -0.005477316211909056, -0.005350957158952951, 0.025059089064598083, -0.019585492089390755, 0.018995296210050583, -0.07824987918138504, -0.05344843491911888, 0.03340566158294678, 0.0351070836186409, 0.01601121574640274, -0.025234801694750786, -0.026633918285369873, -0.01648539863526821, -0.019393006339669228, 0.06366118043661118, -0.00508823012933135, 0.033990275114774704, 0.032230570912361145, -0.019835537299513817, 0.04688042402267456, 0.01308958139270544, -0.08150986582040787, 0.025194428861141205, -0.0076424740254879, 0.04517913982272148, -0.021534493193030357, -0.035157736390829086, 0.0034416529815644026, -0.04332016035914421, -0.0021655173040926456, 0.030130987986922264, 0.03303402662277222, 0.04605865851044655, 0.01927667297422886, 0.029825877398252487, -0.061771418899297714, 0.05239573493599892, -0.00931586604565382, -0.06842119991779327, -0.09450403600931168, -0.038013625890016556, 0.01885645091533661, -0.014633352868258953, -0.051737770438194275, -0.029938748106360435, -0.08011414110660553, 0.020249143242836, -0.04033280536532402, -0.012158490717411041, -0.06422092020511627, -0.08202502876520157, 0.08332443982362747, 0.03556385263800621, -0.01432094257324934, -0.0700712725520134, -0.03931456431746483, 0.07523678988218307, 0.018993636593222618, 0.019953956827521324, -0.10689633339643478, 0.008353796787559986, 0.03783256560564041, 0.03009531833231449, -0.030473634600639343, 0.026689991354942322, 0.02540840208530426, 0.07111112773418427, -0.009245491586625576, 0.04252185299992561, -0.012803019024431705, -0.00029463297687470913, 0.020735882222652435, 0.038080550730228424, -0.03283869847655296, -0.03722059354186058, 0.013276010751724243, -0.014290524646639824, 0.022273967042565346, -0.006281436886638403, 0.051318708807229996, 0.0033686188980937004, -0.05528245121240616, 0.016943741589784622, -0.021492913365364075, -0.026115717366337776, -0.02878187969326973, -0.08027104288339615, -0.03967122733592987, -0.00212388695217669, -0.020656922832131386, 0.005611451342701912, 0.017111575230956078, 0.017210574820637703, 0.023098422214388847, 0.008416120894253254, 0.0025586963165551424, 0.012787796556949615, 0.041014865040779114, -0.005141261499375105, -0.023659849539399147, -0.045889854431152344, -0.03670161962509155, 0.05087994039058685, -0.01472912635654211, -0.022424574941396713, -0.010284612886607647, -0.052376940846443176, 0.05135052278637886, -0.053069423884153366, -0.05466935411095619, -0.015064726583659649, 0.014934337697923183, 0.0017811382422223687, -0.006624861620366573, -0.06566409021615982, -0.06934574991464615, -0.061220742762088776, 0.027580490335822105, -0.03606528043746948, -0.07961709052324295, -0.045134805142879486, -0.04358725994825363, 0.029193418100476265, -0.012065410614013672, -0.036774709820747375, -0.0640515461564064, -0.04918970912694931, -0.061394963413476944, -0.00813637301325798, -0.0455884225666523, -0.019760139286518097, -0.017546281218528748, -0.06233344227075577, 0.04083644598722458, -0.10192596167325974, 0.01789020374417305, 0.0487920418381691, 0.06537184864282608, -0.03458328917622566, 0.028983477503061295, -0.0141065688803792, -0.07946793735027313, -0.028138162568211555, -0.015534495003521442, 0.01903376914560795, -0.0065137161873281, -0.06211094185709953, -0.08027773350477219, -0.061641234904527664, 0.011970208026468754, 0.034608662128448486, -0.002565963426604867, -0.028430523350834846, -0.012746904976665974, 0.021835967898368835, -0.04855100437998772, -0.08892595767974854, -0.04977070540189743, 0.07962438464164734, 0.037032514810562134, -0.018977360799908638, 0.03637497127056122, 0.03637068718671799, 0.006945126689970493, -0.01738624833524227, 0.09513754397630692, 0.04621895030140877, 0.006458384450525045, -0.055112600326538086, -0.05207685008645058, 0.06611552834510803, 0.09138249605894089, -0.0829303115606308, -0.02503805421292782, -0.05387018620967865, 0.10924743860960007, 0.017039980739355087, -0.13032501935958862, 0.02412848174571991, -0.0811736136674881, 0.06527596712112427, 0.04652704671025276, -0.10482380539178848, -0.06561750173568726, 0.02567766234278679, 0.03662234917283058, 0.028850620612502098, -0.013681305572390556, 0.08216746896505356, 0.0568695031106472, -0.06194049492478371, 0.010349106043577194, 0.07325218617916107, 0.057757169008255005, 0.04822932556271553, -0.07425106316804886, -0.030106933787465096, 0.10236961394548416, 0.012267744168639183, 0.10592704266309738, -0.0007859353208914399, -0.03927582874894142, 0.06856489181518555, 0.07385922968387604, 0.008054024539887905, 0.004045713692903519, -0.0462648831307888, 0.07090111821889877, 0.034417808055877686, 0.005430399905890226, -0.015071259811520576, 0.015597397461533546, 0.07240534573793411, -0.026167945936322212, -0.027670763432979584, -0.08038155734539032, -0.04382823035120964, 0.00582185760140419, 0.06325066834688187, 0.04169400781393051, -0.003265637904405594, -0.02882680669426918, 0.1267053782939911, 0.02926395647227764, 0.0458189882338047, -0.09435691684484482, -0.008392097428441048, 0.1172868013381958, 0.06122806668281555, 0.11214537918567657, -0.028144625946879387, 0.013676532544195652, 0.12416639924049377, 0.021343735978007317, 0.0179812740534544, -0.05735936388373375, 0.025381147861480713, 0.07348787784576416, 0.07044456899166107, 0.030679848045110703, -0.059616390615701675, 0.02538084052503109, 0.07445375621318817, -0.026721812784671783, 0.06700657308101654, -0.0076494538225233555, 0.002603553468361497, 0.03144285827875137, 0.008437756448984146, -0.01896543987095356, -0.06271077692508698, -0.046229299157857895, 0.06391552835702896, 0.010064375586807728, 0.002005738439038396, 0.010773281566798687, 0.022824518382549286, 0.04704230651259422, 0.012688666582107544, -0.011718157678842545, 0.05986643210053444, -0.008445676416158676, 0.013459790498018265, -0.047855194658041, 0.022839380428195, -0.0028661491815000772, -0.038507167249917984, -0.025828765705227852, 0.04576977342367172, -0.019589312374591827, -0.03048016130924225, -0.06172538921236992, -0.05427923798561096, -0.014890075661242008, -0.004067535977810621, -0.0497598834335804, -0.005200968123972416, 0.0015421967254951596, -0.012848268263041973, -0.026320986449718475, -0.011001567356288433, -0.03911453112959862, 0.015063615515828133, 0.0054564098827540874, -0.04085403308272362, -0.013539266772568226, -0.07847173511981964, 0.013835129328072071, -0.06477628648281097, -0.015522676520049572, 0.023619741201400757, 0.0012685175752267241, 0.06605038046836853, -0.04720718041062355, 0.018652450293302536, -0.020529160276055336, -0.006485257297754288, 0.056642040610313416, -0.025681691244244576, -0.00500880740582943, -0.08494090288877487, 0.03252590447664261, 0.010669209063053131, -0.019349079579114914, -0.05539123713970184, -0.06726247817277908, 0.03695780411362648, 0.04402421787381172, -0.05111824348568916, 0.01745082624256611, 0.029544344171881676, 0.0013404778437688947, 0.03562474995851517, 0.013501232489943504, 0.047379203140735626, 0.055177249014377594, -0.04707372933626175, -0.049210499972105026, -0.07568178325891495, -0.011294355615973473, 0.13559195399284363, -0.010252974927425385, -0.036562468856573105, -0.03239213675260544, -0.08350778371095657, 0.09437531232833862, 0.0757153332233429, -0.09796731919050217, -0.04075248911976814, -0.008316468447446823, 0.05417897552251816, 0.07069164514541626, -0.019918546080589294, 0.029604900628328323, -0.04166993126273155, 0.007128650788217783, 0.005869334563612938, 0.04440608620643616, 0.041223347187042236, -0.05577297881245613, -0.05482185631990433, 0.07099432498216629, 0.04020852595567703, 0.015439235605299473, -0.013409087434411049, -0.07236205041408539, 0.07775530219078064, 0.13599251210689545, -0.03760487958788872, -0.022352350875735283, -0.02779974788427353, -0.05406837910413742, 0.058576881885528564, 0.03738036006689072, 0.0681055560708046, 0.019773880019783974, 0.009156721644103527, 0.09507714211940765, 0.034475963562726974, 0.030591703951358795, -0.04947812855243683, -0.036964017897844315, 0.04554498568177223, -0.056026119738817215, -0.019913174211978912, 0.04284718632698059, -0.0016751663060858846, -0.0533483624458313, 0.013108901679515839, -0.07093916088342667, 0.022689327597618103, 0.021298440173268318, -0.06740355491638184, -0.02038978971540928, -0.026390304788947105, -0.05413445085287094, 0.10862336307764053, -0.0721367672085762, 0.058878254145383835, -0.0863947868347168, -0.003421762492507696, 0.1083267405629158, -0.044838882982730865, -0.018574494868516922, -0.0648006796836853, 0.11526644974946976, 0.0979779064655304, 0.009015421383082867, -0.011055734939873219, 0.060590583831071854, 0.06289753317832947, 0.03530239686369896, 0.07834366708993912, -0.036592308431863785, -0.05059492588043213, 0.011819358915090561, -0.011539359577000141, 0.015108226798474789, -0.04674778878688812,
 -0.08372492343187332, -0.0315701887011528, -0.045578643679618835, -0.058678120374679565, -0.00424047838896513, -0.03171577677130699, -0.04865235462784767, 0.044003136456012726, 0.018535191193223, -0.011939989402890205, 0.04091772809624672, 0.06653302907943726, -0.01886787638068199, -0.03870521858334541, 0.0024791997857391834, 0.0170139167457819, -0.01932172290980816, -0.02448899671435356, -0.08019319921731949, -0.046683989465236664, -0.02577085793018341, -0.013348317705094814, -0.006743941456079483, 0.04431934654712677, 0.04615245759487152, 0.036293983459472656, -0.006152681075036526, 0.049230583012104034, 0.028979239985346794, 0.04558718949556351, -0.0018571345135569572, -0.03302399814128876, 0.04329352825880051, 0.047423746436834335, 0.004327841103076935, -0.05044486001133919, -0.05908020958304405, -0.008533761836588383, -0.07217320054769516, 0.035436321049928665, -0.011394528672099113, -0.0004148377338424325, 0.0801660567522049, 0.07042630761861801, -0.05517788231372833, -0.03123595379292965, 0.04316027835011482, -0.031064629554748535, 0.014643076807260513, -0.058533601462841034, -0.0117287402972579, -0.08401213586330414, -0.08792967349290848, 0.036676712334156036, -0.0604829303920269, 0.028198236599564552, 0.03367346152663231, -0.04703057184815407, 0.00787634588778019, -0.014341245405375957, 0.05243491381406784, 0.00011906844156328589, 0.03364758566021919, -0.04672067612409592, 0.030967073515057564, 0.04904071241617203, 0.028424782678484917, 0.008357935585081577, 0.012810841202735901, -0.007544063497334719, 0.006715251598507166, 0.02339278720319271, 0.06640928983688354, 0.07061285525560379, -0.0740930438041687, 0.010097449645400047, -0.02323870174586773, -0.052057843655347824, 0.03748904541134834, -0.020117776468396187, -0.00937633216381073, -0.06243276223540306, -0.07491409778594971, -0.05817672610282898, -0.039277561008930206, 0.007521927822381258, 0.0477052740752697, -0.07155562937259674, -0.04332861304283142, 0.07612200826406479, 0.022792259231209755, 0.09918676316738129, 0.07843466848134995, -0.026853997260332108, 0.004790121223777533, 0.050057221204042435, 0.04266849905252457, 0.055671803653240204, 0.0765850692987442, 0.013380303978919983, 0.01736384443938732, 0.018172411248087883, -0.029172565788030624, -0.024387476965785027, -0.04597499966621399, 0.0011024028062820435, -0.0536799393594265, 0.018332749605178833, -0.025082141160964966, -0.034939877688884735, -0.04644019529223442, 0.010294243693351746, 0.0073893009684979916, 0.04490318521857262, -0.025222506374120712, -0.04900414124131203, -0.04154597222805023, -0.008402072824537754, -7.48719903640449e-05, 0.0362553596496582, 0.030574753880500793, -0.0038997293449938297, -0.040770892053842545, -0.06617479026317596, -0.033887121826410294, -0.05722345411777496, 0.01113182120025158, 0.019757283851504326, -0.008999445475637913, 0.023472072556614876, -0.049458689987659454, -0.03607401251792908, 0.04038817808032036, -0.025332290679216385, 0.04558749124407768, -0.021117910742759705, 0.015415473841130733, 0.0037242050748318434, 0.04721379652619362, 0.046641651540994644, 0.060471925884485245, -0.03978077322244644, 0.029091766104102135, -0.0124445091933012, -0.03665784373879433, 0.042421646416187286, -0.033297471702098846, -0.013183300383388996, -0.0036965503823012114, 0.039652448147535324, -0.00777251785621047, 0.017161330208182335, 0.02378486655652523, -0.015665551647543907, 0.003960073925554752, -0.01727554015815258, -0.007547253742814064, -0.04918532446026802, 0.02323766238987446, -0.10897187888622284, 0.009506878443062305, -0.05315234512090683, 0.025449171662330627, -0.06854907423257828, 0.014203011989593506, 0.06907634437084198, 0.06255800276994705, 0.07316989451646805, 0.06869561225175858, -0.003039135131984949, 0.008326682262122631, -0.050952114164829254, 0.04306028410792351, 0.021303845569491386, -0.028711888939142227, -0.0716731995344162, -0.001136494567617774, -0.07403300702571869, 0.00030815371428616345, -0.026154236868023872, 0.00573477940633893, 0.009686427190899849, -0.021500641480088234, 0.013924871571362019, -0.013433797284960747, -0.02944236807525158, 0.06182801350951195, 0.03397126495838165, 0.016632281243801117, 0.029107438400387764, 0.03518375754356384, 0.0038014717865735292, 0.09716016799211502, 0.05868080258369446, -0.015593341551721096, 0.049506187438964844, 0.06776869297027588, 0.08658923953771591, 0.07047303020954132, -0.033375512808561325, 0.0006581130437552929, -0.021616656333208084, 0.010908222757279873, 0.049731429666280746, -0.054724548012018204, -0.0964697003364563, -0.07960662245750427, -0.0726434737443924, -0.07440185546875, -0.07645247131586075, -0.10897525399923325, -0.05115344375371933, -0.09207894653081894, -0.06465369462966919, 0.04560238867998123, 0.010620593093335629, 0.038665901869535446, -0.0069459592923521996, 0.00028908890089951456, 0.09564182907342911, 0.08323722332715988, 0.06961536407470703, 0.07963134348392487, 0.03803592920303345, 0.03182823956012726, 0.08390650898218155, 0.039520781487226486, 0.15437708795070648, 0.12742024660110474, 0.02948678843677044, 0.04686708375811577, 0.007900849916040897, 0.04672455042600632, 0.044825103133916855, -0.02566969394683838, -0.012988127768039703, -0.07822751253843307, -0.012816804461181164, 0.01945386826992035, 0.013371092267334461, -0.01839558780193329, -0.020429512485861778, 0.031593672931194305, -0.039630018174648285, 0.015721438452601433, 0.017377164214849472, 0.007380119524896145, -0.0007022909121587873, 0.01038898341357708, 0.02805301733314991, 0.008878146298229694, -0.04238450899720192, 0.0008571814396418631, -0.05548115819692612, 0.036322277039289474, -0.008458331227302551, -0.025598468258976936, -0.018132932484149933, 0.022401027381420135, 0.06782747060060501, 0.036997970193624496, 0.0468202568590641, 0.0734885111451149, 0.02375073917210102, 0.05929011106491089, 0.036416683346033096, 0.011829804629087448, 0.028327416628599167, -0.035903919488191605, 0.040497712790966034, 0.05707285925745964, 0.07397215068340302, 0.09498586505651474, 0.07321298867464066, -0.03944673389196396, 0.04122091084718704, 0.0022027010563760996, -0.02223280817270279, 0.015609401278197765, -0.026363220065832138, -0.10145420581102371, -0.11508960276842117, -0.06813006848096848, 0.03054300881922245, -0.0942499041557312, -0.0773424357175827, -0.03728797659277916, -0.05546526610851288, -0.03959958255290985, -0.024848608300089836, -0.11270813643932343, -0.017924383282661438, -0.01884157769382, 0.047473933547735214, -0.09270887076854706, -0.06363169103860855, -0.015892423689365387, -0.09083778411149979, -0.04288477078080177, -0.06756510585546494, -0.04141346365213394, 0.0200327318161726, -0.01127176359295845, -0.11941017210483551, -0.05192120745778084, 0.046796876937150955, -0.012693739496171474, -0.032443009316921234, 0.027556153014302254, -0.01422791089862585, 0.01688803732395172, 0.039174240082502365, 0.044218700379133224, 0.01450528297573328, 0.020956946536898613, -0.05954835191369057, 0.032177332788705826, 0.054422155022621155, 0.06432035565376282, -0.005713472608476877, -0.07726164162158966, -0.050926778465509415, -0.07182612270116806, 0.05124157294631004, -0.01845395937561989, -0.06528496742248535, -0.02547648921608925, -0.06807002425193787, 0.010623031295835972, 0.00820749718695879, -0.041192084550857544, -0.006133228074759245, -0.01071726344525814, -0.07014627009630203, -0.04371049255132675, -0.05541684478521347, -0.03977568447589874, -0.0408136248588562, -0.008852556347846985, -0.029485084116458893, 0.008600999601185322, -0.057072680443525314, -0.03714235499501228, 0.0443456806242466, -0.045268714427948, -0.06514447927474976, -0.03657268360257149, -0.08038385212421417, -0.0395548939704895, 0.0078068021684885025, -0.032182030379772186, -0.015181975439190865, -0.010386551730334759, -0.05807388573884964, 0.013774552382528782, -0.028890378773212433, 0.05820910632610321, 0.04347621649503708, -0.006610952317714691, 0.01856204681098461, 0.01846853457391262, 0.049168094992637634, -0.019236553460359573, -0.03365805000066757, -0.02730606123805046, 0.021047992631793022, -0.01788223162293434, 0.09294150024652481, 0.07278521358966827, 0.01822296902537346, 0.01639820821583271, 0.014825492165982723, -0.000908929796423763, 0.011936694383621216, -0.05556332319974899, -0.03979024291038513, -0.0569525770843029, 0.018911808729171753, -0.046877652406692505, -0.06387250870466232, 0.01715640164911747, -0.04787022992968559, 0.001521360594779253, 0.00032570090843364596, -0.02771882712841034, -0.03920610249042511, -0.07730858772993088, -0.06992287933826447, -0.01821048930287361, 0.06209292635321617, 0.04007738456130028, 0.01947278529405594, 0.056561149656772614, 0.010310917161405087, 0.034381136298179626, -0.01583920046687126, 0.022965649142861366, 0.012376983650028706, 0.043663229793310165, 0.049499932676553726, 0.02957947738468647, -0.04597218707203865, -0.0335938036441803, -0.04260411858558655, -0.0611126683652401, -0.09623585641384125, -0.06510133296251297, -0.04118978604674339, -0.018922582268714905, -0.08540070056915283, -0.0893220379948616, -0.09211277961730957, 0.016804197803139687, -0.03066912479698658, 0.021215355023741722, 0.016978377476334572, 0.027925582602620125, -0.05258101969957352, -0.02048335410654545, 0.014943750575184822, 0.05774547532200813, 0.010347306728363037, 0.0268414244055748, -0.01547609455883503, -0.030953090637922287, 0.04169132560491562, 0.043493304401636124, 0.10086072236299515, 0.07499179244041443, -0.026649709790945053, -0.02764979749917984, 0.0002722252393141389, 0.027681788429617882, 0.031803861260414124, -0.016528550535440445, -0.047629863023757935, -0.09335602819919586, -0.08692444860935211, -0.05800695717334747, 0.01468327920883894, -0.01595640555024147, -0.028618618845939636,
 -0.05336371809244156, 0.050612229853868484, 0.0023024133406579494, -0.017559966072440147, -0.021852178499102592, -0.04022086784243584, 0.010661454871296883, 0.02964494749903679, -0.0343080572783947, -0.025204414501786232, 0.025122007355093956, -0.06280076503753662, 0.044622261077165604, -0.014536755159497261, -0.017149869352579117, -0.023377342149615288, 0.01882341131567955, -0.03968574106693268, -0.04890192672610283, 0.029376573860645294, -0.0556943379342556, 0.0011675372952595353, -0.05113263055682182, 0.0030395074281841516, -0.0027000161353498697, -0.06770287454128265, -0.05833536759018898, 0.020588649436831474, 0.009042724967002869, 0.018171140924096107, -0.012865161523222923, -0.0112485121935606, 0.005734677892178297, -0.06106429919600487, -0.033296242356300354, -0.027552450075745583, -0.038899485021829605, -0.060126520693302155, -0.062119677662849426, -0.07597324252128601, 0.025341583415865898, -0.044477369636297226, 0.01179630495607853, -0.047570910304784775, -0.03835994005203247, -0.032098859548568726, -0.020021283999085426, -0.038504522293806076, -0.0048422436229884624, -0.01724153757095337, 0.015036365017294884, 0.024368325248360634, -0.0015608476242050529, 0.03246846795082092, 0.0415571890771389, -0.0005816227057948709, 0.008708111010491848, 0.0437968410551548, 0.03692655265331268, 0.012883656658232212, -0.01164919976145029, 0.052382081747055054, 0.010479562915861607, -0.0004959276411682367, 0.021994993090629578, 0.0040700663812458515, -0.008471176959574223, -0.10525809228420258, -0.08980781584978104, -0.0017361842328682542, -0.06130308657884598, -0.06735626608133316, -0.02368646115064621, 0.02125152200460434, -0.025032062083482742, -0.06989210098981857, -0.01693032681941986, 0.013451077975332737, 0.028013378381729126, -0.00208284636028111, 0.006417650263756514, -0.047207675874233246, -0.05293019115924835, 0.011273784562945366, 0.023829475045204163, -0.06951292604207993, -0.014850613661110401, 0.009423668496310711, -0.012998541817069054, 0.010430361144244671, 0.0207215566188097, -0.02090839296579361, 0.0735030472278595, 0.0771445780992508, 0.003981503192335367, 0.04330151155591011, -0.013553130440413952, 0.055096399039030075, 0.012864720076322556, -0.028953811153769493, -0.019253360107541084, -0.049288660287857056, 0.04928208142518997, 0.002721016760915518, 0.01355017814785242, -0.04390227049589157, -0.013199646957218647, 0.030353987589478493, -0.007929014042019844, 0.02078641764819622, 0.007249890360981226, -0.020531395450234413, 0.06319925934076309, 0.05681147798895836, -0.03705867379903793, -0.012432598508894444, 0.04797089844942093, 0.0069983527064323425, -0.08253513276576996, -0.05558551847934723, -0.030813338235020638, 0.04218951240181923, -0.01528088003396988, 0.023514918982982635, 0.016283422708511353, -0.042340002954006195, -0.007503971457481384, 0.0019217152148485184, 0.006535692606121302, 0.03814298287034035, 0.013789823278784752, -0.032364096492528915, 0.02854151651263237, -0.04757753387093544, 0.0037849657237529755, 0.00017553509678691626, 0.04034483805298805, 0.008251161314547062, 0.005492510739713907, -0.050255317240953445, -0.048167161643505096, 0.023480594158172607, 0.01978187821805477, -0.02496558055281639, -0.027248825877904892, -0.0161273293197155, 0.00372701371088624, 0.037423428148031235, -0.01888851635158062, 0.011203096248209476, -0.0006281303358264267, -0.05145309120416641, -0.011492057703435421, 0.05616629123687744, -0.03439139202237129, -0.04215822368860245, 0.02089981734752655, 0.039401233196258545, -0.008561566472053528, -0.013850297778844833, -0.02753966487944126, 0.05794758349657059, 0.004638350568711758, 0.05461970716714859, 0.09165970236063004, 0.056451596319675446, 0.017579803243279457, -0.017756178975105286, 0.017477363348007202, 0.03355657309293747, 0.03399290516972542, -0.024600844830274582, -0.0554661899805069, -0.034368690103292465, -0.030783159658312798, 0.023730473592877388, -0.01871326193213463, -0.05308277904987335, 0.03520296886563301, -0.06229979544878006, 0.003951409365981817, -0.01255134679377079, -0.05591912195086479, 0.009100791066884995, 0.01991456001996994, 0.0066954465582966805, -0.029635818675160408, 0.008695382624864578, 0.023325683549046516, 0.018681304529309273, -0.040228087455034256, -0.06340101361274719, -0.025144461542367935, -0.012371184304356575, 0.015196979977190495, -0.033949706703424454, 0.011780042201280594, -0.0747125893831253, -0.057233721017837524, -0.07189131528139114, -0.09702403843402863, -0.008054258301854134, -0.06437317281961441, -0.04945296421647072, -0.06649746000766754, -0.10357515513896942, -0.09323389828205109, 0.03611987456679344, -0.07953141629695892, -0.07531996816396713, 0.022218337282538414, -0.030788617208600044, 0.05498586595058441, -0.04026973247528076, 0.045804981142282486, 0.01361427828669548, 0.016179444268345833, 0.055927108973264694, 0.047810863703489304, 0.033136673271656036, -0.03186414763331413, -0.019698241725564003, -0.005396286956965923, -0.007450309116393328, 0.033335328102111816, -0.02859806828200817, -0.0450420118868351, 0.07000850886106491, -0.022317707538604736, -0.01881709136068821, 0.04278785362839699, 0.05942405387759209, -0.009469892829656601, 0.018260061740875244, -0.03544512391090393, 0.003946856129914522, 0.010741207748651505, 0.030042443424463272, 0.016410350799560547, 0.053369808942079544, -0.05896567925810814, 0.027621427550911903, 0.01617036946117878, 0.0018218898912891746, 0.013910830020904541, 0.0037043082993477583, -0.009243270382285118, -0.003394544590264559, 0.007218217011541128, -0.07606001198291779, 0.01391935721039772, -0.03720298409461975, -0.06591149419546127, -0.06790857762098312, -0.06576094031333923, -0.04240432381629944, -0.01726936176419258, 0.0023753379937261343, 0.04235995188355446, -0.018777770921587944, 0.06084267422556877, -0.002339655999094248, 0.062405750155448914, 0.08609024435281754, 0.09735020995140076, 0.07920558005571365, 0.004892656579613686, 0.04431399703025818, 0.07122720777988434, -0.004277636297047138, -0.048888783901929855, -0.05561613664031029, -0.09860775619745255, -0.02996015176177025, -0.05824381858110428, -0.021856192499399185, -0.019920365884900093, 0.009100229479372501, -0.0100775808095932, -0.08450190722942352, -0.07906117290258408, -0.012081189081072807, -0.060952093452215195, 0.004939083009958267, -0.009749611839652061, -0.04334226995706558, -0.0478249154984951, 0.056668542325496674, 0.04033369570970535, 0.009526768699288368, 0.045045405626297, 0.10256082564592361, 0.0956716388463974, 0.10361111909151077, 0.08469074964523315, 0.08840233087539673, -0.007085756864398718, -0.05313767120242119, 0.022526435554027557, -0.04436933249235153, -0.014125287532806396, -0.02976224571466446, -0.001723012886941433, -0.01661176048219204, -0.005012836307287216, -0.022042378783226013, 0.028543978929519653, 0.02533429116010666, -0.030629420652985573, -0.051001738756895065, -0.009204570204019547, -0.06787006556987762, -0.034174755215644836, -0.05943487212061882, -0.02228854037821293, 0.030620668083429337, -0.0036855540238320827, -0.04957110062241554, 0.0383458137512207, -0.044933415949344635, 0.003734762780368328, 0.003703637048602104, -0.059037964791059494, -0.04947865381836891, -0.013844377361238003, -0.052335456013679504, -0.01719929464161396, -0.04299992695450783, -0.02684435434639454, 0.009062372148036957, -0.057981155812740326, -0.049450069665908813, -0.0168113075196743, -0.06345698237419128, -0.0012186771491542459, 0.024303602054715157, -0.0059497905895113945, 0.07874046266078949, 0.0502161905169487, -0.014029721729457378, 0.031156623736023903, -0.018796531483530998, 0.04464902728796005, 0.028649503365159035, 0.017097169533371925, 0.020877627655863762, -0.014765775762498379, 0.047330547124147415, -0.021020621061325073, 0.023668620735406876, 0.03332314267754555, 0.0004038547049276531, 0.037860479205846786, 0.05303686112165451, -0.002178861992433667, 0.027687378227710724, 0.0042713661678135395, -0.013465206138789654, -0.025352127850055695, -0.044047486037015915, -0.014139552600681782, 0.0029555726796388626, 0.01438900176435709, 0.00337283406406641, -0.04361205920577049, -0.032794248312711716, -0.006564144976437092, 0.011310312896966934, -0.052215881645679474, -0.06303812563419342, 0.015440366230905056, 0.07792184501886368, -0.016096211969852448, 0.037751298397779465, 0.04404142498970032, 0.007496011909097433, 0.0431867279112339, 0.0013753236271440983, -0.00843402836471796, -0.005147980060428381, -0.02484877221286297, -0.047181155532598495, -0.03435785323381424, -0.035992980003356934, -0.04581549018621445, 0.009676342830061913, -0.03985769301652908, 0.04515859857201576, 0.03423323854804039, 0.004960150923579931, 0.02918686531484127, 0.05655786022543907, 0.02244153805077076, 0.027155676856637, -0.041837822645902634, 0.02412012591958046, -0.010874832049012184, -0.017375098541378975, 0.01106166746467352, -0.009624353609979153, 0.047078609466552734, -0.04126206040382385, -0.01809978112578392, -0.025030944496393204, -0.0633477196097374, 0.025164170190691948, 0.02505435235798359, -0.06545624881982803, -0.017504945397377014, 0.016065038740634918, -0.06686411798000336, -0.012194965966045856, 0.006479022093117237, -0.03971331566572189, -0.05123713240027428, 0.023816833272576332, -0.02440241537988186, -0.014041082933545113, 0.04621513932943344, -0.0207026656717062, 0.015756838023662567, 0.04698636010289192, -0.05407249927520752, -0.06256663799285889, -0.079383485019207, -0.04852106794714928, 0.011528713628649712, 0.02562902122735977, -0.05999603495001793, -0.060077302157878876, -0.01870723068714142, -0.023031247779726982, 0.019803909584879875, -0.003555729752406478, 0.02188294567167759, 0.03045729547739029, -0.024104373529553413, -0.0001951980812009424, -0.01324165053665638,
 0.046900536864995956, 0.04224979132413864, -0.022261016070842743, 0.022458430379629135, -0.029802624136209488, 0.03188928961753845, -0.031002191826701164, 0.03472280129790306, -0.02456996962428093, -0.05943535640835762, -0.028773033991456032, -0.04011712223291397, -0.03623099997639656, 0.013237211853265762, 0.0005026406142860651, 0.004378797952085733, -0.028676118701696396, -0.017314523458480835, 0.008162162266671658, 0.0003735395148396492, 0.020082218572497368, 0.04404406622052193, 0.0042498051188886166, 0.06590556353330612, 0.003884458215907216, 0.07069192081689835, -0.020984385162591934, -0.015102623030543327, -0.009864140301942825, 0.012937050312757492, 0.03463643416762352, 0.0194053053855896, -0.015370768494904041, -0.05032220110297203, 0.021822258830070496, -0.0004304547910578549, 0.054955724626779556, -0.031054789200425148, -0.06625965237617493, -0.00857334304600954, 0.04503227397799492, -0.03984227776527405, -0.08361534029245377, 0.0260586217045784, -0.008404855616390705, 0.029621658846735954, -0.05062045529484749, -0.06773675978183746, 0.03438669815659523, -0.04928028956055641, -0.051115479320287704, -0.011760735884308815, 0.019877156242728233, 0.021115319803357124, 0.013133924454450607, 0.07136914134025574, 0.05214511975646019, 0.01707291044294834, 0.004913992714136839, -0.05404534563422203, -0.03888439014554024, -0.0012897643027827144, -0.03432830050587654, 0.016766827553510666, 0.03577720746397972, -0.039131585508584976, -0.06166285648941994, 0.015950055792927742, 0.03779293969273567, 0.007111759390681982, -0.04622438922524452, -0.016859807074069977, 0.03741169720888138, 0.013949657790362835, 0.022801071405410767, -0.0012989093083888292, -0.005897968076169491, -0.017718452960252762, 0.023447107523679733, -0.010869398713111877, 0.06444824486970901, 0.04357442259788513, -0.04312997683882713, -0.06229794770479202, -0.04014088585972786, -0.06773238629102707, -0.05552371218800545, -0.06983011960983276, -0.04526960104703903, -0.0612691268324852, -0.012203938327729702, -0.06510716676712036, 0.018133794888854027, 0.0038202910218387842, 0.011426422744989395, 0.014691841788589954, -0.06226762756705284, -0.011170174926519394, 0.02998247556388378, -0.02096211351454258, 0.05606428533792496, 0.016359901055693626, 0.007356411777436733, 0.055940963327884674, 0.02201377972960472, -0.07343963533639908, -0.024698903784155846, -0.014912925660610199, -0.04219268634915352, 0.024328866973519325, -0.0024777890648692846, -0.04765281826257706, -0.017149221152067184, 0.06043453514575958, 0.012433839961886406, -0.08799207955598831, -0.01923052780330181, -0.06685525178909302, -0.018351785838603973, -0.08649448305368423, -0.02199956774711609, -0.047118257731199265, 0.025337863713502884, -0.03336125612258911, -0.04973873496055603, -0.033828750252723694, -0.006021951325237751, -0.02975437045097351, -0.004293414764106274, -0.039746515452861786, 0.01116627175360918, -0.01687937043607235, -0.012952551245689392, 0.003917778842151165, 0.014194734394550323, 0.03222743049263954, 0.005317619536072016, 0.014211521483957767, -0.05428539589047432, -0.06742493063211441, 0.031831979751586914, -0.016119105741381645, -0.045054204761981964, -0.0419141948223114, 0.010368848219513893, -0.033691681921482086, -0.04311608150601387, 0.014505748637020588, 0.012969981878995895, 0.048685044050216675, 0.0695774108171463, -0.006563317496329546, 0.007116665132343769, 0.062269192188978195, 0.0028447159565985203, -0.0074267303571105, 0.003931637387722731, 0.009075582958757877, 0.01592673547565937, 0.002244046423584223, -0.02232484705746174, -0.03320534527301788, -0.04842792823910713, 0.020271511748433113, -0.027935750782489777, -0.029251260682940483, -0.06792999058961868, -0.06579278409481049, 0.0038089135196059942, -0.04203243926167488, -0.004715871065855026, -0.024413052946329117, -0.021347273141145706, -0.07673387974500656, -0.032102975994348526, -0.0387808196246624, -0.03919224813580513, -0.0198514424264431, 0.04075705632567406, 0.003837958676740527, 0.008537117391824722, -0.011209527030587196, 0.018940335139632225, 0.002820368157699704, 0.0006977011798880994, 0.036061469465494156, 0.0015494070248678327, -0.0033388505689799786, 0.0014349287375807762, 0.052681032568216324, -0.051165621727705, -0.018859367817640305, -0.04333370551466942, 0.038920167833566666, -0.04681917279958725, 0.016973935067653656, -0.06389674544334412, -0.05288362130522728, 0.01253883633762598, 0.025334225967526436, -0.04717547073960304, 0.00038776377914473414, 0.009193049743771553, -0.017872784286737442, 0.053174763917922974, 0.03890308365225792, -0.020329777151346207, -0.006002842448651791, 0.03419211506843567, -0.0031766004394739866, -0.003408192191272974, 0.03034031018614769, 0.05164007097482681, -0.012626579962670803, -0.06898706406354904, -0.09869463741779327, -0.07334213703870773, -0.05056874081492424, -0.0019696226809173822, -0.02844829484820366, -0.08640550822019577, -0.017385393381118774, -0.043385181576013565, -0.0526532381772995, -0.0973002091050148, -0.05156392231583595, 0.007288543041795492, 0.019417015835642815, -0.10771526396274567, 0.006008680444210768, 0.021969221532344818, -0.031637564301490784, 0.0030531431548297405, -0.053555846214294434, -0.032450512051582336, 0.015197070315480232, -0.04245394095778465, 0.025669477880001068, -0.0049655199982225895, 0.008459821343421936, 0.024224884808063507, 0.0364282988011837, -0.04594581574201584, 0.0017896462231874466, -0.009159959852695465, 0.0289726834744215, 0.046035174280405045, 0.0005774394376203418, 0.04226064682006836, 0.05335624888539314, 0.026241688057780266, -0.0015589701943099499, 0.026135802268981934, -0.02313998155295849, 0.028901197016239166, -0.0321468859910965, -0.016631389036774635, 0.011479835025966167, -0.06373580545186996, 0.03241352364420891, 0.06795848906040192, -0.015266886912286282, -0.029232079163193703, -0.029086170718073845, 0.07394015043973923, 0.12959283590316772, -0.027517294511198997, -0.057687051594257355, 0.006211237050592899, 0.08878772705793381, 0.07937487214803696, -0.06994212418794632, -0.018047884106636047, 0.10321933776140213, 0.03610552102327347, 0.022547230124473572, -0.021944915875792503, -0.05799441784620285, -0.009537381120026112, -0.038245294243097305, 0.013706818222999573, -0.061310283839702606, -0.07715178281068802, 0.012827888131141663, 0.028184188529849052, 0.047968193888664246, 0.002637500874698162, -0.026246821507811546, -0.04125003144145012, -0.02499491162598133, -0.08019013702869415, 0.024410855025053024, -0.01843971386551857, -0.0637098103761673, -0.058687880635261536, -0.018889885395765305, 0.011313127353787422, -0.0252249613404274, 0.010229053907096386, -0.08097007125616074, 0.025482382625341415, -0.02409333363175392, -0.027895554900169373, -0.05576526001095772, -0.024406353011727333, -0.03779291361570358, 0.009630768559873104, -0.007012373302131891, -0.049909718334674835, -0.09405037015676498, -0.040397461503744125, -0.006827448029071093, 0.04224378615617752, 0.015676576644182205, -0.012765061110258102, -0.0022049706894904375, -0.03941607102751732, 0.0145521629601717, -0.04349604994058609, -0.07651578634977341, 0.00546005554497242, -0.021064331755042076, 0.009004645980894566, 0.005374040454626083, 0.004521925002336502, 0.005970912054181099, 0.010578063316643238, -0.08688554167747498, -0.04923509806394577, -0.05920892208814621, -0.03232942894101143, -0.04615749046206474, -0.07940219342708588, -0.06935486942529678, -0.066133052110672, -0.026789506897330284, 0.029116777703166008, -0.027957141399383545, -0.10874338448047638, 0.013523002155125141, -0.03677044063806534, -0.010484459809958935, 0.02538881078362465, -0.08179891854524612, 0.06588497012853622, 0.061727188527584076, -0.010301833972334862, -0.055392857640981674, 0.03855057805776596, 0.03542351722717285, 0.04304449260234833, -0.030155370011925697, 0.027318470180034637, 0.02329091541469097, 0.05513203516602516, -0.0018151836702600121, 0.0033916346728801727, -0.03704642504453659, 0.05237346515059471, -0.06406904011964798, -0.0011121933348476887, 0.010733629576861858, 0.003308417508378625, 0.010595095343887806, -0.02148745395243168, -0.03692688047885895, 0.014885859563946724, 0.05949660390615463, 0.0016679863911122084, 0.018938608467578888, 0.038230594247579575, 0.039917707443237305, -0.04256488382816315, -0.032007839530706406, 0.04519674554467201, 0.03192664310336113, 0.03437985107302666, -0.011760770343244076, 0.07010391354560852, 0.03672057390213013, -0.008955579251050949, 0.016428040340542793, 0.04274851828813553, 0.03440587967634201, 0.016815822571516037, -0.060321856290102005, -0.05680975317955017, 0.061535172164440155, 0.024218931794166565, 0.01631283573806286, -0.06929680705070496, -0.024806605651974678, 0.017652852460741997, -0.029210980981588364, -0.015036406926810741, -0.10245665907859802, -0.031291257590055466, -0.0334947407245636, -0.020058948546648026, -0.027683261781930923, 0.0008201150340028107, -0.028200220316648483, -0.007527312263846397, -0.018174197524785995, 0.00017723013297654688, 0.010489172302186489, -0.06768222153186798, -0.030982008203864098, -0.052523694932460785, -0.07153212279081345, -0.040981415659189224, -0.00656879274174571, -0.0029341173358261585, 0.020162492990493774, -0.0592644065618515, -0.046560097485780716, -0.02945130690932274, 0.021530264988541603, -0.07341398298740387, -0.06747254729270935, -0.008266523480415344, 0.04599306732416153, -0.022132109850645065, 0.015055274590849876, -0.045167747884988785, 0.014966118149459362, 0.004683549981564283, -0.011172959581017494, 0.03689519688487053, -0.003589082043617964, 0.02240484207868576, 0.02145194634795189, -0.050474897027015686, -0.017160797491669655, -0.07001935690641403, 0.003003381658345461, 0.06093110144138336, 0.040974363684654236,
