20, 1, 5, 5, "WeightData": 0.22869858145713806, 0.011862785555422306, -0.1649399697780609, 0.00757554592564702, -0.22575180232524872, -0.15951232612133026, -0.3384770154953003, -0.3547881543636322, -0.513454258441925, -0.4161986708641052, -0.009533916600048542, -0.3625958561897278, -0.18206730484962463, -0.05948890745639801, 0.11775746196508408, -0.17606203258037567, 0.3264595568180084, 0.09859800338745117, 0.18711581826210022, 0.2924458086490631, 0.108818419277668, 0.4016030430793762, 0.4538598358631134, 0.3638207018375397, 0.14036217331886292, 0.07216531038284302, 0.3922882378101349, 0.37831759452819824, -0.1969950944185257, -0.07070636749267578, 0.18015454709529877, 0.333034873008728, 0.3605394959449768, 0.3721064627170563, 0.13737735152244568, -0.055397000163793564, 0.04022263363003731, -0.12628434598445892, 0.04562357813119888, -0.1655222475528717, -0.12545280158519745, -0.12115325778722763, -0.1643308401107788, -0.117520771920681, -0.13313837349414825, -0.005834103561937809, -0.19451133906841278, -0.13277067244052887, -0.11179836839437485, 0.06186121329665184, -0.053120244294404984, 0.2210911363363266, -0.1149107962846756, -0.050694238394498825, -0.32325997948646545, 0.1222091019153595, -0.23855191469192505, 0.0878046378493309, -0.24329300224781036, -0.35591384768486023, -0.14476311206817627, -0.17063646018505096, -0.20883417129516602, -0.0538494698703289, -0.30009475350379944, -0.07777823507785797, 0.28363579511642456, 0.30212414264678955, -0.19291004538536072, -0.032555244863033295, 0.3974446654319763, 0.330574631690979, -0.09198230504989624, 0.2168511152267456, 0.2458290010690689, -0.11680768430233002, -0.02862612158060074, 0.17356757819652557, -0.10743953287601471, -0.34153279662132263, -0.03349195420742035, 0.26377251744270325, 0.017192702740430832, -0.05476509779691696, -0.3345244526863098, -0.163585364818573, -0.16195935010910034, 0.23082026839256287, 0.3586939573287964, 0.30220821499824524, -0.21751649677753448, -0.03453107923269272, -0.1072968989610672, 0.4202302098274231, 0.403043657541275, -0.11143072694540024, 0.1802154928445816, 0.0571242980659008, 0.11227306723594666, -0.17301815748214722, -0.20467279851436615, -0.25876036286354065, -0.4564080238342285, -0.3357531428337097, -0.11477679759263992, 0.08088313043117523, -0.16276519000530243, -0.26463648676872253, -0.2568860650062561, -0.22418779134750366, 0.1915530115365982, 0.4868305027484894, 0.45040661096572876, 0.4087967574596405, -0.04368545114994049, 0.23516328632831573, 0.3265489637851715, 0.3450414836406708, 0.16114450991153717, -0.0540936216711998, -0.17621655762195587, -0.33537131547927856, -0.2681775689125061, 0.015592486597597599, 0.11339370161294937, 0.06281616538763046, 0.16341648995876312, -0.008348284289240837, 0.12010790407657623, -0.006570981815457344, -0.012566028162837029, 0.17467647790908813, -0.11866370588541031, -0.1256324201822281, -0.056336794048547745, 0.045681267976760864, 0.1139412522315979, -0.3107832968235016, -0.2715560793876648, -0.012696326710283756, 0.009276090189814568, -0.001972364727407694, -0.3283102512359619, 0.0978870764374733, 0.26439157128334045, 0.06146266311407089, -0.004984231665730476, -0.2566940188407898, 0.0012460831785574555, -0.06693840026855469, -0.2928962707519531, 0.1700027585029602, 0.2527084946632385, 0.30984678864479065, 0.291486531496048, -0.1430380642414093, 0.03242683410644531, 0.43555471301078796, 0.240857794880867, -0.21714290976524353, -0.04279566928744316, 0.42841511964797974, 0.5070578455924988, 0.19087335467338562, -0.11847463995218277, 0.09057527035474777, 0.4724780321121216, 0.27784857153892517, -0.17706045508384705, -0.25816109776496887, 0.14558440446853638, 0.1463574320077896, -0.065119169652462, -0.265339195728302, -0.05615426227450371, 0.009266630746424198, -0.2326432317495346, -0.3127688467502594, -0.07482321560382843, -0.3390105366706848, -0.15269915759563446, 0.13240079581737518, -0.21620197594165802, -0.06813684105873108, -0.09235744178295135, 0.2584243416786194, 0.05155351012945175, 0.2355758547782898, -0.1671949028968811, 0.19255802035331726, 0.14857761561870575, 0.10502975434064865, 0.03394452482461929, -0.06762462109327316, -0.09915655851364136, -0.22051462531089783, -0.08399557322263718, 0.1623254269361496, 0.3714796006679535, 0.11906473338603973, 0.165981262922287, 0.01608457788825035, 0.059463050216436386, -0.20398467779159546, 0.1458190530538559, 0.23678754270076752, -0.17386634647846222, -0.2271001935005188, -0.27253276109695435, 0.10621190071105957, 0.3250753581523895, 0.07250042259693146, 0.0805511400103569, 0.18210139870643616, 0.10413320362567902, 0.3379000425338745, 0.3055470585823059, 0.33230558037757874, 0.31595754623413086, 0.2502436339855194, 0.12851548194885254, -0.18459410965442657, -0.22500915825366974, 0.12828406691551208, 0.08017414063215256, 0.048704974353313446, -0.024152791127562523, 0.11089606583118439, 0.34435489773750305, 0.19524136185646057, 0.3796805739402771, 0.48222747445106506, 0.37060555815696716, 0.07496961951255798, 0.18464702367782593, 0.27130788564682007, 0.2963895797729492, 0.22099840641021729, 0.25015345215797424, 0.416178822517395, -0.37329885363578796, -0.11667829751968384, -0.18930324912071228, 0.06286319345235825, -0.18795040249824524, -0.29769468307495117, -0.3388773202896118, -0.4335930049419403, -0.42704126238822937, -0.36383581161499023, -0.21472834050655365, 0.3331165015697479, 0.13301025331020355, 0.007578693330287933, 0.01506032794713974, 0.22259706258773804, 0.014429647475481033, -0.07150845229625702, -0.15981069207191467, -0.06461235135793686, 0.14149701595306396, 0.158119335770607, -0.3392663300037384, -0.09606549888849258, -0.3295205533504486, 0.047835689038038254, -0.3355034589767456, -0.07609551399946213, -0.0650043785572052, -0.14872582256793976, -0.2992549538612366, -0.397543728351593, -0.2295420616865158, -0.021204743534326553, 0.2838585078716278, -0.1190950870513916, -0.09229401499032974, 0.11597003042697906, -0.11375541985034943, -0.12070433795452118, 0.043594323098659515, -0.08643998950719833, 0.15482456982135773, 0.13156788051128387, 0.26962971687316895, 0.11728139966726303, 0.2402459681034088, 0.13077183067798615, 0.40884727239608765, 0.3842647671699524, -0.06325098127126694, -0.08858373016119003, 0.14178092777729034, 0.35706794261932373, 0.35768720507621765, -0.39805594086647034, -0.32813140749931335, -0.22516833245754242, 0.3250671327114105, 0.19479569792747498, -0.13038797676563263, 0.07431085407733917, -0.03799904137849808, -0.0611380860209465, -0.04981612041592598, -0.1684207320213318, 0.12772320210933685, -0.24752728641033173, -0.30429863929748535, -0.31093326210975647, 0.3035375773906708, -0.010043873451650143, -0.15086929500102997, -0.3765363395214081, -0.37458378076553345, 0.2321193516254425, -0.100276418030262, -0.018191851675510406, -0.3913794457912445, -0.2911399304866791, 0.3441274166107178, 0.0012976753059774637, -0.14154790341854095, -0.30391886830329895, -0.016105450689792633, 0.03444335237145424, 0.0845009982585907, -0.19837044179439545, -0.3341536819934845, -0.23141653835773468, 0.28064924478530884, 0.29031047224998474, -0.2986043691635132, -0.27534544467926025, -0.18437917530536652, 0.29239171743392944, 0.26413920521736145, 0.14048296213150024, -0.28064650297164917, -0.3304598927497864, 0.10629123449325562, -0.1722571849822998, -0.11294513940811157, 0.11638611555099487, 0.004244118928909302, 0.3192569315433502, -0.17531202733516693, -0.24536359310150146, -0.27813130617141724, -0.04891233518719673, -0.1130286306142807, 0.0664350837469101, 0.21596327424049377, 0.10347761958837509, 0.3057211935520172, -0.13998296856880188, -0.048700783401727676, 0.27851879596710205, -0.2061983048915863, -0.014103313907980919, 0.039502475410699844, -0.04068266227841377, 0.07766818255186081, -0.24594460427761078, -0.36086365580558777, 0.025995826348662376, -0.11980991810560226, -0.3583740293979645, -0.2950044572353363, -0.2060278207063675, 0.16000448167324066, 0.13100823760032654, 0.057240210473537445, -0.3143097162246704, -0.17348851263523102, 0.23314976692199707, -0.1656091958284378, 0.12068158388137817, 0.19493447244167328, 0.026012953370809555, 0.23113733530044556, -0.23567818105220795, -0.27024394273757935, -0.1517125815153122, -0.1592833399772644, 0.030975496396422386, 0.05091872066259384, -0.02948339469730854, 0.003133480902761221, 0.06706327944993973, 0.06826721876859665, -0.03550814464688301, 0.31060677766799927, 0.21593160927295685, -0.19806887209415436, 0.3228611946105957, 0.05824218690395355, -0.11452025175094604, 0.2538767457008362, 0.32580286264419556, 0.2243354618549347, -0.10834749788045883, -0.07017839699983597, -0.08133337646722794, 0.2263670265674591, -0.1915730983018875, 0.14608530700206757, 0.2423582673072815, 0.037298671901226044, 0.1985013484954834, 0.05743714049458504, 0.4460803270339966, 0.2707963287830353, 0.04233652353286743, -0.05668991059064865, 0.05878522992134094, 0.25106561183929443, 0.2928311824798584, 0.05386445298790932, -0.2712665796279907, -0.15024109184741974, 0.30829355120658875, 0.13990125060081482, -0.11712880432605743, 0.12144968658685684, 0.24072694778442383, 0.16448870301246643, 0.36049187183380127, 0.3580603301525116, -0.03909076750278473, -0.27052244544029236, -0.03876994922757149, 0.3987182080745697, 0.4873533546924591, 0.25262290239334106, -0.17866946756839752, -0.2131602019071579, -0.18625526130199432, 0.003624614328145981, 0.32523390650749207, -0.13591940701007843, -0.24342727661132812, -0.4157852530479431, 0.10719510912895203, 0.1302398294210434, -0.15357457101345062, -0.4113791882991791, -0.1572464406490326, -0.0466134175658226, 0.2795131206512451, 0.05602921545505524, 0.12790220975875854, 0.20645031332969666,
 0.12800325453281403, 0.29104262590408325, 0.24598442018032074, 0.07560374587774277, -0.06909102201461792, -0.25124111771583557, -0.0324687622487545, 0.3223571181297302, 0.2163505256175995, -0.27107715606689453, -0.15110118687152863, -0.008721175603568554, 0.07620907574892044, 0.15427522361278534, -0.30263590812683105, -0.35340094566345215, -0.0065150512382388115, -0.17108821868896484, 0.2699228823184967, 0.1756696105003357, -0.19097964465618134, -0.2950141727924347, -0.13176722824573517, -0.2055666148662567, 0.20908480882644653, 0.3932777941226959, 0.03481075167655945, -0.3097233474254608, -0.07692312449216843, 0.1736748069524765, 0.1487264484167099, 0.295568585395813, -0.3013682961463928, -0.14531587064266205, 0.4513152241706848, 0.21800224483013153, -0.0805986225605011, -0.16015809774398804, 0.2807672619819641, 0.27298057079315186, 0.3094564974308014, -0.18207025527954102, 0.24682123959064484, 0.14725111424922943, 0.161307230591774, -0.18850590288639069, -0.2091345191001892, 
