500, "BiasData": 0.006483323872089386, 0.014639833010733128, 0.0017767969984561205, 0.00373008637689054, -0.008168994449079037, -0.00433082552626729, -0.0021167348604649305, 0.005674734245985746, -0.0007703006267547607, 0.00626765051856637, 0.004683950450271368, 0.001171375042758882, -0.0015806880546733737, -0.0032316697761416435, -0.0100852120667696, 0.004587667062878609, -0.0004200157127343118, -0.003114430932328105, 0.007956748828291893, -0.0008149784989655018, 0.005135529674589634, -0.001794638461433351, -0.00017664786719251424, -0.007500683423131704, -0.004158263560384512, 0.0036111108493059874, 0.006161604076623917, 0.00046838136040605605, 3.5499320802045986e-05, -0.003354370128363371, 0.005719863343983889, -0.0023138197138905525, 0.00022234689095057547, 0.00020825948740821332, 0.003217966528609395, -0.002474942011758685, -0.002965377178043127, -0.0019792267121374607, 0.008818509057164192, -0.011144599877297878, 0.002938035875558853, 0.0020464444532990456, -0.0042001716792583466, -0.0026059597730636597, 0.0009316714713349938, 0.00023286478244699538, -0.004115134943276644, 0.004788454622030258, 0.0006295901839621365, -0.0022142347879707813, 0.0018252624431625009, -0.004394465126097202, 0.00595782371237874, -0.0007835254073143005, -0.0006929646478965878, 0.0017609463538974524, -0.005017706658691168, -0.0009701144881546497, -0.008327933959662914, 0.002620919141918421, -0.002808189718052745, -0.0011631291126832366, -0.0062855943106114864, -0.0037229973822832108, 0.005247720051556826, 0.0006021911976858974, 4.756973794428632e-05, -0.0008616014383733273, 0.004698979202657938, -0.0013582956744357944, -0.001259296084754169, -0.005304360296577215, 0.0004950014408677816, -0.0014247199287638068, -0.0012610184494405985,
 0.00266837514936924, -0.001584735931828618, -0.009649411775171757, 0.0009109266102313995, 0.0077048782259225845, -0.00024742819368839264, 0.008159500546753407, 0.007359789218753576, 0.0015041431179270148, -0.0014412361197173595, 0.0022398456931114197, 0.005818720441311598, -0.0038807839155197144, -0.005463644862174988, 0.004024387802928686, -0.0030762285459786654, -0.0011552067007869482, 0.001763856620527804, -0.0007143886177800596, -0.0028186782728880644, -0.004897459875792265, 0.00745321623980999, -0.005003941245377064, -0.008341859094798565, -0.00021566248324234039, -0.0011004197876900434, -0.0022503924556076527, 0.004027256742119789, -0.008656186051666737, -0.01653633825480938, 0.00016430583491455764, -0.004070931114256382, -0.0010682780994102359, -0.004471262916922569, -0.008190794847905636, 0.0018031505169346929, 0.0035077983047813177, 0.0002652170951478183, -0.0008074021898210049, -0.0003045063931494951, -0.0009395485976710916, -0.010773495770990849, 0.0039946394972503185, -0.005432616453617811, -0.00436466233804822, -0.00132771919015795, -0.011681671254336834, 0.008930555544793606, 0.0014317126478999853, -0.0024680113419890404, -0.00043618486961349845, 5.9120382502442226e-05, -0.002382870763540268, 0.004710915498435497, -0.00452790129929781, -0.0008546821190975606, 0.0010392399271950126, 0.0003049381193704903, 0.0022567128762602806, -0.006441175937652588, -0.001888998318463564, 0.0005822449456900358, 0.0005865704733878374, 0.005055428948253393, 0.007183433510363102, -0.006405063904821873, -0.003718896070495248, -0.002880832413211465, -0.001995138358324766, -0.0016170409508049488, 6.94199261488393e-05, 0.0025288809556514025, -8.248584344983101e-05, 0.00131146889179945, -0.006615596357733011, -0.001756498240865767, -0.0028911540284752846, -0.006857427302747965, -0.008128571324050426, -0.006001971196383238, 0.0016967986011877656, 0.005369242746382952, -0.001013203989714384, -0.004621531814336777, -0.0014928702730685472, -0.004617773927748203, 0.009422412142157555, 0.0012980414321646094, 0.004747570492327213, -0.008458055555820465, 0.006464520003646612, 0.0009453746606595814, 0.010590723715722561, -0.0009276420460082591, -0.002494491171091795, -0.008316503837704659, 0.009141414426267147, -0.0007026469684205949, -0.004172503016889095, 0.00393013097345829, 0.0035770367830991745, -0.007793925236910582, 0.0011144201271235943, 0.0002229600795544684, 0.00468297628685832, -0.007305725943297148, 0.003900398500263691, -0.0027903025038540363, -0.001615355140529573, -0.003676600754261017, -0.0007995815831236541, -0.0021837810054421425, -0.0015238402411341667, 0.002275048056617379, 0.003656337270513177, -0.0031543252989649773, -0.004037972539663315, -0.0022994086612015963, 0.01503288745880127, 0.012847433798015118, 0.0031293323263525963, -0.002580402884632349, -0.0003436322440393269, -0.0032201276626437902, -0.00431452039629221, 0.007858260534703732, -0.001779666286893189, -0.0028067310340702534, -0.006144845858216286, -0.004242808558046818, -0.0005753422738052905, -0.00782714318484068, -0.0009008595952764153, 0.00484422966837883, 0.002985149621963501, 0.0040512108244001865, 0.004069325979799032, 0.0006794068613089621, 0.004728869069367647, 0.0005583280581049621, -0.003544725477695465, -0.007363739889115095, 0.0038828097749501467, 0.0026388175319880247, -0.005481556989252567, 0.00802603643387556, 0.004927799571305513, -0.005734880920499563, 0.005511632189154625, 0.014209370128810406, -0.010490224696695805, -0.0022430685348808765, 0.007416467647999525, -0.00332858064211905, 0.0022479144390672445, 0.005645803641527891, 0.006539700552821159, 0.003154862904921174, -0.00787594448775053, 0.0021356013603508472, -0.002366775181144476, 0.0009014128008857369, -0.004480328410863876, 0.000658780278172344, 0.001638616668060422, 0.01219983957707882, 0.007088858168572187, -0.0014775124145671725, -0.0028010935056954622, 0.0037515072617679834, -0.005522920750081539, -0.005420142784714699, -0.0006603896035812795, 0.010619653388857841, 0.006032176781445742, -0.0018950185040012002, 0.002308120019733906, 0.0004416946030687541, -0.0015942887403070927, 0.0029485090635716915, -0.0015527824871242046, 0.0009433628292754292, -0.0046105519868433475, -0.002870459808036685, -0.003285020589828491, 0.0052553340792655945, -0.0022343916352838278, 0.000893235148396343, -0.0017076849471777678, 0.0005992008373141289, 0.002657395787537098, -0.004542235750705004, 0.006446735002100468, -0.015225195325911045, -0.0006850294885225594, -0.013741740956902504, 0.0063593341037631035, -0.00039252315764315426, -0.004537119064480066, 0.0012185923987999558, 0.0030022459104657173, 0.007258291821926832, -0.004175418987870216, -0.004206656012684107, -0.004596678074449301, 0.006546772550791502, 0.0025056859012693167, -0.0032024369575083256, -0.002687467262148857, -0.0018585716607049108, -0.0095815509557724, -0.000372430746210739, 0.006562080234289169, -0.0060291048139333725, 0.0033742529340088367, 0.005839737132191658, -0.004006948322057724, -0.0023017614148557186, -0.0001812547561712563, 9.711877646623179e-05, 0.0010865459917113185, 0.004105914384126663, -0.0015396936796605587, 0.011715266853570938, -0.0014274088898673654, -0.005238519515842199, 0.0016235840739682317, -0.005118316039443016, -0.001976931234821677, -0.0037978822365403175, -0.009459107182919979, 0.008604525588452816, -0.00717118801549077, 0.00138740090187639, -0.00890179630368948, 0.0060714296996593475, -0.005529609974473715, -0.0037302267737686634, 0.0009055962436832488, 0.007282679900527, 0.0030116376001387835, 0.0037875566631555557, -0.0019335723482072353, 0.001513170194812119, 0.002508333185687661, 0.002092869719490409, 0.005516288336366415, 0.0026268030051141977, 0.0038933567702770233, -7.062041549943388e-05, -0.0008670675451867282, 0.015436291694641113, 0.004878396634012461, 0.011984230950474739, 0.002506835851818323, 0.0036127474159002304, -0.002438458614051342, 0.009661475196480751, 0.0008626104681752622, 0.0012911008670926094, 0.0005987572367303073, -0.005423056893050671, -0.004553339444100857, -0.004076748620718718, -0.002887319540604949, -0.004534721840173006, 3.078303961956408e-06, -0.003831680165603757, -0.0030106743797659874, -0.0006707199499942362, 0.004623019602149725, 0.00576042290776968, 0.0014166503679007292, -0.012686118483543396, -0.0014333752915263176, 0.003276682225987315, -0.007899554446339607, 0.0024238000623881817, 0.015564246103167534, 0.0037362698931246996, -0.004850799683481455, 0.004165524151176214, 0.00485897297039628, -0.00406733388081193, -0.0016803148901090026, 0.005808792542666197, 0.0011089305626228452, -7.65692675486207e-05, 0.001253220485523343, -0.014609022065997124, -0.005974861793220043, -0.0021623210050165653, -0.0006534528220072389, -0.0022461211774498224, 0.0014597837580367923, 0.0006684961263090372, -0.005996734835207462, -0.0016247237799689174, 0.002034765901044011, 0.008697597309947014, -0.0028601496014744043, -0.0007241321145556867, 0.0012859507696703076, -0.005626272410154343, 0.00030917508411221206, 0.007453258614987135, 0.006441450212150812, 0.0014658602885901928, -0.0031661423854529858, -0.000911853916477412, 0.003891261760145426, 0.0020745955407619476, -0.0006774626090191305, -0.0031407990027219057, -0.0030151153914630413, -0.0008292888524010777, 0.0013287175679579377, 0.0020672804675996304, -0.004770767409354448, -0.0017523682909086347, 0.0020380017813295126, 0.004343739710748196, 0.00294307223521173, -0.0018814416835084558, -0.006784114520996809, 0.0018612233689054847, 0.0005074248183518648, 0.006621188018471003, -0.003227438312023878, -0.0033084156457334757, -0.0039955079555511475, -0.004094976931810379, -0.003595605492591858, -0.003200327977538109, 0.0003144793154206127, -0.004378107376396656, -0.004329420626163483, -0.003525316948071122, 0.00016975046310108155, -0.004849787801504135, -0.0033513479866087437, 0.00732869328930974, -0.005913337226957083, -0.012052914127707481, 0.008122761733829975, 0.002007697708904743, 0.0026396948378533125, -0.000318676553433761, 0.006785611156374216, 0.0015135736903175712, 0.0033105029724538326, 0.005024994723498821, 0.014790254645049572, 0.0035274738911539316, 0.0036882467102259398, -0.0012399001279845834, 0.0008990206988528371, 0.002816744614392519, -0.006368798669427633, -0.0004035007150378078, 0.006685110740363598, 0.0018794387578964233, -0.0021718270145356655, 0.0068512363359332085, 0.0017296774312853813, 0.003389691933989525, -0.004249310586601496, 0.0012202748330309987, -0.0009728328441269696, 0.0009222783264704049, 0.011048715561628342, -0.0021755120251327753, 0.0015750395832583308, 0.0015331341419368982, 0.0006629269337281585, 0.0008203998440876603, -0.0037286891601979733, 0.0037448902148753405, 0.006835645530372858, 0.00023547025921288878, 0.0016303787706419826, 0.009779599495232105, -0.000554804690182209, 0.0067330957390367985, 0.01432117260992527, 0.0038094227202236652, -0.0022410282399505377, 0.005164165049791336, -0.004866171162575483, 0.0035345484502613544, 0.008760216645896435, 0.0003730659664142877, -0.003403846872970462, 0.0019548397976905107, 0.0025739658158272505, -0.0012339232489466667, -0.0034301995765417814, 0.00023247735225595534, 0.008427469991147518, -0.0004880120395682752, -0.000933183531742543, -0.003374396823346615, 0.011083599179983139, 0.004329572897404432, -0.00211150711402297, -0.006017378997057676, -0.0011851348681375384, -0.007259939797222614, -0.0026551412884145975, 0.007709816563874483, -0.00812416709959507, 0.006731676869094372, -0.003561832010746002, 0.005214856471866369, -0.00393923744559288, 0.0008450926397927105, 0.0005991475190967321, 0.011945398524403572, 4.582153633236885e-05, -0.0027445608284324408, -0.001464011613279581, -0.002948230132460594, -0.005009401123970747, -7.360056042671204e-05, -0.007146791089326143, 
