10, 500, "WeightData": 0.15065999329090118, 0.05220133066177368, 0.04310743138194084, 0.01007694099098444, 0.1118103414773941, -0.05683179199695587, 0.03790333494544029,
 -0.12719221413135529, -0.014606564305722713, -0.011867040768265724, -0.10044194012880325, 0.006289882119745016, -0.07970382273197174, -0.04311775043606758, 0.05822858214378357, 0.04164714366197586, -0.003626328194513917, -0.08792592585086823, -0.09058953821659088, -0.07056139409542084, -0.045686427503824234, -0.08103232085704803, -0.057934150099754333, -0.09631357342004776, 0.03477447107434273, -0.04518008604645729, 0.04998449236154556, 0.04544530436396599, -0.03162912279367447, 0.13878223299980164, -0.07325223088264465, -0.04665224999189377, 0.1158403679728508, 0.13160136342048645, 0.026931123808026314, 0.11824541538953781, -0.09905770421028137, 0.0009453170350752771, -0.0469050332903862, -0.09983387589454651, -0.0638846829533577, -0.025162041187286377, 0.08885422348976135, 0.11621730774641037, -0.058049317449331284, -0.015428442507982254, -0.0727255716919899, 0.07937952131032944, 0.09578821808099747, -0.009518586099147797, 0.046016767621040344, 0.009444291703402996, -0.06391050666570663, 0.005757721606642008, -0.06852714717388153, -0.04232189804315567, -0.07291540503501892, -0.02839813381433487, 0.08861929923295975, -0.05624235048890114, 0.027279140427708626, -0.06632710993289948, 0.04360998421907425, 0.04063308611512184, 0.02457502670586109, 0.04355732351541519, 0.04834871366620064, -0.03985080122947693, -0.007868895307183266, -0.024214651435613632, 0.05485176667571068, 0.0325058288872242, 0.047230314463377, -0.006554217077791691, 0.05611084774136543, -0.08283869922161102, -0.042179010808467865, -0.001477202633395791, 0.024429697543382645, 0.06642506271600723, 0.00523518119007349, -0.004473107401281595, 0.08876894414424896, 0.029547423124313354, -0.04125262051820755, -0.0179805438965559, 0.004008678253740072, 0.008551185950636864, 0.016714654862880707, 0.015867633745074272, -0.037626512348651886, 0.0006091666873544455, -0.0647745355963707, -0.01352932583540678, 0.0596139132976532, -0.04904405027627945, 0.06798459589481354, 0.005182468332350254, -0.07158797234296799, 0.006754445843398571, 0.04163416847586632, 0.0023771461565047503, 0.04456382617354393, -0.012342223897576332, 0.07036975026130676, 0.031421978026628494, 0.008358806371688843, 0.08632592856884003, -0.03199947252869606, -0.07066410034894943, 0.06663989275693893, -0.04268007352948189, 0.03114316239953041, 0.03474471718072891, -0.012079697102308273, 0.14500154554843903, 0.061460018157958984, 0.01244588103145361, 0.052168454974889755, -0.060338787734508514, 0.046221014112234116, -0.044645268470048904, -0.04003860801458359, 0.013600237667560577, -0.011257107369601727, -0.006734766997396946, 0.13683006167411804, -0.05301397293806076, 0.011490744538605213, 0.014570064842700958, 0.027919204905629158, -0.06904274970293045, -0.11261121928691864, 0.036915965378284454, 0.08537264913320541, 0.05026381090283394, -0.028295166790485382, -0.006273978855460882, -0.0024295500479638577, -0.06637881696224213, -0.03300214558839798, 0.027715163305401802, 0.014337468892335892, -0.09102105349302292, -0.14054352045059204, 0.14591968059539795, -0.0651015117764473, -0.029419155791401863, -0.02658657729625702, 0.10547270625829697, 0.04622236639261246, -0.05076805502176285, 0.006381189450621605, -0.008571595884859562, -0.008107800967991352, -0.0754302367568016, 0.019003339111804962, 0.041010670363903046, -0.12044194340705872, 0.04182692989706993, -0.02939537912607193, 0.012993736192584038, -0.08169621229171753, -0.03644599765539169, 0.055212557315826416, 0.03239027410745621, 0.04813643544912338, 0.04017242044210434, -0.050444960594177246, 0.02624374069273472, 0.05667012184858322, -0.10065873712301254, 0.09897953271865845, -0.0134209543466568, 0.15692678093910217, 0.006342623848468065, 0.015197798609733582, -0.006584647577255964, 0.05351275950670242, -0.004137679003179073, -0.016975650563836098, -0.01584022492170334, 0.052416715770959854, -0.004019264597445726, 0.026214729994535446, -0.04481170326471329, 0.04910903424024582, -0.049318671226501465, 0.009925127029418945, 0.03859908506274223, 0.005244352389127016, 0.07458595186471939, -0.024591343477368355, 0.1229250505566597, -0.09903097152709961, -0.023870471864938736, -0.04346654564142227, -0.030018484219908714, -0.015822404995560646, 0.0022779363207519054, -0.08946895599365234, 0.008419492281973362, 0.03321567177772522, -0.009959028102457523, 0.008675344288349152, -0.04003285989165306, -0.007300879340618849, -0.05920588597655296, 0.027339857071638107, -0.008913923986256123, -0.0580911785364151, -0.013565931469202042, -0.01169902179390192, 0.1539885401725769, 0.01739485375583172, 0.02162330411374569, 0.12402086704969406, -0.0549958273768425, -0.041342850774526596, -0.012628262862563133, 0.025751395151019096, -0.01131674088537693, 0.01426913682371378, 0.10340814292430878, -0.07453702390193939, 0.09784474223852158, -0.01767769455909729, -0.04250866174697876, -0.1301582306623459, 0.00955892913043499, -0.10846773535013199, 0.11207973957061768, 0.024791324511170387, -0.0604720339179039, 0.05328468605875969, -0.007755031809210777, 0.04788380488753319, -0.05789969861507416, -0.004380672704428434, -0.05942198634147644, -0.09023068845272064, -0.07942262291908264, -0.10227562487125397, 0.05136517435312271, -0.05525992810726166, 0.050399601459503174, 0.0568392276763916, 0.0605175644159317, 0.04092012345790863, -0.06134546175599098, -0.02342918887734413, 0.08244863897562027, -0.00861648190766573, -0.0203335490077734, 0.021177371963858604, 0.04035979136824608, -0.06938812136650085, -0.02582690306007862, -0.01688552461564541, 0.002446562284603715, 0.07470141351222992, -0.020445633679628372, -0.014680988155305386, 0.05119924247264862, -0.025072133168578148, 0.050729263573884964, -0.0321972519159317, 0.021211963146924973, -0.11375410109758377, -0.09866674244403839, 0.014135914854705334, 0.05250430852174759, -0.046703483909368515, -0.04088081791996956, 0.11184298247098923, 0.019625946879386902, 0.06612805277109146, 0.0710129365324974, 0.015052461065351963, -0.04903813824057579, -0.06425260007381439, -0.06488703191280365, 0.019493814557790756, -0.03864186257123947, -0.0019205118296667933, 0.025375448167324066, 0.04494139179587364, -0.10626373440027237, -0.07055416703224182, 0.09509401023387909, 0.03088369034230709, 0.030978161841630936, -0.0029515407513827085, 0.03484245389699936, -0.03049914538860321, -0.030404098331928253, 0.019335376098752022, 0.043438173830509186, -0.11683579534292221, 0.02947448007762432, -0.07164690643548965, 0.0363638810813427, -0.010933500714600086, -0.06563488394021988, 0.02218642085790634, 0.08443466573953629, 0.00818757712841034, 0.08518727868795395, -0.028395233675837517, -0.07153485715389252, -0.07332106679677963, -0.05252975597977638, 0.01844075135886669, 0.012128956615924835, -0.13678817451000214, -0.06462232768535614, 0.09072969853878021, 0.021059473976492882, -0.02781340852379799, -0.1032380610704422, 0.031141093000769615, 0.12149113416671753, -0.13067291676998138, -0.0857979953289032, 0.006627673748880625, 0.010828468948602676, 0.025133751332759857, -0.06828030198812485, 0.10349488258361816, -0.012317334301769733, -0.1388988494873047, 0.018105722963809967, -0.039622653275728226, -0.08238456398248672, -0.020034557208418846, -0.04202555492520332, -0.009951463900506496, 0.058926843106746674, -0.05864018574357033, 0.056681543588638306, 0.004974658135324717, 0.03373602405190468, 0.09854887425899506, 0.05706261470913887, -0.0684923306107521, -0.05675423517823219, 0.14878545701503754, 0.026114873588085175, -0.06676952540874481, 0.0007319976575672626, 0.06206546351313591, 0.01944747567176819, 0.01643425226211548, 0.04439222440123558, 0.13371257483959198, -0.04092894867062569, 0.1497700959444046, 0.09964354336261749, -0.026995200663805008, -0.022872189059853554, 0.03450966253876686, 0.07230476289987564, -0.0015305749839171767, -0.015353895723819733, -0.03237788379192352, -0.04273506626486778, 0.06012263894081116, 0.010331640020012856, 0.07690990716218948, -0.014727182686328888, -0.13000066578388214, -0.004191461019217968, -0.05268362909555435, 0.03979436680674553, 0.08858763426542282, 0.06467914581298828, 0.05938258394598961, -0.01669972576200962, -0.04900569096207619, -0.07590721547603607, 0.11564537137746811, -0.06366050243377686, -0.05081520602107048, -0.06434309482574463, 0.020474309101700783, 0.012359502725303173, -0.004768716171383858, 0.036229703575372696, -0.023802394047379494, -0.011267073452472687, 0.11300525069236755, 0.06764623522758484, 0.03805430978536606, -0.025701183825731277, 0.014779563993215561, 0.0103479428216815, 0.019311070442199707, -0.0842556580901146, 0.048692043870687485, -0.058541055768728256, 0.006562687456607819, -0.058182716369628906, -0.0013740716967731714, -0.08212211728096008, -0.01061393041163683, -0.11277850717306137, -0.009801897220313549, -0.03162107616662979, -0.07550160586833954, -0.0428398996591568, 0.10601308196783066, -0.006687460001558065, 0.0345335528254509, -0.008558472618460655, -0.06844381242990494, -0.03307505324482918, 0.10668861120939255, -0.020712953060865402, -0.03630267456173897, 0.020701613277196884, 0.07696087658405304, 0.0001158127051894553, 0.010030880570411682, -0.11853677034378052, -0.07327218353748322, 0.05715969204902649, -0.01769067533314228, -0.0820002481341362, 0.0032576804514974356, -0.05721685662865639, 0.05420927330851555, 0.07096533477306366, 0.08380770683288574, 0.08967021107673645, 0.014548420906066895, -0.014926347881555557, 0.1444425880908966, -0.030697442591190338, -0.09263264387845993, -0.0011750198900699615, -0.05709230154752731, 0.09448866546154022, 0.01833300292491913, 0.13443922996520996, -0.12176349014043808, -0.001954335020855069, -0.015925901010632515, -0.11337967962026596, 0.09716565907001495, -0.017156926915049553, -0.0421651266515255, -0.10011070966720581, -0.07264065742492676, 0.05593588948249817, 0.025587212294340134, 0.02066814713180065, -0.05442151427268982, -0.01537301205098629, 0.039132259786129, -0.05708475410938263, -0.0526440255343914,
 -0.050728458911180496, 0.007208697497844696, -0.01106137502938509, 0.01351681724190712, -0.004429140593856573, -0.013351292349398136, 0.08227887004613876, 0.059206150472164154, -0.08682683855295181, 0.029519161209464073, 0.018219098448753357, -0.03753717616200447, -0.037848297506570816, 0.031546700745821, -0.028255697339773178, -0.0245201513171196, -0.1313011646270752, -0.15328796207904816, -0.05903254821896553, 0.04661630839109421, 0.01611660234630108, -0.10348600894212723, 0.03702004626393318, -0.11316253989934921, -0.105642169713974, 0.05612457916140556, 0.031861964613199234, -0.04791576415300369, -0.03732240945100784, -0.027293292805552483, 0.010715359821915627, 0.05246493220329285, 0.047500137239694595, 0.05580959469079971, 0.04187612235546112, 0.043577831238508224, -0.06698435544967651, -0.049378711730241776, -0.08533322066068649, 0.00999311450868845, 0.058665502816438675, 0.0034702555276453495, 0.07892236113548279, 0.024571966379880905, 0.03946545720100403, -0.0036599200684577227, 0.0013905186206102371, 0.08628477901220322, 0.019015787169337273, 0.014869208447635174, 0.011750812642276287, -0.0003467559872660786, 0.05260273069143295, 0.0005031495820730925, 0.015283321030437946, 0.03369460999965668, 0.11580782383680344, -0.07175987213850021, 0.03977407142519951, 0.004689786583185196, 0.0018050892977043986, 0.14210918545722961, -0.0631706491112709, 0.013284770771861076, -0.05770513042807579, -0.00023897185747046024, 0.048529624938964844, -0.022432560101151466, -0.011988112702965736, -0.02006356231868267, -0.02665812335908413, 0.001071284175850451, -0.0540250688791275, -0.03443695604801178, -0.08996865153312683, 0.0645059272646904, 0.05372251197695732, -0.011174659244716167, -0.07677826285362244, 0.08071862161159515, 0.038768939673900604, -0.07963059097528458, -0.03154522553086281, -0.05030549317598343, 0.016659658402204514, 0.0628930926322937, 0.05995834618806839, -0.0018916783155873418, -0.16334016621112823, -0.05199279636144638, -0.031017040833830833, -0.0006939223385415971, -0.024160251021385193, 0.09400735050439835, 0.16683363914489746, -0.09321419149637222, -0.03641766309738159, -0.06540248543024063, 0.08180581033229828, -0.007310010027140379, -0.013158762827515602, -0.035145118832588196, -0.06254854798316956, 0.010786321945488453, -0.03549440577626228, -0.08122182637453079, -0.037093713879585266, 0.05575210228562355, -0.013173944316804409, -0.0006172755383886397, -0.059094078838825226, 0.007635831367224455, 0.05541972815990448, 0.029830818995833397, 0.13216255605220795, -0.04263150319457054, -0.017651211470365524, -0.05865585058927536, -0.05812466889619827, 0.07751744240522385, -0.14411389827728271, -0.014979436062276363, 0.04160372167825699, 0.07255774736404419, -0.030426286160945892, -0.010229875333607197, 0.05790673941373825, 0.03377824276685715, 0.0730048194527626, 0.0003508965019136667, 0.030277131125330925, 0.07881858199834824, 0.04201001673936844, 0.04601125419139862, -0.012640595436096191, -0.013322652317583561, -0.04581599310040474, -0.02594396285712719, 0.055082228034734726, -0.15969902276992798, -0.06910692155361176, 0.03110182099044323, -0.03416530787944794, -0.08438646048307419, 0.11269213259220123, -0.025651413947343826, 0.010325416922569275, -0.0018975629936903715, 0.015880735591053963, 0.03955325856804848, -0.05188283324241638, -0.004293008707463741, 0.013212796300649643, -0.08217819035053253, -0.045320063829422, -0.03385280817747116, -0.05510948970913887, -0.01614854298532009, -0.0518326535820961, -0.0364559143781662, -0.06503002345561981, 0.03929112106561661, -0.0792941302061081, -0.04029114916920662, -0.03815821558237076, 0.011769506148993969, 0.08886398375034332, -0.013013363815844059, 0.04673139005899429, -0.01863396354019642, 0.026228783652186394, 0.09048482030630112, 0.0330297090113163, -0.0183271374553442, 0.04127509519457817, 0.053758569061756134, -0.025692446157336235, -0.03472081571817398, 0.02462514489889145, 0.07850145548582077, 0.006953525822609663, -0.06044868379831314, 0.020918937399983406, 0.03112575225532055, -0.06665270775556564, 0.06019056960940361, 0.08894877135753632, 0.11503124237060547, -0.0014933452475816011, 0.09651139378547668, -0.03603148087859154, -0.007474459707736969, 0.12273983657360077, 0.030854754149913788, 0.023086344823241234, 0.061268988996744156, 0.05998149886727333, 0.07531304657459259, -0.08741220086812973, 0.11195208132266998, -0.12140146642923355, -0.022565141320228577, 0.008818715810775757, -0.00888795219361782, -0.13366976380348206, -0.05524398013949394, 0.0380086675286293, -0.08390101790428162, 0.02356232888996601, 0.024400858208537102, 0.0017409457359462976, -0.03348834812641144, 0.06005226448178291, -0.027620390057563782, 0.016364041715860367, -0.006634797900915146, 0.0827188566327095, 0.056851666420698166, -0.0721619725227356, -0.05962751805782318, -0.05492177978157997, 0.027044175192713737, -0.006332950666546822, -0.047548796981573105, 0.002216943074017763, 0.03938709944486618, 0.09487097710371017, -0.07747367769479752, -0.09966088086366653, 0.004429072141647339, -0.003763966728001833, 0.045110445469617844, 0.15086667239665985, 0.030371861532330513, 0.012109782546758652, -0.015509364195168018, -0.05441946163773537, -0.0013039843179285526, 0.011718515306711197, 0.15294519066810608, 0.02436419576406479, -0.032788656651973724, -0.08060240000486374, 0.06787173449993134, -0.03852714225649834, 0.014507508836686611, 0.004355354700237513, 0.03652161359786987, 0.11524698138237, 0.03325442969799042, -0.019478686153888702, 0.01716027967631817, -0.0026525864377617836, 0.03132299333810806, -0.12227468192577362, 0.030594661831855774, 0.07293014228343964, -0.0870780497789383, -0.01441183127462864, -0.05638258904218674, 0.06099378690123558, 0.016296762973070145, 0.007492425851523876, 0.07249186933040619, -0.12926745414733887, 0.011418329551815987, -0.030175961554050446, 0.01746688410639763, 0.01583121530711651, 0.030346253886818886, 0.12404178082942963, -0.07897548377513885, -0.07749810069799423, -0.03420565277338028, 0.09346610307693481, -0.021966565400362015, 0.04089271277189255, -0.016536708921194077, 0.09868985414505005, 0.04439453035593033, 0.011571386829018593, -0.04411129653453827, -0.04127943143248558, 0.09163583815097809, 0.05612301826477051, -0.005639393348246813, -0.06821423023939133, -0.13007144629955292, 0.04091372340917587, -0.09165914356708527, -0.061294060200452805, 0.024162979796528816, 0.05107817426323891, 0.0495159775018692, 0.02182917483150959, 0.026783570647239685, 0.0454256646335125, 0.04328838735818863, 0.043903302401304245, -0.015162866562604904, 0.11600204557180405, 0.08739341795444489, -0.0031237860675901175, 0.06700912863016129, 0.08764268457889557, -0.026369106024503708, 0.02229689620435238, -0.07166440784931183, 0.06219073012471199, 0.03382578864693642, 0.05078691989183426, -0.04573264718055725, -0.034770384430885315, 0.035992156714200974, 0.01222456805408001, -0.0025867437943816185, -0.03336106240749359, -0.0763729140162468, -0.007648537401109934, 0.08066447824239731, 0.12660138309001923, -0.07223206758499146, -0.075091652572155, -0.009485898539423943, 0.017398223280906677, -0.05077207460999489, 0.007649707142263651, 0.0019391953246667981, 0.005940095521509647, 0.07459034770727158, 0.09477546811103821, 0.013693416491150856, -0.08537052571773529, 0.07196246832609177, -0.012119089253246784, -0.07657385617494583, -0.017353054136037827, 0.07491369545459747, 0.09755303710699081, -0.02532004378736019, 0.031901631504297256, -0.062407802790403366, 0.07277937233448029, -0.030515961349010468, -0.014396684244275093, -0.1347060203552246, -0.0371253527700901, 0.16029292345046997, -0.0510437898337841, -0.01647033356130123, -0.052709002047777176, -0.054487358778715134, 0.02879873290657997, 0.036718327552080154, 0.020488768815994263, 0.051106929779052734, 0.007306826766580343, -0.06945708394050598, -0.09651325643062592, 0.10742426663637161, 0.12433934956789017, -0.05775776505470276, 0.053378794342279434, 0.014038481749594212, 0.05122274532914162, 0.07986325770616531, -0.00021855639351997524, -0.08113545924425125, 0.10413292050361633, -0.07731787860393524, 0.03397705405950546, 0.037611089646816254, -0.039593037217855453, 0.09793073683977127, -0.013425060547888279, -0.044809333980083466, -0.022059254348278046, 0.031226113438606262, 0.0040552131831645966, 0.00892030168324709, -0.062046684324741364, 0.103127121925354, -0.026442188769578934, -0.005486204754561186, -0.1298254281282425, 0.02451077476143837, 0.022441526874899864, -0.06867917627096176, 0.10103745013475418, -0.04613691195845604, 0.021698426455259323, -0.027283376082777977, 0.08478950709104538, 0.033388979732990265, -0.029550502076745033, 0.020785359665751457, -0.06918717920780182, -0.023420507088303566, 0.04735422134399414, 0.01633467525243759, -0.031815074384212494, 0.05234648287296295, -0.02587636560201645, -0.07271966338157654, -0.11441034823656082, 0.04007052630186081, -0.05639481171965599, -0.056749772280454636, 0.05748570337891579, 0.08651648461818695, -0.011909718625247478, 0.011514926329255104, -0.04101576656103134, 0.0696522518992424, 0.012736369855701923, 0.08700648695230484, 0.11662624031305313, -0.1039598360657692, -0.017371458932757378, 0.06595250964164734, 0.03226196765899658, -0.04417997598648071, -0.015762783586978912, 0.013890047557651997, -0.11298514157533646, 0.11169518530368805, -0.032781023532152176, -0.04339872673153877, -0.0598207525908947, 0.06649890542030334, -0.07513774186372757, -0.023438431322574615, -0.08707252144813538, 0.08641992509365082, 0.15570443868637085, 0.08140414953231812, 0.03810247406363487, 0.019933350384235382, -0.028750376775860786, 0.11548367887735367, 0.04165587201714516, 0.02734404057264328, 0.034692853689193726, -0.0477483794093132, -0.02826308086514473, -0.022809511050581932, 0.034888315945863724, -0.06010907515883446, 0.016376351937651634, 0.02182639390230179, -0.016148719936609268, 0.025809885933995247, 0.046641018241643906, 0.018356511369347572,
 -0.04326605796813965, -0.05013306066393852, 0.12039688974618912, 0.033155087381601334, -0.12161729484796524, 0.020059814676642418, 0.10107823461294174, -0.032940711826086044, 0.04330196604132652, -0.12300830334424973, 0.07656053453683853, 0.09680791199207306, -0.034775372594594955, 0.16616833209991455, -0.03800076246261597, -0.029430337250232697, -0.007349193096160889, -0.07257203012704849, 0.01201409101486206, -0.019753122702240944, 0.20049884915351868, 0.04214983060956001, -0.007092980667948723, 0.10440648347139359, 0.039316412061452866, -0.08606139570474625, 0.14517122507095337, 0.10802612453699112, -0.006708133965730667, -0.08768794685602188, 0.12065055221319199, 0.10808742791414261, -0.035070810467004776, 0.027375370264053345, -0.03356747329235077, -0.02047746069729328, -0.10163413733243942, -0.016083089634776115, 0.07233340293169022, -0.025395257398486137, 0.10151708126068115, 0.030123300850391388, 0.015300936996936798, -0.10661156475543976, -0.04198895022273064, 0.03459097072482109, 0.11588526517152786, -0.0030572423711419106, -0.040278177708387375, -0.0035829220432788134, -0.06632876396179199, 0.010050051845610142, 0.08097132295370102, 0.040796875953674316, 0.09104078263044357, 0.01852010190486908, -0.0034073025453835726, 0.09164493530988693, -0.14695879817008972, -0.07737801969051361, 0.01944117248058319, -0.050599098205566406, 0.1500948667526245, 0.04020741954445839, -0.07096631824970245, -0.09451278299093246, -0.07122061401605606, -0.014439371414482594, -0.02160485088825226, 0.07811298966407776, -0.005910410080105066, 0.03206179291009903, -0.0058958944864571095, 0.04521503299474716, 0.02880343608558178, -0.05520772933959961, 0.048456821590662, -0.10356852412223816, 0.04361921548843384, -0.0442555770277977, 0.005595280323177576, 0.01927163451910019, 0.06192880868911743, 0.035717494785785675, -0.012956197373569012, -0.13230125606060028, 0.11507046967744827, -0.02050909772515297, 0.01831705868244171, 0.17267124354839325, -0.02757660299539566, 0.01267001498490572, 0.0499073751270771, -0.045652836561203, 0.12291676551103592, -0.02321680821478367, -0.028660595417022705, 0.12112651020288467, 0.017356663942337036, -0.028063248842954636, 0.14408466219902039, -0.02500186488032341, -0.07702464610338211, -0.09821028262376785, 0.09957516193389893, 0.1278778463602066, -0.011498372070491314, 0.09947013109922409, 0.0664459615945816, 0.05311448872089386, -0.01932630129158497, -0.05979657545685768, 0.09490757435560226, 0.0697847232222557, -0.007318714167922735, -0.03603495657444, -0.025118397548794746, 0.12226404994726181, -0.07602457702159882, -0.12852521240711212, 0.148421972990036, -0.004284309223294258, -0.05692729353904724, 0.05996695160865784, -0.02890508808195591, -0.023585490882396698, -0.0372757613658905, 0.09327998757362366, 0.01187260914593935, 0.026868002489209175, 0.018066754564642906, -0.016379304230213165, -0.0900072529911995, -0.050081878900527954, -0.03950891271233559, -0.09584136307239532, 0.04405274614691734, 0.03921427205204964, 0.1274084597826004, -0.0011651398381218314, -0.03657637909054756, -0.028765298426151276, -0.08308117836713791, -0.09035564959049225, 0.01110695581883192, 0.07148545235395432, 0.01958305574953556, -0.056840211153030396, 0.014137035235762596, 0.12722207605838776, -0.06878174096345901, 0.05775498226284981, 0.02307695522904396, -0.06747346371412277, -0.0167560912668705, -0.015096461400389671, 0.06225326657295227, -0.03558477386832237, 0.009530440904200077, 0.02471957355737686, -0.10126200318336487, 0.07042306661605835, 0.04534514620900154, -0.056989509612321854, -0.010170361958444118, -0.03278770297765732, -0.0702093169093132, -0.0783417597413063, -0.03361820802092552, 0.0029211004730314016, 0.018114736303687096, 0.06038361415266991, -0.009916579350829124, -0.027481334283947945, 0.003565653460100293, -0.039717383682727814, -0.0064120106399059296, 0.058757197111845016, 0.020857909694314003, -0.07294691354036331, 0.010107419453561306, -0.022183192893862724, 0.060457851737737656, -0.06855493038892746, 0.049511682242155075, -0.019804544746875763, -0.0618489645421505, 0.004937996156513691, 0.05678154528141022, -0.015520370565354824, 0.02558358944952488, -0.08222676813602448, -0.013873878866434097, -0.06504382193088531, -0.1527983695268631, 0.11026962846517563, 0.04731264337897301, -0.10158004611730576, -0.04115941748023033, 0.00889462698251009, 0.1241430789232254, -0.05490003153681755, -0.010921922512352467, 0.07563063502311707, 0.18310320377349854, 0.01428979728370905, 0.03200162574648857, -0.047962456941604614, 0.08669161796569824, -0.04441224783658981, 0.06747359782457352, 0.024862999096512794, 0.06807780265808105, 0.023595549166202545, 0.05181647464632988, 0.01188887469470501, -0.049741849303245544, -0.07927723973989487, 0.08473196625709534, 0.11887967586517334, 0.004674489144235849, -0.11429110169410706, 0.08436718583106995, -0.039092376828193665, -0.053767766803503036, -0.1668402999639511, 0.011317368596792221, 0.0861775130033493, -0.010175112634897232, -0.08613213896751404, -0.0484607070684433, 0.022997897118330002, 0.04807742312550545, -0.14558382332324982, -0.21901176869869232, 0.06904253363609314, 0.01767812669277191, -0.10223613679409027, -0.07680240273475647, -0.14403733611106873, 0.10477441549301147, -0.028984051197767258, 0.026649905368685722, -0.028654510155320168, 0.1128329262137413, 0.04339238256216049, 0.016251103952527046, 0.027557868510484695, 0.09493067860603333, 0.18807154893875122, -0.028133224695920944, 0.06590140610933304, 0.08245895802974701, 0.02425260841846466, -0.09080200642347336, 0.026209257543087006, 0.06625760346651077, -0.09196999669075012, -0.03921912610530853, 0.07539881765842438, 0.017799969762563705, -0.03534668684005737, -0.05294880270957947, -0.00568573921918869, 0.017399147152900696, -0.01006335113197565, 0.08098828047513962, 0.010921930894255638, 0.01214572787284851, 0.11977438628673553, 0.07600229233503342, 0.05982656031847, -0.07509473711252213, 0.037026066333055496, 0.0825221985578537, 0.01892641745507717, -0.01800411380827427, -0.02483315020799637, 0.05172816291451454, -0.14521493017673492, -0.05574601888656616, -0.1207166463136673, -0.0387408621609211, -0.0014777613105252385, 0.013068336993455887, 0.12235330045223236, -0.05442431569099426, 0.002710775937885046, -0.064511239528656, 0.0322536900639534, 0.04520178213715553, -0.04370918124914169, -0.08243215084075928, -0.010067902505397797, 0.12799106538295746, 0.05068512633442879, -0.006316298618912697, 0.0567735880613327, 0.1370006948709488, -0.08936639130115509, -0.09640964865684509, -0.00243290769867599, -0.00854499265551567, 0.12253889441490173, 0.15313240885734558, 0.0881040096282959, -0.004683719947934151, 0.004200134892016649, 0.13268843293190002, 0.12120438367128372, 0.12561605870723724, 0.006061573512852192, -0.09545937180519104, -0.1419084221124649, 0.0038168816827237606, 0.02847880683839321, -0.03070930391550064, 0.02676713839173317, -0.05400378629565239, 0.03746144846081734, -0.009619520045816898, 0.08178776502609253, 0.15785406529903412, -0.032395731657743454, -0.09968607872724533, 0.06600011140108109, 0.003562350757420063, 0.07978557050228119, 0.0021289654541760683, -0.0522790290415287, -0.10672354698181152, 0.03359881788492203, -0.019769348204135895, -0.05353272333741188, -0.03941366821527481, -0.02325541526079178, -0.04546070471405983, 0.053871382027864456, 0.012153968214988708, 0.10483764857053757, -0.050028957426548004, 0.1742268055677414, 0.03450801223516464, -0.032760508358478546, 0.13020379841327667, -0.16706568002700806, -0.10574550181627274, 0.00594208762049675, -0.05032144859433174, 0.011125546880066395, 0.0174487866461277, 0.041772350668907166, -0.030915221199393272, 0.09769602864980698, 0.09411798417568207, -0.1087002381682396, 0.07716826349496841, -0.0034664138220250607, -0.03137710690498352, -0.0561269074678421, -0.15669451653957367, -0.15171091258525848, 0.10659211128950119, 0.01284999493509531, -0.034662507474422455, 0.012194016017019749, 0.07992470264434814, -0.02466295287013054, -0.01591222733259201, 0.006172860972583294, 0.042271923273801804, 0.054645683616399765, 0.07809732854366302, -0.07996778935194016, -0.008867218159139156, -0.18100684881210327, -0.05777430534362793, 0.08774333447217941, -0.09137503802776337, -0.020339181646704674, 0.018769921734929085, -0.021526001393795013, 0.07615853101015091, -0.05388496443629265, -0.017430325970053673, -0.053397003561258316, -0.05627478286623955, -0.007787506096065044, 0.016769977286458015, 0.011883760802447796, 0.005047521088272333, 0.13471432030200958, 0.0015000986168161035, 0.025502339005470276, -0.09110771864652634, 0.06104563921689987, -0.128024622797966, 0.09825246781110764, -0.1306706964969635, -0.17423610389232635, 0.08464556187391281, 0.01932726986706257, 0.06603963673114777, -0.022841481491923332, -0.02455827221274376, -0.1186777725815773, -0.06715282052755356, 0.14388161897659302, -0.06751959770917892, -0.04752720147371292, 0.007238238584250212, 0.0998438373208046, 0.011133713647723198, 0.05173448845744133, -0.061824481934309006, -0.13175585865974426, -0.12949992716312408, 0.05353713035583496, 0.060906633734703064, 0.005189358722418547, -0.06663765013217926, 0.0379599966108799, 0.0950799360871315, -0.0378333181142807, -0.02913680300116539, 0.16638337075710297, -0.06402818113565445, -0.19036611914634705, 0.04460059851408005, -0.02927519753575325, -0.060928329825401306, -0.027535296976566315, -0.017261546105146408, 0.08340835571289062, 0.11354605853557587, 0.12080056965351105, -0.005113203078508377, 0.01252300851047039, 0.020473618060350418, 0.0013241393025964499, 0.13511528074741364, 0.0726662427186966, -0.14874249696731567, 0.028008101508021355, -0.023760667070746422, 0.030490096658468246, -0.006277292501181364, -0.04020588845014572, 0.19048431515693665, -0.024299899116158485, 0.11144237220287323, -0.08557743579149246, 0.1022014245390892, -0.04437333717942238, 0.14030282199382782, 0.058954522013664246,
 -0.022093096747994423, 0.009443296119570732, 0.05544964596629143, -0.025772450491786003, 0.012792282737791538, 0.08426251262426376, -0.04503120481967926, -0.16982097923755646, 0.08328636735677719, 0.01030998956412077, 0.05254775658249855, -0.07075433433055878, -0.005026489961892366, 0.11807352304458618, 0.08279280364513397, 0.06960231065750122, 0.04311509057879448, -0.04394067823886871, 0.0758909359574318, 0.04376238211989403, 0.044258423149585724, 0.18400338292121887, 0.04305066913366318, -0.01707436330616474, -0.15110978484153748, -0.008653169497847557, 0.05473129451274872, -0.04100587218999863, -0.1157093197107315, 0.009726404212415218, 0.12567439675331116, 0.02460652031004429, 0.13440361618995667, -0.08905577659606934, 0.013164248317480087, -0.012169516645371914, 0.042152684181928635, 0.045796364545822144, -0.06118793040513992, -0.043306462466716766, -0.0869835913181305, -0.031600553542375565, 0.022563336417078972, 0.00687374547123909, -0.0295855849981308, 0.16719742119312286, -0.0761047750711441, 0.04056665673851967, 0.09252475202083588, 0.03629710152745247, -0.042147088795900345, -0.04016195982694626, -0.06571575999259949, -0.027933979406952858, -0.015202968381345272, -0.14689642190933228, -0.1153423935174942, 0.015144974924623966, 0.09380793571472168, 0.03913584351539612, -0.10821174830198288, -0.21545211970806122, -0.10357621312141418, -0.08588502556085587, -0.0805707797408104, 0.13592429459095, 0.03448687866330147, 0.049405064433813095, 0.007803817745298147, -0.07105229049921036, -0.06329083442687988, 0.10639479756355286, 0.06829656660556793, -0.08735598623752594, -0.0008089547045528889, -0.012170018628239632, -0.06751351803541183, -0.08631084859371185, 0.10954312235116959, 0.06047163903713226, -0.008277073502540588, 0.02924893982708454, 0.12866413593292236, -0.04505029320716858, 0.0063401502557098866, -0.07610337436199188, -0.014082803390920162, 0.09185034036636353, -0.15952081978321075, 0.02884148247539997, -0.04720606282353401, 0.08627224713563919, 0.00562098016962409, 0.041678935289382935, -0.1396554410457611, -0.031317032873630524, 0.07158219069242477, -0.115419901907444, -0.07070064544677734, 0.0727522000670433, -0.025768091902136803, 0.07190860062837601, 0.07246749103069305, -0.10039228945970535, -0.03931398689746857, -0.053789518773555756, 0.006415225565433502, 0.13815855979919434, 0.07619381695985794, 0.060006268322467804, -0.028568511828780174, -0.12925393879413605, -0.11463218182325363, 0.0008592038648203015, -0.00011075362272094935, -0.13957266509532928, 0.05636844411492348, -0.0997004359960556, 0.0583164282143116, 0.07423222810029984, 0.022340647876262665, 0.0585082583129406, 0.07942087203264236, -0.05047888308763504, -0.050231192260980606, 0.03715665638446808, 0.004440281540155411, 0.08637825399637222, -0.08289944380521774, -0.04857560619711876, -0.16014298796653748, -0.09568174928426743, 0.08536360412836075, 0.04459939897060394, 0.06427855044603348, 0.062431979924440384, -0.07023575156927109, 0.020708775147795677, 0.05478932708501816, -0.08162517845630646, 0.045748207718133926, 0.1256667524576187, 0.007925334386527538, 0.0033325476106256247, -0.07263091206550598, 0.016833100467920303, -0.07883788645267487, 0.16404670476913452, -0.0834200531244278, -0.06701017916202545, -0.0025547114200890064, -0.0029589144978672266, 0.048273682594299316, 0.018398698419332504, 0.13412714004516602, -0.16389340162277222, 0.016008669510483742, -0.03863614425063133, 0.04109098017215729, -0.1705196648836136, 0.118252694606781, -0.1545245200395584, -0.04227199777960777, -0.057959314435720444, 0.07830488681793213, 0.007739739492535591, -0.03613543510437012, 0.11153491586446762, 0.0007638858514837921, 0.07881516963243484, 0.06165527552366257, 0.01636376604437828, -0.02886316366493702, 0.005421995185315609, 0.01156681776046753, -0.11704237014055252, -0.151714488863945, -0.060075949877500534, -0.04066667705774307, -0.07117272168397903, -0.02662055380642414, -0.05277463421225548, -0.08949512243270874, 0.017500853165984154, -0.025935420766472816, 0.22504465281963348, 0.05995592102408409, -0.0100345928221941, 0.124847412109375, -0.03491454944014549, -0.07058405876159668, -0.0465681292116642, 0.08021026104688644, 0.023816872388124466, -0.035007912665605545, 0.04829346761107445, 0.0371040515601635, 0.17624662816524506, -0.10204648226499557, 0.0039663249626755714, -0.009740841574966908, 0.019840490072965622, -0.05966002866625786, -0.015299215912818909, -0.0024602808989584446, 0.12036069482564926, 0.13430730998516083, -0.03954603895545006, 0.09422355890274048, 0.07964812964200974, -0.020769942551851273, -0.07247379422187805, -0.05829164385795593, 0.08067464083433151, 0.038971319794654846, -0.07740762084722519, 0.035397812724113464, -0.048903487622737885, -0.02866906300187111, -0.003705012844875455, 0.019761960953474045, 0.17897535860538483, 0.04852589592337608, -0.04679211974143982, 0.0520494319498539, 0.09647966921329498, -0.04680957645177841, 0.13267138600349426, 0.005051103886216879, -0.08541391044855118, -0.18274004757404327, -0.06079958379268646, 0.08594530820846558, -0.09446342289447784, -0.12446004152297974, -0.022593483328819275, -0.008795008063316345, 0.05220090597867966, 0.07138615846633911, -0.09370642900466919, -0.03679438307881355, 0.11359802633523941, 0.026568066328763962, 0.07197560369968414, -0.11381686478853226, 0.12082433700561523, -0.006483579520136118, -0.036471154540777206, -0.0969526395201683, 0.062498971819877625, -0.001107440679334104, -0.10832484066486359, -0.03464942425489426, -0.028208596631884575, -0.06789779663085938, -0.08202485740184784, 0.10455892235040665, -0.09813503921031952, -0.032071370631456375, 0.024527722969651222, -0.09689460694789886, -0.07488733530044556, 0.02394411526620388, -0.09202472120523453, 0.007393847685307264, -0.09201668947935104, 0.03735652193427086, -0.0440104603767395, 0.14738577604293823, -0.024062570184469223, 0.05263599753379822, -0.004793792963027954, 0.0030794315971434116, 0.07063291221857071, 0.08155802637338638, 0.0158586073666811, 0.003442942164838314, 0.017939509823918343, -0.09928179532289505, 0.017083344981074333, -0.0005539330304600298, 0.10619322210550308, -0.0013096000766381621, 0.05487365648150444, -0.031184086576104164, -0.057681843638420105, -0.12504050135612488, 0.15445257723331451, -0.032063741236925125, 0.0041571413166821, 0.09433598071336746, -0.09603749215602875, -0.07978487759828568, -0.09304946660995483, 0.15913023054599762, -0.11525242030620575, -0.08424115926027298, 0.02344011329114437, -0.011656537652015686, -0.0701989009976387, 0.00044000166235491633, -0.1250741183757782, -0.02270255982875824, 0.022492213174700737, 0.09682925790548325, 0.022989515215158463, 0.12139425426721573, 0.07550505548715591, -0.08628212660551071, -0.003975339233875275, -0.05862100049853325, 0.015992386266589165, -0.022041944786906242, -0.06473244726657867, -0.09379636496305466, 0.009977581910789013, -0.06415443122386932, -0.08562471717596054, 0.021634461358189583, 0.05784304812550545, 0.020526180043816566, -0.038970913738012314, -0.03358844295144081, 0.021858876571059227, -0.012129862792789936, -0.07420235872268677, 0.05951996520161629, -0.04584384337067604, -0.07547124475240707, -0.09580380469560623, 0.09225393086671829, 0.008565476164221764, -0.05564363673329353, 0.05731656029820442, 0.0008411788148805499, 0.01784963347017765, 0.005790053401142359, -0.07827917486429214, -0.07917419821023941, 0.018359165638685226, 0.14649856090545654, -0.07539501786231995, -0.11663404107093811, -0.05193258821964264, -0.046930622309446335, -0.04056219011545181, -0.00877284910529852, 0.0696311667561531, 0.03880235552787781, 0.11898413300514221, 0.0011778288753703237, -0.08679338544607162, -0.07041972875595093, -0.1528833955526352, 0.04802095144987106, 0.006919278297573328, -0.020406927913427353, 0.0010612503392621875, -0.06319322437047958, 0.07964079827070236, 0.05517096072435379, 0.10446006059646606, 0.08502248674631119, 0.05501406267285347, 0.08221379667520523, -0.08481431752443314, -0.08262331038713455, -0.07054951786994934, 0.19502219557762146, -0.16404451429843903, -0.021404089406132698, -0.06605703383684158, 0.003824796061962843, -0.009866951033473015, -0.0175035297870636, -0.05539504438638687, -0.034405436366796494, 0.035525090992450714, 0.15589000284671783, 0.07623934000730515, -0.14574947953224182, 0.04036480933427811, -0.022569678723812103, 0.0029062824323773384, -0.02658037841320038, -0.0739169642329216, 0.008049857802689075, -0.053029995411634445, 0.052885979413986206, -0.017218152061104774, -0.02787177264690399, -0.03463210165500641, -0.08336320519447327, 0.009660082869231701, 0.07950946688652039, 0.00033092923695221543, 0.008553366176784039, 0.07306332141160965, 0.14480248093605042, -0.007699584122747183, -0.09205952286720276, 0.011535163968801498, 0.12137649953365326, -0.11709988117218018, 0.07084810733795166, 0.03316459059715271, 0.015340670011937618, -0.06644491106271744, -0.05498366430401802, -0.09155497699975967, -0.048771243542432785, 0.003187420777976513, 0.014680881053209305, 0.013859200291335583, -0.03142201155424118, 0.028397420421242714, 0.08940386027097702, -0.05897802487015724, -0.08707738667726517, -0.05544872581958771, 0.03730466589331627, 0.04830057919025421, 0.06556692719459534, -0.0770387277007103, 0.020118730142712593, -0.026211904361844063, 0.010630686767399311, -0.10602383315563202, 0.0024896073155105114, -0.03281226381659508, -0.062870554625988, 0.07495314627885818, -0.0366857685148716, 0.03812483698129654, 0.016307752579450607, 0.13985779881477356, 0.07766027748584747, -0.07415295392274857, 0.015096750110387802, 0.029485924169421196, 0.11502715200185776, 0.04401310905814171, 0.06422127038240433, -0.01367087010294199, -0.017033925279974937, 0.039943620562553406, 0.08162738382816315, 0.04266947880387306, 0.09270626306533813, 0.0938589945435524, -0.08342988789081573, 0.15996938943862915, -0.02574593760073185, -0.04384148493409157, -0.05669010803103447,
 0.05126504972577095, 0.0730915516614914, -0.1854974925518036, -0.12229985743761063, -0.07879491150379181, 0.01699037477374077, 0.14799049496650696, -0.035208407789468765, 0.056502215564250946, -0.047389764338731766, -0.026407675817608833, 0.09531910717487335, -0.059512726962566376, -0.027315912768244743, 0.011196237988770008, 0.07670075446367264, -0.043241601437330246, -0.08445500582456589, -0.012186932377517223, 0.046110767871141434, -0.10179966688156128, 0.018576042726635933, -0.04220158979296684, -0.10978399217128754, -0.03233425319194794, -0.06739857792854309, -0.04197178781032562, -0.07421892136335373, 0.002775781787931919, -0.10597511380910873, -0.02800685726106167, -0.1052258089184761, -0.044438380748033524, -0.04700731113553047, 0.043565813452005386, 0.014155948534607887, 0.008568648248910904, 0.007375506218522787, -0.024160582572221756, 0.17633850872516632, -0.054096780717372894, -0.015106345526874065, -0.07311729341745377, 0.014121783897280693, -0.0004821399343200028, 0.013013756833970547, 0.05353406071662903, -0.09910078346729279, -0.02984091453254223, -0.023007534444332123, -0.012985026463866234, -0.06502820551395416, 0.1961306780576706, -0.06838120520114899, -0.06685064733028412, 0.12608611583709717, 0.03122684359550476, -0.03628551959991455, -0.020957831293344498, -0.14577995240688324, 0.05815928056836128, 0.006936233025044203, 0.06356559693813324, -0.08286695182323456, -0.052068229764699936, 0.02133711613714695, 0.03135780245065689, 0.026239970698952675, -0.025000378489494324, -0.08390943706035614, -0.04395952448248863, 0.051669891923666, -0.03510516136884689, 0.08616328984498978, -0.09471014887094498, -0.029283802956342697, 0.03043529763817787, -0.00278840702958405, -0.015504912473261356, 0.05491381883621216, 0.16872774064540863, 0.02163056656718254, -0.11547377705574036, 0.10806049406528473, 0.05285811424255371, -0.03220628574490547, -0.016089238226413727, -0.02904553711414337, 0.001845281571149826, -0.12151492387056351, -0.13771222531795502, -0.014294804073870182, -0.14383582770824432, 0.06030838564038277, -0.05241737142205238, -0.06769723445177078, -0.055282264947891235, -0.05033182352781296, 0.06536497920751572, 0.07023848593235016, 0.026022883132100105, -0.06123678758740425, 0.09171369671821594, 0.018989143893122673, 0.09252140671014786, 0.06300542503595352, 0.0344092920422554, -0.02914927713572979, -0.10135095566511154, -0.07929499447345734, -0.051343608647584915, 0.011625505983829498, 0.1328161507844925, 0.019952785223722458, -0.039434127509593964, 0.1651778221130371, 0.0568622350692749, -0.01456485129892826, -0.08263374865055084, -0.07818787544965744, -0.08974452316761017, 0.032114095985889435, -0.03433554619550705, -0.08812122046947479, 0.08426027745008469, 0.04090777412056923, 0.09263086318969727, 0.046273525804281235, 0.008325733244419098, 0.0014849877916276455, 0.1373279094696045, -0.0755481943488121, 0.06501252204179764, 0.006381720770150423, -0.055748503655195236, 0.03059009090065956, -0.001167957205325365, 0.011395861394703388, -0.02458164095878601, -0.0803757831454277, 0.06610050052404404, -0.024851489812135696, 0.0035160447005182505, -0.06036950647830963, 0.004005874041467905, 0.045319877564907074, -0.0466914139688015, 0.021131141111254692, -0.11002334952354431, 0.17985747754573822, 0.057909827679395676, 0.026045596227049828, -0.1394503116607666, -0.006551043130457401, 0.11247875541448593, 0.07415574789047241, 0.1326257437467575, 0.03246365487575531, -0.13534294068813324, 0.03142918646335602, 0.0715523436665535, -0.04337390512228012, 0.09126949310302734, -0.06565558165311813, -0.04773208871483803, 0.01960768923163414, 0.01959916576743126, -0.06442522257566452, 0.0054383245296776295, -0.02872803807258606, 0.03762109950184822, -0.013184810057282448, -0.07074863463640213, 0.10845738649368286, 0.07586487382650375, 0.17400766909122467, 0.136363685131073, 0.11780259013175964, 0.0598490871489048, 0.047917600721120834, 0.04163477197289467, -0.05905858427286148, 0.01686217077076435, -0.03607859089970589, 0.10584639012813568, 0.04086051136255264, -0.16099905967712402, -0.02571028284728527, -0.14186830818653107, -0.05685917288064957, -0.06732223927974701, 0.036845579743385315, -0.11517471820116043, -0.005413033999502659, -0.02585136517882347, -0.022974707186222076, 0.017204318195581436, -0.03192601725459099, 0.020371804013848305, -0.04866385832428932, 0.0609731450676918, -0.01231461763381958, -0.042537689208984375, -0.1412518173456192, 0.08982136100530624, -0.030129224061965942, 0.07613548636436462, -0.020417163148522377, -0.047485917806625366, -0.05928902328014374, -0.11578013747930527, -0.02367273159325123, -0.02757236920297146, 0.22097937762737274, -0.06504560261964798, -0.06843578070402145, -0.11840450763702393, -0.04418081417679787, 0.015840206295251846, -0.05506308004260063, 0.11773113161325455, 0.06697136163711548, 0.02411886304616928, 0.09465339034795761, -0.05225484445691109, 0.036267828196287155, -0.07183503359556198, -0.04173784703016281, 0.002749399980530143, 0.0008355473983101547, 0.09895461052656174, -0.056024935096502304, -0.04142405465245247, 0.015231762081384659, -0.050389789044857025, 0.035260558128356934, -0.02957843989133835, 0.04615585133433342, 0.06338904798030853, -0.025708312168717384, 0.020962290465831757, -0.059020742774009705, -0.06331628561019897, 0.02868391014635563, 0.01037305686622858, 0.07259854674339294, 0.010503741912543774, -0.05942713841795921, 0.049084585160017014, 0.12086725234985352, 0.05694432184100151, -0.007246105931699276, 0.024063654243946075, -0.17096185684204102, -0.011897889897227287, -0.049090318381786346, 0.05748462304472923, 0.007229404058307409, 0.024256223812699318, 0.03376397117972374, 0.07060831040143967, -0.04148433357477188, 0.041918959468603134, 0.05619571730494499, -0.045625220984220505, -0.04259263724088669, -0.06534761935472488, -0.0439084991812706, 0.05009575933218002, 0.0077867512591183186, -0.12939320504665375, -0.051775891333818436, 0.061642128974199295, -0.06626858562231064, 0.07296694815158844, -0.04229718819260597, -0.029985444620251656, 0.011265703476965427, 0.14357571303844452, 0.023759497329592705, 0.08176088333129883, 0.04194506257772446, 0.03434251248836517, -0.07575289905071259, 0.01570049114525318, -0.0558030791580677, -0.11775001883506775, 0.04678617790341377, -0.042827822268009186, 0.04131060466170311, -0.06811708211898804, 0.03818829357624054, -0.011116549372673035, 0.05915272980928421, -0.0015190051635727286, 0.08002513647079468, 0.12062375247478485, -0.13961844146251678, 0.020313810557127, -0.0569758340716362, -0.049543049186468124, -0.058225903660058975, -0.038274094462394714, 0.04648689553141594, -0.012996449135243893, 0.028964944183826447, 0.061723873019218445, 0.016640635207295418, 0.045118384063243866, 0.0011252113617956638, 0.17895658314228058, -0.05037122592329979, 0.10603433102369308, -0.05502045899629593, 0.10424654185771942, 0.03370082378387451, -0.0022714012302458286, 0.08716300129890442, 0.06880607455968857, -0.05863109976053238, 0.031226562336087227, -0.05966545268893242, 0.16381946206092834, 0.016077516600489616, -0.027360789477825165, 0.09026309847831726, 0.07744166254997253, 0.10584401339292526, 0.027812251821160316, 0.07609116286039352, 0.09931884706020355, -0.043952975422143936, 0.005405312404036522, -0.0565987303853035, -0.01905326545238495, -0.10885441303253174, 0.05368281155824661, -0.014067704789340496, 0.012376724742352962, -0.08128943294286728, 0.0021868785843253136, 0.12565965950489044, 0.1803123503923416, -0.05592525750398636, 0.02961268648505211, 0.07444629073143005, 0.0017954837530851364, -0.021439403295516968, -0.012676113285124302, -0.12813076376914978, -0.04704137519001961, 0.04406754672527313, -0.06346126645803452, 0.041795674711465836, -0.08410469442605972, -0.0011389112332835793, -0.011107654310762882, -0.023750152438879013, 0.001448745490051806, -0.19327960908412933, -0.025226477533578873, 0.13387654721736908, 0.0637802928686142, -0.11831918358802795, -0.033967677503824234, 0.035107485949993134, 0.01288261916488409, -0.17145182192325592, 0.005197548773139715, -0.01637427508831024, -0.13290587067604065, 0.005981967784464359, 0.03842823579907417, 0.09217032045125961, 0.039922989904880524, 0.016064101830124855, 0.08164522051811218, 0.10161395370960236, 0.006199057679623365, -0.10077458620071411, 0.017935989424586296, -0.009366413578391075, -0.025609640404582024, 0.019545359537005424, 0.048398468643426895, 0.025950174778699875, 0.01951250433921814, 0.03533005341887474, -0.014029564335942268, -0.04448208585381508, -0.0894518792629242, 0.009813440963625908, -0.003093794919550419, 0.02218674309551716, -0.14662089943885803, 0.0895347148180008, 0.02236810326576233, 0.0715530663728714, -0.028831733390688896, -0.08285932242870331, -0.016971530392766, 0.02510983869433403, 0.16971595585346222, -0.08694501221179962, 0.08618494123220444, -0.15810269117355347, -0.016217103227972984, -0.053200043737888336, -0.14648793637752533, 0.0626990869641304, 0.0009241504594683647, -0.05804445967078209, 0.016070280224084854, -0.11625117063522339, 0.0608399473130703, -0.07591810077428818, 0.09310603141784668, -0.06215295568108559, -0.11887145787477493, 0.002410904271528125, 0.016854338347911835, 0.019178273156285286, -0.03788566589355469, -0.019941361621022224, 0.06015734001994133, -0.042195580899715424, 0.029415849596261978, 0.13046620786190033, 0.016008270904421806, 0.007678487338125706, -0.017143500968813896, -0.03169947862625122, 0.020404189825057983, -0.04734228923916817, 0.027330540120601654, 0.17896082997322083, 0.12434903532266617, -0.049789752811193466, -0.0859857127070427, -0.016471194103360176, 0.1580677628517151, 0.035380613058805466, 0.09653618186712265, -0.09627027809619904, 0.09905117005109787, -0.06091222167015076, -0.03789715841412544, -0.10283849388360977, -0.04669782519340515, 0.038559261709451675, 0.03394278511404991, -0.09244369715452194, 0.07054675370454788, 0.10743158310651779, 0.017032654955983162,
 -0.026193860918283463, 0.06130306050181389, -0.09421553462743759, -0.018821457400918007, -0.017892012372612953, -0.01623563840985298, -0.07432792335748672, -0.013139382936060429, 0.014909026212990284, 0.009274762123823166, 0.008668296039104462, -0.1202915608882904, 0.003757913364097476, -0.032196976244449615, 0.06507906317710876, -0.12588156759738922, -0.04736257717013359, 0.034676581621170044, 0.0025313037913292646, -0.08743457496166229, -0.08527208119630814, -0.04979158937931061, 0.012263852171599865, -0.038049664348363876, 0.016860829666256905, -0.13603438436985016, -0.07101046293973923, -0.004018640145659447, 0.14650456607341766, -0.09130348265171051, 0.016843348741531372, 0.012050886638462543, -0.05270453914999962, 0.049822255969047546, 0.036437876522541046, -0.004402628168463707, -0.001546934130601585, 0.13658462464809418, -0.0318555049598217, -0.09182842820882797, -0.05119583383202553, -0.019039828330278397, 0.07665478438138962, -0.032079730182886124, -0.02061310224235058, -0.23098944127559662, 0.06538647413253784, -0.042884599417448044, 0.009912197478115559, 0.10946883261203766, 0.045582037419080734, -0.04688708856701851, 0.023211494088172913, 0.01450480055063963, 0.07819551229476929, 0.04541579261422157, -0.02905016951262951, 0.08264723420143127, 0.019344400614500046, -0.006130995228886604, 0.038666460663080215, -0.01644098199903965, -0.0070021143183112144, -0.01549564953893423, -0.15941792726516724, -0.08383999764919281, 0.11876148730516434, 0.10504347085952759, 0.10609492659568787, 0.059095822274684906, 0.13945992290973663, -0.06259225308895111, -0.03733336552977562, -0.02907239831984043, 0.011929151602089405, -0.11490663141012192, 0.12276136130094528, 0.048251260071992874, 0.01311513315886259, -0.04912503436207771, -0.0131536815315485, -0.040001023560762405, 0.02729492262005806, 0.05259779095649719, -0.06713707000017166, 0.005107579752802849, -0.022915072739124298, -0.06701542437076569, 0.08731813728809357, -0.06507547944784164, -0.08261457085609436, -0.04350753501057625, -0.06226316839456558, 0.07622051239013672, 0.010770482011139393, 0.18056334555149078, 0.022613966837525368, 0.015375123359262943, 0.08411137014627457, -0.06053406000137329, -0.1016627624630928, 0.06263836473226547, -0.001733402139507234, 0.017810354009270668, 0.010813341476023197, 0.03459868207573891, 0.04903644695878029, 0.02224557287991047, -0.06681543588638306, -0.03785150498151779, -0.0664743185043335, -0.04005558043718338, 0.03217406943440437, 0.022969495505094528, -0.015582709573209286, -0.09175999462604523, -0.05364890396595001, 0.006784981116652489, 0.028641916811466217, 0.04310741648077965, 0.008099705912172794, -0.15488503873348236, 0.0706251710653305, -0.04993816092610359, 0.15697872638702393, -0.050046030431985855, 0.07775397598743439, 0.15643803775310516, 0.07822272926568985, -0.00948238093405962, 0.0022301608696579933, 0.0169967133551836, -0.07995887845754623, -0.02092064544558525, 0.07879344373941422, -0.10980763286352158, -0.0329720564186573, 0.04114016145467758, -0.21546214818954468, 0.12075205892324448, -0.03364415466785431, 0.05285246670246124, 0.10039989650249481, 0.012027289718389511, -0.057664819061756134, -0.004695270210504532, 0.09092523902654648, 0.02695445902645588, -0.09502733498811722, -0.02997063845396042, -0.06351742148399353, 0.0002721198252402246, -0.06828240305185318, 0.018457399681210518, -0.008820134215056896, -0.06855954974889755, 0.06030990555882454, 0.0038239583373069763, -0.015937315300107002, 0.13907913863658905, -0.17064903676509857, -0.009143036790192127, -0.06889811903238297, 0.11443565785884857, 0.13346439599990845, 0.04649370536208153, 0.1492798626422882, 0.05388668179512024, 0.06104942783713341, 0.03351655974984169, 0.03913867846131325, -0.056744981557130814, -0.10945993661880493, -0.026456305757164955, 0.005825813394039869, 0.03208397701382637, -0.06306882202625275, 0.04591941460967064, 0.027239177376031876, -0.01115475594997406, 0.006293808110058308, -0.02819853276014328, -0.06344855576753616, -0.08277725428342819, -0.08631544560194016, -0.0819651186466217, 0.012440341524779797, -0.01320874784141779, 0.16072070598602295, -0.04826100543141365, -0.01224165316671133, -0.017018793150782585, -0.04140176996588707, 0.08054666221141815, 0.03629875183105469, 0.07249073684215546, -0.10816275328397751, 0.020824773237109184, 0.05707700178027153, 0.03928119316697121, 0.06790769100189209, -0.009576089680194855, -0.04776114970445633, 0.05847330763936043, 0.024996774271130562, 0.012551361694931984, 0.06993319094181061, -0.10631708055734634, -0.049991339445114136, 0.010267989709973335, -0.022224998101592064, -0.18165479600429535, -0.02055356465280056, 0.027753759175539017, 0.02653115801513195, 0.06979876756668091, 0.04565862938761711, -0.06424909085035324, -0.04309007152915001, 0.0292533989995718, -0.10674556344747543, 0.039872799068689346, -0.12935709953308105, 0.021758396178483963, 0.03118589147925377, 0.07119454443454742, -0.05230017751455307, -0.025664255023002625, -0.12393055111169815, 0.03722308576107025, -0.016984373331069946, -0.03213503211736679, 0.00761306332424283, 0.025474775582551956, -0.08512626588344574, 0.04576998949050903, 0.08534086495637894, 0.11948803812265396, 0.02509629912674427, -0.02166891098022461, -0.016622472554445267, 0.04170679673552513, -0.019396977499127388, -0.0146192517131567, -0.03266220539808273, -0.10895666480064392, 0.022339336574077606, 0.025088485330343246, 0.07318489253520966, 0.07681626081466675, 0.002726140432059765, -0.07273349910974503, -0.09007882326841354, 0.0338086374104023, 0.021793775260448456, 0.1025218814611435, -0.024329816922545433, -0.07239559292793274, 0.0858127772808075, 0.0736338272690773, -0.02545028366148472, -0.0363880880177021, 0.07064022123813629, 0.07597250491380692, -0.02860512211918831, 0.029025848954916, 0.02557414397597313, -0.061476901173591614, 0.10309858620166779, 0.18900462985038757, -0.05138925090432167, 0.07554803043603897, -0.04666769877076149, -0.1270872950553894, -0.03342355042695999, 0.10736367851495743, 0.06631826609373093, 0.1921989470720291, -0.0791667029261589, 0.0353022962808609, 0.02585282176733017, 0.07073216885328293, -0.06835441291332245, 0.05436394363641739, -0.03777167946100235, -0.024230148643255234, 0.039673347026109695, 0.12677523493766785, 0.09298477321863174, -0.07761777192354202, -0.029866056516766548, 0.05918487161397934, 0.034937068819999695, -0.011033529415726662, 0.16127446293830872, -0.0781777948141098, 0.05664457753300667, -0.0058623929508030415, -0.03216056898236275, 0.09277313947677612, 0.0363181047141552, -0.057003479450941086, 0.01694207824766636, 0.0386463925242424, -0.026466449722647667, 0.0463993214070797, -0.041667640209198, 0.04371942579746246, 0.0445154532790184, -0.005564137361943722, 0.047069329768419266, 0.14494246244430542, 0.0662330761551857, -0.0433238260447979, 0.00370027800090611, 0.11010941863059998, 0.06464840471744537, -0.06005585193634033, 0.0335906445980072, 0.061422742903232574, 0.12519890069961548, 0.11198163032531738, 0.06388334929943085, -0.07182630896568298, -0.049783408641815186, 0.06694012880325317, 0.006930728908628225, 0.01760626956820488, 0.07481896877288818, 0.0067241499200463295, -0.0027656988240778446, -0.05500704050064087, 0.031010858714580536, -0.014519922435283661, -0.21150386333465576, -0.05665358528494835, -0.009583408012986183, -0.05343149974942207, -0.05965559557080269, -0.11594246327877045, 0.08222386240959167, 0.008509643375873566, 0.048361487686634064, 0.028275372460484505, -0.02533438615500927, 0.06518280506134033, 0.10279810428619385, -0.13021917641162872, -0.0055663250386714935, -0.006372989621013403, 0.037810761481523514, 0.09123703837394714, 0.08567522466182709, -0.0177239328622818, -0.060757867991924286, 0.04181301221251488, 0.00875385757535696, -0.11073274910449982, -0.037861380726099014, -0.12197265028953552, -0.0454568974673748, -0.08393312245607376, -0.10025729238986969, -0.04030909761786461, 0.11972619593143463, 0.009078026749193668, 0.07578253000974655, -0.08002528548240662, 0.08933804929256439, -0.014888755977153778, -0.03348664566874504, 0.10494955629110336, -0.04243679717183113, -0.025570930913090706, -0.010380449704825878, -0.1163666844367981, 0.033161334693431854, -0.032515998929739, -0.18649157881736755, -0.05788328871130943, 0.07416867464780807, 0.08677031099796295, -0.09471060335636139, -0.15269839763641357, 0.10798551142215729, -0.036074716597795486, -0.07680486887693405, -0.07559746503829956, 0.060956135392189026, 0.016468841582536697, -0.02689063362777233, 0.05783815309405327, 0.02458912879228592, -0.04658504202961922, 0.06608972698450089, 0.04606463760137558, -0.0360167995095253, -0.11636803299188614, 0.11940400302410126, -0.10974251478910446, -0.1020183265209198, 0.08924589306116104, 0.04565345123410225, 0.007772918790578842, 0.15467917919158936, 0.0576692558825016, 0.07285343110561371, -0.026318399235606194, 0.04471727833151817, -0.037560317665338516, -0.05671660974621773, 0.02949346974492073, -0.1296612024307251, 0.09311388432979584, 0.005880401935428381, 0.02790123224258423, 0.03696851059794426, -0.01724526286125183, -0.007709247525781393, -0.09019827097654343, 0.0670459195971489, -0.01623585820198059, 0.036886319518089294, 0.06350366771221161, 0.053186941891908646, -0.08713606745004654, 0.04868536442518234, -0.009944603778421879, -0.03233087807893753, -0.049438875168561935, -0.046243224292993546, -0.017315629869699478, -0.052639562636613846, 0.10371033847332001, 0.020849015563726425, 0.07050032913684845, 0.12184479087591171, -0.028738221153616905, 0.04664098843932152, -0.08311878144741058, 0.08973129093647003, 0.03035721927881241, -0.04836868867278099, 0.05359780043363571, -0.13236208260059357, 0.01714942418038845, -0.029983488842844963, -0.005251997150480747, -0.05149088427424431, -0.0370929054915905, -0.10923106223344803, -0.05539700388908386, 0.1316637098789215, 0.04370928555727005, 0.029544953256845474, -0.006057846359908581,
 -0.009753620252013206, 0.12796056270599365, -0.04552200809121132, 0.1166846752166748, 0.02381926216185093, 0.07011323422193527, 0.07349467277526855, 0.11589781194925308, 0.046121131628751755, -0.0074431151151657104, 0.0035307605285197496, 0.027682416141033173, -0.010919464752078056, -0.11798308789730072, 0.003927917219698429, 0.06755799055099487, -0.041068803519010544, 0.0292812492698431, 0.0647161453962326, -0.05047371983528137, -0.0351763479411602, -0.05505063012242317, -0.027278415858745575, 0.05936755985021591, -0.1294437199831009, -0.06807496398687363, 0.0873078852891922, -0.07132076472043991, 0.11989732831716537, -0.01745624653995037, 0.0869344025850296, -0.05042056366801262, 0.05736326053738594, 0.0722346156835556, 0.033003069460392, -0.0690116435289383, 0.09876949340105057, 0.110163614153862, 0.02164481393992901, 0.04043106362223625, -0.002648092107847333, 0.09834904223680496, -0.10238017141819, 0.02566285990178585, -0.02950579859316349, -0.03749804571270943, -0.004782385192811489, -0.05928445979952812, 0.018401212990283966, -0.056129563599824905, 0.012512686662375927, 0.08860354870557785, 0.06638830155134201, 0.14449363946914673, -0.01047774963080883, 0.016954636201262474, 0.03685993701219559, 0.002105444436892867, -0.12149865925312042, 0.1731276512145996, -0.02339497208595276, 0.06431526690721512, -0.14485469460487366, 0.07503505796194077, -0.10279249399900436, 0.06424441933631897, -0.05962087959051132, 6.726682477165014e-05, 0.0014298056485131383, 0.12602226436138153, -0.0809868648648262, -0.03658236935734749, -0.10590215027332306, 0.07090000808238983, -0.036481063812971115, -0.08360354602336884, 0.11444083601236343, 0.02913884073495865, -0.014777790755033493, -0.0898171067237854, -0.0413193516433239, 0.029987074434757233, -0.0016088063130155206, 0.21290704607963562, -0.04986002668738365, -0.27149608731269836, 0.08895151317119598, -0.020265227183699608, 0.06444361805915833, -0.032083723694086075, 0.04330362752079964, 0.012666014954447746, -0.09150335937738419, 0.12961076200008392, -0.05259022116661072, -0.2401346117258072, -0.028309566900134087, -0.15261907875537872, -0.007295884191989899, -0.05176515504717827, -0.051976464688777924, -0.021790580824017525, 0.06878097355365753, -0.048338405787944794, 0.027764342725276947, -0.04859783127903938, -0.014744141139090061, 0.09060841798782349, 0.13964809477329254, -0.03553168848156929, -0.019737543538212776, 0.0040070232935249805, 0.040845371782779694, 0.022558078169822693, -0.06415517628192902, 0.09672623127698898, 0.0009657050250098109, -0.03426136076450348, -0.040570132434368134, -0.04667806997895241, -0.1300385594367981, -0.037764862179756165, -0.055170997977256775, 0.01676315814256668, 0.06799380481243134, 0.012284357100725174, -0.06771465390920639, -0.05157448351383209, 0.2030058056116104, -0.14449381828308105, -0.037158478051424026, -0.007383238989859819, -0.04729079827666283, 0.14892908930778503, -0.054714202880859375, 0.003159674583002925, -0.09050774574279785, -0.041172679513692856, 0.032473545521497726, -0.0175889041274786, 0.043361417949199677, 0.06643340736627579, 0.10026751458644867, 0.0017562088323757052, -0.05559205636382103, -0.04378833249211311, -0.03404892235994339, -0.11087005585432053, 0.025774048641324043, -0.04995451495051384, 0.019881989806890488, -0.0036622954066842794, 0.06832414120435715, -0.07654646039009094, 0.04420208930969238, -0.13176372647285461, 0.1487220972776413, 0.052909210324287415, -0.0014909919118508697, -0.06464637070894241, 0.04194488376379013, -0.0017098343232646585, -0.09811389446258545, 0.09696268290281296, -0.026621805503964424, 0.12286512553691864, -0.04975266009569168, 0.034127578139305115, -0.0006865265313535929, -0.0041458443738520145, 0.06117868795990944, -0.00047738259308971465, -0.043544694781303406, -0.04294954612851143, 0.022423096001148224, -0.026111427694559097, 0.05023396760225296, 0.05151590704917908, -0.09737880527973175, 0.1215335875749588, -0.03801082447171211, 0.06731650233268738, -0.07345011830329895, -0.02936510182917118, -0.013430852442979813, 0.08937302976846695, -0.008797910064458847, 0.05183771625161171, 0.0195634625852108, 0.050927285104990005, 0.14671717584133148, -0.02604847587645054, 0.07355356216430664, -0.0207272507250309, 0.0018758216174319386, -0.011082655750215054, -0.052309244871139526, 0.06207404285669327, -0.07683412730693817, -0.044179607182741165, 0.03503362834453583, -0.1529819518327713, 0.0434742197394371, 0.15083400905132294, -0.08146969228982925, -0.14486104249954224, 0.06389322131872177, 0.06606746464967728, 0.03884464129805565, -0.02037966251373291, 0.14712435007095337, -0.10099342465400696, 0.02765808068215847, -0.11158323287963867, 0.06031029298901558, 0.0762694701552391, 0.06121828407049179, -0.03620532527565956, -0.00809825025498867, -0.02247008867561817, -0.08789868652820587, -0.1878352165222168, 0.1454956829547882, -0.011132494546473026, -0.0016680150292813778, -0.091341033577919, -0.06604588031768799, 0.12184741348028183, 0.13147541880607605, 0.01500597596168518, -0.06693984568119049, -0.009839977137744427, 0.07743047922849655, -0.03360506147146225, -0.05777443200349808, 0.10568149387836456, 0.03166842460632324, 0.08221558481454849, 0.04617399349808693, -0.047456882894039154, -0.1735391765832901, -0.09218529611825943, 0.0005939344991929829, 0.014236316084861755, 0.059149619191884995, -0.07166054844856262, 0.032485876232385635, -0.008356062695384026, 0.05249501392245293, 0.02820386178791523, 0.06716674566268921, 0.08538313210010529, 0.028666185215115547, 0.04539851099252701, -0.04182639345526695, 0.016054395586252213, 0.04736540839076042, -0.012136157602071762, -0.09527897089719772, -0.05416446551680565, 0.030103258788585663, -0.029763245955109596, -0.033672139048576355, 0.048221684992313385, -0.01882258430123329, -0.09199546277523041, -0.10410483181476593, -0.08713480830192566, -0.020171036943793297, -0.056488700211048126, -0.016030536964535713, -0.04105611890554428, 0.029876310378313065, -0.08207704871892929, 0.07442735135555267, -0.06985802203416824, 0.011111133731901646, 0.036529071629047394, 0.06981553882360458, -0.041144151240587234, -0.030846258625388145, -0.1310189664363861, -0.02717682346701622, 0.06218092143535614, 0.052678320556879044, -0.06014648452401161, -0.010956170968711376, -0.06219425052404404, -0.016298672184348106, -0.08168167620897293, 0.015210529789328575, 0.021875275298953056, -0.05092570185661316, -0.04574261233210564, 0.021740475669503212, -0.05899422988295555, -0.008643393404781818, -0.08820706605911255, -0.012199768796563148, 0.016750015318393707, 0.0029831486754119396, -0.008025068789720535, -0.10321106016635895, 0.03555439040064812, 0.050361163914203644, -0.08150488138198853, 0.030373424291610718, -0.04792105779051781, -0.09109152853488922, -0.05267144367098808, 0.0490417554974556, 0.026714572682976723, -0.07471431791782379, 0.036768801510334015, -0.03204553946852684, 0.07306389510631561, 0.0330379493534565, 0.03807176277041435, -0.05424605309963226, -0.18337158858776093, -0.001305574318394065, 0.12681779265403748, 0.030615396797657013, 0.0229585450142622, 0.04790440946817398, 0.020859738811850548, 0.04953540489077568, 0.02645093761384487, -0.022562175989151, 0.007711878977715969, -0.014231693930923939, -0.12285283952951431, -0.0350593701004982, -0.015680471435189247, -0.007055530324578285, 0.03597915545105934, 0.04407897964119911, -5.360132854548283e-05, -0.00022989444551058114, 0.07228116691112518, -0.006820118986070156, -0.10449919104576111, 0.13957056403160095, -0.018501272425055504, 0.14721131324768066, -0.04491330683231354, -0.05629696324467659, -0.05201849713921547, -0.04746448993682861, 0.05050680413842201, 0.06062447279691696, 0.025330279022455215, -0.08703763037919998, -0.044880278408527374, 0.015139208175241947, -0.0859423577785492, 0.03857339546084404, 0.04625885561108589, -0.027077820152044296, -0.1557084321975708, -0.040196020156145096, -0.019843673333525658, -0.0692528709769249, 0.007716083433479071, 0.16687965393066406, 0.027529697865247726, -0.051205649971961975, -0.046082109212875366, 0.0962415486574173, -0.02559126541018486, -0.0049795592203736305, 0.07850445806980133, 0.1322334259748459, -0.02276524342596531, 0.039352625608444214, 0.16458524763584137, -0.028027089312672615, 0.03908959776163101, 0.013947035185992718, -0.0772419199347496, -0.07099667191505432, 0.18326357007026672, 0.01956772804260254, 0.07570112496614456, -0.0188079085201025, -0.10418856143951416, 0.035642050206661224, -0.04105450585484505, 0.03550077602267265, -0.0023106257431209087, -0.0478227324783802, -0.021831702440977097, 0.04902682080864906, -0.05225213244557381, 0.03531350940465927, -0.013706288300454617, 0.003047543577849865, -0.027347033843398094, 0.010546774603426456, 0.13129401206970215, 0.037873633205890656, -0.01816333644092083, 0.053140103816986084, -0.02734740450978279, -0.006511365994811058, -0.10059593617916107, -0.012861115857958794, -0.15586885809898376, 0.023240109905600548, -0.03920726478099823, -0.10559363663196564, 0.005821309983730316, -0.006338705774396658, -0.0792246088385582, -0.040498800575733185, -0.09876186400651932, -0.015267406590282917, -0.08374141156673431, -0.06105485558509827, -0.02638065256178379, 0.021715981885790825, -0.005728462245315313, 0.05162201449275017, 0.05974641069769859, -0.013588673435151577, 0.07149552553892136, -0.09331253916025162, 0.06838428229093552, 0.07726983726024628, 0.004508140962570906, -0.08902132511138916, -0.0404496043920517, -0.12368802726268768, 0.0075491853058338165, -0.1371481865644455, 0.20252510905265808, 0.09516683220863342, -0.12101838737726212, 0.019368143752217293, -0.03153081610798836, 0.008947771973907948, -0.0010811780812218785, 0.021339427679777145, -0.06620104610919952, 0.08224256336688995, -0.08721873164176941, 0.029770996421575546, 0.009544013068079948, 0.004270743113011122, -0.02404767833650112, -0.07662918418645859, -0.004857879132032394, -0.08917025476694107, -0.045506395399570465,
 0.012187465094029903, -0.009839976206421852, -0.1199912503361702, -0.08522996306419373, -0.11408324539661407, 0.143447145819664, -0.009768733754754066, 0.0003135819570161402, 0.017196936532855034, 0.007968798279762268, -0.03988037630915642, -0.07110033184289932, -0.1136602908372879, -0.13140684366226196, -0.049201447516679764, 0.023171763867139816, 0.01089400053024292, 0.05381132289767265, 0.0732450932264328, -0.05918533354997635, -0.0391635000705719, -0.029348956421017647, -0.01643862947821617, 0.04289596527814865, 0.10509361326694489, 0.011957368813455105, 0.11050394922494888, -0.03443615883588791, 0.11797201633453369, -0.09440170228481293, -0.033306192606687546, -0.03294328227639198, -0.10740237683057785, -0.07102516293525696, -0.050303809344768524, -0.04881138354539871, 0.08364209532737732, 0.025590671226382256, 0.0019809717778116465, 0.14827938377857208, -0.018874332308769226, -0.17142705619335175, -0.019937649369239807, -0.07852381467819214, -0.03197885677218437, 0.04673919081687927, 0.059429217129945755, 0.08462679386138916, -0.12287472933530807, -0.06396360695362091, 0.22446684539318085, -0.07000941783189774, 0.07072680443525314, -0.03635818511247635, 0.1295887529850006, -0.04657134786248207, -0.017388135194778442, -0.00870523601770401, -0.10010430216789246, -0.05419401824474335, 0.04502083361148834, -0.03088327869772911, 0.08232565969228745, 0.0013248249888420105, 0.06752917915582657, 0.00923093594610691, 0.0231377724558115, -0.04274317994713783, -0.03229565545916557, -0.0034993526060134172, -0.00251731532625854, -0.13116611540317535, 0.062324751168489456, -0.035154350101947784, 0.012806515209376812, -0.05984993278980255, -0.062151938676834106, -0.0663473829627037, -0.01592797040939331, -0.0003402373695280403, -0.04806438088417053, 0.04660600423812866, -0.019638938829302788, -0.002658445853739977, -0.023116877302527428, -0.07072561234235764, 0.04703294113278389, 0.06824926286935806, -0.030588239431381226, -0.09956268966197968, -0.030291877686977386, 0.0108873900026083, 0.014237776398658752, -0.06433972716331482, -0.02578972466289997, -0.04262147843837738, -0.12743635475635529, 0.002287491923198104, 0.10576653480529785, -0.016794349998235703, 0.04223661497235298, -0.020009947940707207, 0.06974601000547409, 0.0733635351061821, -0.09810588508844376, 0.12257017195224762, 0.016564305871725082, -0.020757898688316345, 0.09579920768737793, 0.0843934640288353, -0.04662983492016792, 0.13550041615962982, 0.027303421869874, 0.036173515021800995, -0.032678235322237015, -0.015256333164870739, 0.005730413366109133, 0.03230792284011841, -0.08786699175834656, 0.06657931208610535, -0.07491781562566757, 0.07415921241044998, -0.06675082445144653, 0.02722175233066082, -0.03460192307829857, 0.12492204457521439, -0.02880740724503994, -0.023567460477352142, 0.11293559521436691, 0.05917983874678612, 0.0548919253051281, -0.06245914101600647, -0.009435408748686314, -0.023877190425992012, -0.06973689049482346, -0.11100678145885468, -0.04665496200323105, 0.017867563292384148, -0.0012405822053551674, 0.14602291584014893, 0.14063657820224762, -0.14364825189113617, 0.03454697132110596, -0.025304263457655907, 0.07652096450328827, 0.02465817518532276, -0.004492000676691532, -0.048585452139377594, 0.0319674126803875, -0.029524151235818863, -0.041443195194005966, 0.07423513382673264, 0.032707203179597855, 0.07733073830604553, 0.12183396518230438, 0.006211723666638136, 0.03038589283823967, -0.056317880749702454, 0.072050079703331, 0.14069616794586182, -0.00017426123667974025, -0.12287850677967072, -0.02219616062939167, -0.006503122393041849, 0.14018338918685913, -0.04045075550675392, 0.09084216505289078, 0.013459614478051662, -0.02707371488213539, -0.05736925080418587, -0.057164330035448074, 0.028650682419538498, -0.008374707773327827, 0.0031386008486151695, 0.013731831684708595, 0.0668174996972084, 0.010975264944136143, 0.07845455408096313, 0.042294248938560486, 0.04884897544980049, 0.027536828070878983, 0.08805062621831894, -0.04258786886930466, 0.08856506645679474, -0.03091941773891449, 0.030248990282416344, 0.03429107367992401, -0.08262678980827332, 0.059265539050102234, -0.017786582931876183, -0.09982039779424667, -0.06040317937731743, 0.04365324229001999, -0.014690820127725601, 0.04831239953637123, 0.016063842922449112, -0.021537071093916893, 0.06579823791980743, 0.007527411915361881, 0.05086971074342728, -0.10255028307437897, -0.03673337399959564, 0.16598616540431976, 0.08812437951564789, -0.0005499952239915729, -0.015591328963637352, -0.05183497816324234, -0.036156222224235535, -0.03208469599485397, -0.043629635125398636, -0.01256739441305399, -0.0413021482527256, -0.09568524360656738, -0.019624613225460052, -0.015412122942507267, -0.048840101808309555, -0.003917053807526827, -0.010399585589766502, 0.03679170832037926, 0.034404076635837555, 0.014747636392712593, 0.03226715698838234, -0.016190188005566597, -0.03678165376186371, -0.0418134480714798, 0.12760187685489655, 0.0946691557765007, -0.0008438044460490346, 0.00253438507206738, -0.01032403763383627, 0.10078909248113632, -0.056293636560440063, 0.03261423110961914, 0.006529818754643202, -0.039702873677015305, 0.06311380863189697, -0.08765079081058502, -0.04271838814020157, 0.0728774443268776, 0.04148931801319122, 0.09573547542095184, 0.09148377925157547, 0.02179666794836521, 0.01737709529697895, -0.13579078018665314, 0.1538664996623993, -0.027774600312113762, -0.11372129619121552, 0.009363795630633831, -0.10698118060827255, -0.04188539832830429, -0.07111278176307678, -0.08764107525348663, -0.006094765849411488, -0.08649114519357681, -0.00948457233607769, 0.06726756691932678, 0.09332483261823654, -0.05637332797050476, -0.033178817480802536, -0.14502380788326263, -0.13743725419044495, -0.022134259343147278, 0.05293072387576103, -0.054095204919576645, -0.15962141752243042, 0.055131372064352036, -0.00856356043368578, -0.09468855708837509, 0.002364741638302803, -0.004415031522512436, -0.07028922438621521, 0.037207067012786865, -0.13436086475849152, 0.030434532091021538, 0.04805320128798485, -0.017090044915676117, 0.10837951302528381, 0.12691046297550201, 0.07861677557229996, -0.05351406708359718, -0.05743681639432907, -0.05850578844547272, -0.05796444043517113, -0.0027611509431153536, -0.04012047126889229, 0.0035632539074867964, 0.062070928514003754, 0.11455211043357849, -0.03962366282939911, -0.04811788350343704, -0.03094721958041191, -0.01053320337086916, -0.02783198654651642, -0.019121922552585602, -0.04462344944477081, 0.001146867754869163, 0.1199820339679718, 0.026984810829162598, 5.041840995545499e-05, -0.06245856359601021, 0.07007571309804916, -0.05531507357954979, -0.05680544301867485, -0.006377930287271738, -0.003875949652865529, 0.0487087145447731, -0.0018971674144268036, 0.11611367017030716, -0.013967154547572136, -0.061127763241529465, 0.04856938123703003, -0.07976684719324112, -0.12373092025518417, 0.06757812947034836, -0.05343267321586609, 0.07391248643398285, 0.037679869681596756, 0.06202266737818718, -0.013068255968391895, -0.038207437843084335, 0.19182172417640686, 0.030355341732501984, 0.057937171310186386, -0.16141875088214874, -0.05366400629281998, -0.04168445244431496, 0.06855085492134094, 0.013897696509957314, 0.009055313654243946, 0.12675541639328003, -0.02519850805401802, -0.04983043670654297, -0.04291239753365517, -0.09686271846294403, 0.06917387247085571, 0.001485271961428225, -0.018581928685307503, 0.0833292156457901, 0.048478078097105026, 0.04892395809292793, -0.13031262159347534, 0.04767844080924988, 0.14732779562473297, -0.05495321750640869, -0.03384973108768463, -0.05143425613641739, 0.08584423363208771, 0.057471830397844315, 0.042290862649679184, 0.019049666821956635, 0.0870995819568634, -0.06678588688373566, -0.046426139771938324, -0.04198669269680977, -0.10115278512239456, -0.05671107396483421, 0.05705798417329788, 0.008122504688799381, -0.02410452626645565, -0.019572371616959572, 0.04777234420180321, -0.06368385255336761, 0.13386119902133942, -0.09318605065345764, -0.17268061637878418, -0.05134930834174156, -0.0010264196898788214, 0.016624031588435173, -0.08221927285194397, -0.01633586175739765, 0.0708760991692543, -0.012531781569123268, -0.061140380799770355, -0.032364197075366974, -0.08948460221290588, 0.09450844675302505, 0.020193347707390785, 0.08526061475276947, 0.05955131724476814, 0.029252024367451668, -0.034568097442388535, 0.018517492339015007, 0.039330992847681046, 0.029189467430114746, -0.007617936935275793, -0.06662509590387344, 0.07304786145687103, -0.19060318171977997, 0.04054143652319908, 0.049968965351581573, 0.18002666532993317, -0.022842004895210266, -0.02037159912288189, -0.023740526288747787, 0.033509381115436554, -0.044811829924583435, 0.06179027259349823, -0.08083702623844147, 0.016713930293917656, 0.054698701947927475, -0.14044784009456635, -0.024450840428471565, -0.042449288070201874, 0.009723471477627754, -0.04518551006913185, 0.0554528683423996, -0.02429002895951271, 0.09076033532619476, -0.03897546976804733, -0.10455510020256042, -0.050056423991918564, 0.11005333065986633, -0.06123211607336998, -0.09163787961006165, 0.03054320439696312, -0.03836863115429878, 0.16691184043884277, 0.08633746206760406, -0.05582785606384277, 0.04803299158811569, -0.09726635366678238, -0.038195688277482986, -0.04673873633146286, 0.04252190515398979, -0.01825539954006672, 0.014495735988020897, -0.1479044407606125, 0.12232864648103714, 0.04733361303806305, 0.004618641454726458, 0.12789224088191986, -0.03330719470977783, -0.024073347449302673, -0.005685732699930668, 0.006725628394633532, 0.051777977496385574, 0.004475815687328577, 0.14430397748947144, -0.09307112544775009, -0.05996755510568619, 0.014863868243992329, -0.14608199894428253, 0.027885664254426956, 0.08414673060178757, -0.06142247095704079, 0.04103463888168335, 0.06198517978191376, 0.0925455093383789, 0.14629068970680237, 0.006330796983093023, 0.13084423542022705, -0.03410841152071953,
 -0.03951394930481911, -0.05616600438952446, -0.15373513102531433, 0.037581413984298706, 0.12287446111440659, -0.02894340641796589, -0.07106611132621765, -0.02748464234173298, 0.06487806141376495, -0.0937199667096138, 0.02427481673657894, 0.06848112493753433, 0.05294276401400566, 0.045926857739686966, 0.06982658803462982, -0.051217034459114075, -0.04656239598989487, 0.025709256529808044, 0.054610371589660645, -0.1011846587061882, 0.07508717477321625, -0.19186489284038544, 0.024802010506391525, -0.1237201988697052, -0.13853023946285248, 0.016727739945054054, -0.04912710189819336, 0.1580287665128708, -0.05892392247915268, 0.006171337328851223, -0.07601839303970337, 0.017179666087031364, -0.0008124763262458146, 0.035428453236818314, 0.054233238101005554, -0.10788388550281525, 0.09693649411201477, -0.12313196063041687, -0.1045389473438263, 0.039366692304611206, 1.1691731742757838e-05, 0.044851213693618774, 0.019836997613310814, -0.0005101212300360203, -0.11541490256786346, -0.02331404760479927, 0.050116728991270065, 0.005130006466060877, -0.06236065924167633, 0.08391068875789642, -0.12212345749139786, -0.010306928306818008, -0.05779552459716797, 0.023328136652708054, -0.02078169398009777, -0.04643009975552559, 0.006431727670133114, -0.08018835633993149, -0.047428879886865616, 0.008356209844350815, -0.030272146686911583, -0.0941942036151886, 0.07347150146961212, 0.14406278729438782, -0.03099207580089569, -0.02496471256017685, -0.03359740227460861, 0.04181324318051338, 0.005916602443903685, -0.11571116000413895, 0.1394329071044922, 0.016674047335982323, -0.02119058184325695, -0.0416753813624382, -0.04249154031276703, -0.015572764910757542, 0.04927036538720131, -0.09520135819911957, 0.08755363523960114, 0.03334758058190346, -0.023814508691430092, 0.08995301276445389, -0.0437282957136631, -0.0413040891289711, 0.025699783116579056, 0.04532521218061447, -0.021068420261144638, 0.027913983911275864, 0.050372958183288574, -0.0740133598446846, 0.05849122628569603, -0.07397611439228058, -0.06238593906164169, 0.0152055062353611, 0.13471953570842743, 0.05491500347852707, -0.05622117593884468, -0.06387895345687866, -0.025615958496928215, 0.0301363542675972, 0.1013064980506897, -0.0771525576710701, -0.09775786846876144, 0.031980179250240326, -0.11613635718822479, 0.09007083624601364, -0.005016617011278868, 0.03170838579535484, -0.020105144008994102, 0.018247205764055252, 0.041334860026836395, -0.052449073642492294, -0.04123055189847946, 0.015946442261338234, -0.07169105112552643, 0.01822734624147415, -0.06342386454343796, 0.04338406026363373, 0.08023954182863235, 0.06195584312081337, 0.06631338596343994, -0.008314610458910465, 0.06561822444200516, -0.0764705240726471, -0.17282700538635254, 0.014312287792563438, 0.09107734262943268, 0.09500246495008469, 0.07252797484397888, -0.04165181890130043, 0.04379795491695404, -0.005433371756225824, 0.015452655963599682, 0.012737353332340717, -0.004254417028278112, 0.112798772752285, -0.030911507084965706, 0.07956349104642868, 0.003335029585286975, 0.017252767458558083, -0.1415935754776001, 0.014326625503599644, 0.00015242797962855548, 0.04506196826696396, -0.04258172586560249, 0.0252980999648571, -0.00735637778416276, 0.039911262691020966, 0.07052276283502579, 0.02165241166949272, 0.00831067468971014, 0.11636350303888321, -0.04460131376981735, -0.02884032391011715, -0.06405851244926453, -0.04865078255534172, -0.02544400654733181, 0.009815012104809284, 0.00031011184910312295, -0.014427181333303452, 0.005517377518117428, 0.03693021461367607, -0.0892060399055481, 0.025087621062994003, -0.04370135813951492, -0.11832308769226074, -0.14275340735912323, -0.09187127649784088, -0.025173328816890717, 0.12458190321922302, 0.1729888767004013, -0.0731440931558609, 0.06428105384111404, -0.0803285464644432, 0.011001434177160263, -0.060473233461380005, 0.02163180522620678, -0.023510323837399483, 0.10130373388528824, 0.07630173861980438, 0.0634632259607315, -0.03284169360995293, 0.09512507170438766, -0.015849769115447998, 0.07877431064844131, 0.049517709761857986, -0.0799122005701065, -0.0027387712616473436, 0.03039570339024067, 0.11741521209478378, 0.09487880766391754, -0.10121635347604752, 0.10654918849468231, 0.03178929537534714, 0.0544336698949337, -0.05847974866628647, -0.020486293360590935, 0.04712367057800293, -0.022279590368270874, 0.08775202929973602, 0.05309171602129936, 0.06437387317419052, 0.026340864598751068, -0.06897813081741333, -0.08069482445716858, -0.12408334016799927, -0.1301112323999405, 0.1564844697713852, 0.14888189733028412, 0.12900246679782867, 0.04832514747977257, 0.028518883511424065, -0.05631842836737633, 0.2015465945005417, 0.021460035815835, -0.03864138945937157, 0.008457244373857975, -0.014819594100117683, 0.0698295384645462, -0.020952925086021423, 0.07568269968032837, -0.05738028138875961, 0.004572794307023287, -0.04452584683895111, -0.06931754946708679, -0.09104426950216293, -0.05532049760222435, -0.05637822300195694, 0.04288611188530922, 0.11332494020462036, -0.10276401042938232, 0.06085613742470741, -0.10521483421325684, 0.04735369607806206, -0.035328224301338196, 0.018829701468348503, 0.07234524190425873, 0.18515916168689728, -0.07250950485467911, 0.03045329637825489, 0.053515832871198654, 0.0629320740699768, -0.04009203240275383, 0.07506255805492401, -0.04294300451874733, 0.013723758980631828, -0.10395622998476028, 0.09930115193128586, 0.035771649330854416, -0.029604138806462288, 0.05500390753149986, 0.17201483249664307, 0.10267241299152374, 0.007083981763571501, 0.09115010499954224, 0.20474550127983093, -0.008693516254425049, 0.0735359787940979, -0.08395358920097351, 0.04049079492688179, 0.01520305871963501, 0.06499636918306351, -0.017705796286463737, -0.012663272209465504, 0.11691504716873169, 0.016244523227214813, -0.027712717652320862, 0.0010458696633577347, -0.056096818298101425, -0.04922372102737427, 0.03300861641764641, 0.1644580364227295, -0.09859021008014679, -0.09784229099750519, 0.0867878645658493, 0.02714143879711628, -0.1205659955739975, -0.06054053455591202, -0.04654134809970856, -0.13622578978538513, -0.1838742196559906, -0.009132547304034233, -0.006436910480260849, -0.059040769934654236, 0.008429915644228458, -0.05342929810285568, 0.0781317725777626, -0.02331499196588993, -0.06856133788824081, -0.025191830471158028, -0.018141411244869232, 0.11185348778963089, -0.04244614392518997, -0.0483265146613121, 0.038670625537633896, 0.07556825876235962, 0.10451721400022507, 0.13373614847660065, 0.14453914761543274, -0.05434824898838997, 0.04162287339568138, 0.027222882956266403, -0.02740299142897129, -0.12120164930820465, -0.0034877953585237265, 0.06844465434551239, -0.04518129304051399, -0.024798888713121414, -0.03555157780647278, -0.003312932327389717, 0.012330659665167332, 0.01823562942445278, -0.012138307094573975, -0.03440999239683151, -0.10683339089155197, 0.01765546202659607, -0.050587236881256104, 0.02712506614625454, 0.0606749951839447, -0.0030772043392062187, 0.12667016685009003, -0.0355074480175972, -0.05537349730730057, -0.03752405568957329, 0.03673955053091049, -0.02083226852118969, 0.006389417685568333, 0.05729401856660843, 0.09844859689474106, -0.11426007747650146, -0.015563352033495903, 0.04182501509785652, 0.015118992887437344, 0.05180271714925766, 0.06871854513883591, -0.08916884660720825, -0.041030220687389374, -0.06408382952213287, 0.0868953987956047, -0.0029706039931625128, 0.005379561800509691, 0.00740093644708395, -0.10513582825660706, 0.03486805409193039, -0.0341557152569294, -0.057853054255247116, 0.02246120013296604, 0.0707678571343422, -0.08505912125110626, 0.07858231663703918, -0.033810097724199295, 0.04734639450907707, 0.019737359136343002, -0.05393868684768677, 0.09077233076095581, 0.015384034253656864, 0.00031292097992263734, 0.06631142646074295, -0.07946398854255676, 0.07816601544618607, -0.05899811536073685, -0.020936787128448486, -0.03881856054067612, 0.10009440034627914, -0.07050461322069168, 0.00886255782097578, 0.014945534989237785, 0.03812596574425697, -0.16474401950836182, 0.023919956758618355, -0.10116152465343475, 0.032789167016744614, 0.05430615320801735, -0.06246476247906685, 0.06859277933835983, -0.08133000880479813, -0.0506201833486557, 0.07142239809036255, -0.06572484970092773, -0.13010109961032867, 0.023067332804203033, 0.11105328053236008, 0.027138834819197655, -0.06578238308429718, 0.051989588886499405, -0.04702460393309593, 0.026135452091693878, -0.03382629156112671, -0.012944965623319149, 0.005374523811042309, -0.048413172364234924, -0.021900370717048645, 0.043269697576761246, 0.027480890974402428, 0.08792965114116669, -0.247268408536911, -0.03767980635166168, 0.06662619113922119, -0.0741807296872139, -0.09042774140834808, 0.08375085145235062, -0.06428147107362747, -0.0728314220905304, 0.051410973072052, -0.020552972331643105, 0.10930787026882172, -0.03832462802529335, 0.015275306068360806, 0.00032327629742212594, -0.028661148622632027, 0.026038028299808502, -0.021040135994553566, 0.04182206466794014, 0.13257093727588654, -0.06142166629433632, -0.06367452442646027, 0.019545648247003555, 0.06261195242404938, -0.03217538446187973, -0.030428119003772736, 0.047130852937698364, 0.1464519202709198, 0.00997304730117321, -0.042055774480104446, -0.014844421297311783, 0.12295696139335632, -0.0718112587928772, -0.05933301895856857, -0.05828462168574333, -0.06680196523666382, -0.03575688600540161, -0.12962453067302704, -0.0016695365775376558, -0.104710653424263, -0.009682274423539639, 0.08032797276973724, -0.12228096276521683, 0.13443288207054138, -0.05234169960021973, 0.016018768772482872, -0.029449565336108208, 0.037765130400657654, 0.14505760371685028, -0.010132456198334694, -0.05425162613391876, 0.060328178107738495, -0.03677735850214958, 0.03163529932498932, -0.13553506135940552, -0.0060382019728422165, -0.017301004379987717, -0.024036908522248268, 0.10729668289422989, 0.06557811796665192, 0.0016612561885267496, -0.04461933299899101,
 0.12833723425865173, 0.15198779106140137, -0.13555091619491577, -0.07091666758060455, 0.0706225261092186, -0.06311015784740448, 0.025309378281235695, 0.022834740579128265, -0.032082393765449524, 0.018198946490883827, -0.020212208852171898, 0.0545261912047863, -0.018663186579942703, 0.04882071167230606, 0.09672577679157257, -0.1205679178237915, -0.0034616971388459206, 0.11051982641220093, 0.007817480713129044, 0.02818150445818901, -0.07867536693811417, -0.09362748265266418, 0.06578561663627625, 0.0662185475230217, -0.03978235647082329, 0.046294186264276505, -0.11919808387756348, -0.1995091736316681, 0.012800815515220165, -0.14020730555057526, -0.07973416149616241, 0.028306109830737114, 0.012151313945651054, 0.06097652018070221, -0.11060065776109695, 0.050527218729257584, -0.07211194932460785, 0.057652685791254044, 0.039490967988967896, 0.10597774386405945, -0.0732014998793602, 0.008428084664046764, -0.10077349096536636, 0.08657555282115936, 0.023864861577749252, -0.09731011092662811, 0.03327124938368797, 0.00018491127411834896, -0.09767346829175949, 0.06592898815870285, -0.10667593777179718, 0.07952612638473511, -0.03628759831190109, -0.03429584205150604, -0.08865546435117722, -0.03360714390873909, 0.12568984925746918, -0.007690558210015297, -0.11082489788532257, 0.14062589406967163, 0.012848272919654846, 0.012284738942980766, 0.007699862588196993, 0.05821513757109642, 0.03413071110844612, 0.08411505073308945, -0.05709782615303993, 0.15255525708198547, -0.0953117236495018, -0.041382286697626114, -0.10033014416694641, 0.040074046701192856, -0.13268592953681946, 0.021615246310830116, 0.06932030618190765, 0.019239667803049088, -0.016970545053482056, -0.0109706474468112, 0.017380261793732643, 0.037122417241334915, 0.05590162053704262, 0.032296210527420044, 0.004322470165789127, 0.02823377028107643, -0.05836092680692673, -0.017805224284529686, -0.05953337997198105, -0.13185696303844452, 0.10792047530412674, 0.046925537288188934, -0.04365209490060806, -0.057172298431396484, -0.010260201059281826, -0.011952606961131096, 0.2342095971107483, 0.1213156133890152, 0.14848820865154266, -0.05751515552401543, -0.007533562369644642, -0.0635351613163948, -0.03133131191134453, 0.04047155752778053, -0.010695268400013447, -0.017391320317983627, -0.10563335567712784, 0.07445655763149261, -0.15326716005802155, -0.06516367942094803, 0.10950572788715363, -0.19667312502861023, 0.01975252479314804, -0.0368516780436039, -0.04200281947851181, -0.09459319710731506, -0.01108473725616932, -0.0369686633348465, -0.06621474772691727, 0.04709584638476372, 0.09160351753234863, -0.025709372013807297, 0.049688905477523804, -0.09168451279401779, 0.03366204351186752, 0.020828591659665108, 0.16860371828079224, 0.034231122583150864, -0.04236998409032822, 0.1043606847524643, -0.02346876636147499, 0.04555230587720871, 0.11779539287090302, 0.020291002467274666, -0.05887916311621666, -0.09018184244632721, 0.03860384598374367, -0.0670820027589798, -0.021122051402926445, -0.06283105909824371, -0.13818767666816711, 0.07353708148002625, -0.018941959366202354, 0.11581992357969284, 0.05120077356696129, -0.1283307522535324, 0.0531039722263813, -0.1021970584988594, 0.025606948882341385, 0.06598927080631256, 0.06802579015493393, -0.06132453680038452, 0.033173564821481705, 0.05241493135690689, 0.039133794605731964, -0.08019816130399704, 0.032187677919864655, -0.04359393194317818, -0.13662934303283691, -0.05869850516319275, 0.03841846436262131, -0.08977419137954712, -0.014595838263630867, 0.03951669856905937, -0.05814578756690025, 0.04318293184041977, 0.0017131982604041696, -0.20287908613681793, -0.11771075427532196, -0.0066039301455020905, 0.040434595197439194, -0.13008593022823334, -0.09261573851108551, 0.016591854393482208, 0.07663583010435104, 0.001426437753252685, 0.040506262332201004, 0.05475756525993347, 0.07768900692462921, -0.07278334349393845, -0.1468658447265625, 0.04962818697094917, 0.05668191239237785, -0.024860085919499397, 0.08024238049983978, 0.07423403114080429, 0.11079281568527222, 0.04579798877239227, -0.05806524679064751, 0.09929149597883224, -0.06217729672789574, -0.05120676010847092, 0.08036959916353226, 0.004413072019815445, -0.020928794518113136, 0.03955879062414169, 0.07173623889684677, -0.004996717441827059, -0.03703205659985542, -0.0015980310272425413, 0.17321442067623138, -0.012629980221390724, 0.025973470881581306, 0.07055505365133286, -0.0776013433933258, -0.08867662400007248, -0.003262306097894907, -0.057608794420957565, 0.05483674630522728, -0.054171863943338394, -0.06143075227737427, -0.03479258716106415, 0.09186576306819916, -0.10515671223402023, -0.03566618263721466, -0.06433824449777603, 0.02060643956065178, 0.04591554030776024, 0.011910172179341316, -0.12676115334033966, 0.017246585339307785, 0.05698440596461296, -0.07237035036087036, -0.016916023567318916, 0.14218908548355103, -0.16102200746536255, 0.09703225642442703, -0.0484423004090786, 0.11502152681350708, 0.1522296965122223, 0.13648954033851624, 0.033907514065504074, 0.13283272087574005, -0.018793562427163124, 0.19600781798362732, 0.031084511429071426, -0.09140075743198395, 0.1604527235031128, 0.035829924046993256, -0.06846459209918976, -0.029742715880274773, 0.025451121851801872, -0.013392314314842224, 0.023987069725990295, -0.06370937824249268, -0.028472160920500755, 0.028622088953852654, 0.028578512370586395, 0.03900260850787163, 0.02866211347281933, -0.017522096633911133, -0.16408197581768036, -0.04926896095275879, -0.20736566185951233, -0.0471210740506649, -0.1625126302242279, -0.02143205888569355, -0.00013765529729425907, 0.0008254851563833654, -0.020314477384090424, -0.039554182440042496, 0.02587488479912281, 0.008702118881046772, -0.047715313732624054, -0.0541452020406723, 0.03186839818954468, -0.0033846257720142603, -0.06994875520467758, -0.002066130982711911, -0.04973597824573517, -0.01090998575091362, 0.08586698770523071, -0.04195377975702286, 0.06623220443725586, 0.07709616422653198, -0.05334582179784775, 0.050715379416942596, -0.16405677795410156, -0.06243016943335533, 0.013641723431646824, -0.091514952480793, 0.02741921879351139, -0.03679613396525383, 0.08186352252960205, 0.011203010566532612, 0.040441110730171204, -0.05297025293111801, 0.10922303795814514, -0.09818874299526215, 0.029436076059937477, -0.01941237784922123, 0.053541723638772964, -0.06386382132768631, -0.028885161504149437, 0.12572534382343292, -0.18625986576080322, -0.08445273339748383, 0.028307512402534485, 0.005777833983302116, -0.016413383185863495, 0.0374307781457901, -0.16999810934066772, -0.0912211686372757, 0.02793962135910988, -0.03135919198393822, 0.014003741554915905, -0.04128411039710045, -0.15601705014705658, -0.0776938945055008, 0.019113441929221153, 0.01639065146446228, -0.0006320836255326867, -0.06732425838708878, -0.02543313056230545, -0.024813514202833176, 0.0004268537450116128, 0.02073102444410324, 0.017969053238630295, 0.03467811271548271, -0.01085616834461689, -0.09100597351789474, 0.1927810162305832, 0.04847533255815506, -0.049604885280132294, 0.03763521462678909, 0.15396469831466675, 0.11661095917224884, -0.01571972668170929, -0.05553249269723892, 0.13567323982715607, -0.11319098621606827, 0.03922606259584427, 0.042797964066267014, 0.04408825561404228, 0.13369956612586975, 0.03994264453649521, 0.011609422974288464, -0.0010463247308507562, -0.07340691238641739, 0.011766002513468266, -0.010016277432441711, 0.06432679295539856, -0.07812399417161942, -0.07560829818248749, -0.12746696174144745, -0.020192639902234077, 0.1356765627861023, -0.06699088215827942, -0.03229754790663719, -0.043813206255435944, 0.017990639433264732, -0.026468265801668167, 0.001597102964296937, -0.041240863502025604, 0.13067223131656647, -0.021549435332417488, -0.022843556478619576, -0.0757216289639473, 0.06423094123601913, 0.12810659408569336, 0.14585284888744354, 0.13547664880752563, 0.028212180361151695, -0.05198429897427559, 0.09981292486190796, 0.006983695551753044, 0.04055999591946602, 0.15774358808994293, -0.033276159316301346, -0.033969447016716, 0.11592341959476471, -0.028388649225234985, -0.04126866161823273, -0.012106194160878658, -0.06057295203208923, 0.179645836353302, 0.07953435182571411, -0.12573955953121185, 0.024008790031075478, 0.018080851063132286, 0.01584296114742756, 0.07801959663629532, -0.039545636624097824, -0.07428576797246933, 0.01032677199691534, -0.015170411206781864, 0.01698794774711132, -0.12377999722957611, 0.18085061013698578, 0.028813054785132408, -0.03769140690565109, -0.08228698372840881, 0.004113227594643831, -0.025221917778253555, 0.10696672648191452, -0.094976507127285, -0.012456457130610943, -0.06335020810365677, -0.057298317551612854, 0.022204944863915443, 0.03925064951181412, -0.04026893898844719, -0.14878937602043152, -0.0894082710146904, 0.033148717135190964, -0.07612163573503494, -0.07452231645584106, -0.007567777298390865, -0.0035460370127111673, -0.042698659002780914, -0.04864679276943207, -0.1324125975370407, 0.0010190852917730808, 0.042055148631334305, -0.06629351526498795, -0.033760081976652145, 0.10983972251415253, -0.004376920871436596, 0.06210111081600189, 0.01795392669737339, 0.11069867759943008, -0.004039928317070007, -0.08526156097650528, -0.11214632540941238, -0.0945797935128212, 0.06407430768013, 0.03506337106227875, 0.0329805463552475, 0.08659015595912933, -0.07514852285385132, -0.02117171883583069, 0.0414486899971962, 0.07333764433860779, -0.11866263300180435, -0.072872094810009, -0.03532897308468819, 0.04565037414431572, 0.007617791183292866, 0.13597849011421204, 0.0345698744058609, -0.13066747784614563, 0.2693294286727905, -0.09037008881568909, -0.07375869154930115, 0.08664017170667648, -0.01230255700647831, -0.0639001727104187, 0.08157337456941605, 0.0989917442202568, 0.012810008600354195, 0.07627801597118378, 0.1702442318201065, -0.03713224083185196, 0.13689705729484558, -0.12606553733348846, -0.04615173488855362, 0.014779976569116116, -0.0030320954974740744,
